head,0,1,2,3,4,5,6,7,8,9,10,11,12,13,14,15
pa:10001,-0.049966188,-0.24836391,0.2454599,0.111174379,0.279522902,0.190913067,0.14258219,-0.330764485,0.365084907,-0.019002932,-0.011511048,0.283102744,-0.539739627,0.15839674,0.265349648,-0.134707717
pa:10002,-0.047897709,-0.264099067,0.246904652,0.120990751,0.26303242,0.272857473,0.092653035,-0.367737764,0.338034513,-0.01818848,0.000282741,0.272173819,-0.519425524,0.152308121,0.255132392,-0.134662256
pa:10003,-0.050688956,-0.252003147,0.179255143,0.144110661,0.284176429,0.19114485,0.063703613,-0.449454948,0.250551806,-0.018891544,-0.001124893,0.284698608,-0.544694702,0.159422912,0.267049177,-0.141609852
pa:10004,-0.045837927,-0.250053539,0.212445279,0.074422954,0.259311449,0.241069411,0.132336484,-0.403296072,0.245054231,-0.007291181,-0.097845283,0.257839574,-0.590090354,0.144353392,0.241797233,-0.124549877
pa:10005,-0.049397071,-0.251779838,0.243001725,0.096929193,0.254185045,0.204748681,0.074421809,-0.3785824,0.357515343,-0.019189653,0.004537766,0.282309288,-0.536848517,0.15786655,0.2645406,-0.138967416
pa:10006,-0.051016254,-0.273500759,0.206928012,0.09051782,0.258036695,0.260975257,0.180729848,-0.376893337,0.253557056,-0.018607635,-0.001790662,0.285433434,-0.546593146,0.159806566,0.267704432,-0.141768711
pa:10007,-0.05390071,-0.286844749,0.193069702,0.03939827,0.256750397,0.18470362,0.152605587,-0.35813213,0.264486477,-0.019682395,-0.00095685,0.30129356,-0.576730819,0.168672619,0.282561848,-0.149579689
pa:10008,-0.050112182,-0.249287422,0.222573287,0.049780364,0.246513967,0.187357199,0.140210266,-0.401666991,0.344126739,-0.019069946,0.002442597,0.283624424,-0.540217761,0.15867068,0.265789939,-0.139888852
pa:10009,-0.050370622,-0.246741312,0.227775975,0.048518113,0.268786206,0.179149636,0.138938516,-0.448288448,0.259947048,-0.01864718,-0.000469852,0.283462845,-0.54208166,0.158617695,0.265801716,-0.140727826
pa:10010,-0.050769592,-0.251701999,0.218581985,0.047730968,0.264644431,0.202258805,0.171839051,-0.338373577,0.363127005,-0.018733475,-0.009557998,0.285422548,-0.545939682,0.159836433,0.267729353,-0.141404414
pa:10011,-0.046945431,-0.258790587,0.149302307,0.125444643,0.277643872,0.237965499,0.109383309,-0.400026151,0.234112806,-0.007531865,-0.098102971,0.26150434,-0.597178498,0.146440832,0.245303357,-0.126418486
pa:10012,-0.137968988,-0.230602935,0.203423004,0.091219675,0.419578316,0.160958479,0.072893696,-0.310222524,0.232756758,-0.016603472,-0.003048343,0.258159782,-0.572178399,0.144573636,0.242157139,-0.21573806
pa:10013,-0.051041427,-0.228607234,0.127844712,0.090190166,0.341733957,0.192248628,0.081938968,-0.44648586,0.254060934,-0.018325831,-0.009979566,0.284927616,-0.546600849,0.159572806,0.267321895,-0.137791953
pa:10014,-0.048972417,-0.250545876,0.241732517,0.117400451,0.25913913,0.191277464,0.073382122,-0.389002053,0.351946258,-0.019458192,0.005383585,0.281489694,-0.534145018,0.157356118,0.2636751,-0.138045911
pa:10015,-0.047635543,-0.23924448,0.179693846,0.040817584,0.244764834,0.169706111,0.074156545,-0.381540697,0.316954226,-0.017435492,-0.001774145,0.267321126,-0.597144189,0.14968389,0.250735465,-0.229503952
pa:10016,-0.048965475,-0.216706919,0.058031982,0.014295002,0.284881773,0.233988949,0.076870467,-0.355509103,0.339341258,-0.01759242,-0.003056142,0.272896965,-0.591052805,0.152839833,0.256002064,-0.225121358
pa:10017,-0.050427707,-0.25469166,0.190653394,0.109383956,0.270959208,0.192177704,0.076966084,-0.451144344,0.272405657,-0.019028118,0.001181919,0.284002514,-0.541670943,0.158966911,0.266295924,-0.140186785
pa:10018,-0.049827096,-0.243972207,0.238072071,0.154924796,0.233560471,0.166787234,-0.006352513,-0.333654566,0.344351128,-0.018064347,-0.039812885,0.278717105,-0.57176995,0.156077784,0.261446061,-0.213946528
pa:10019,-0.049973297,-0.24648682,0.24034965,0.119633025,0.257704643,0.196038639,0.090761839,-0.361589505,0.365191567,-0.019535604,0.00395637,0.283906058,-0.539430497,0.158830436,0.266031701,-0.139604196
pa:10020,-0.050246631,-0.240634213,0.220456287,0.142387092,0.259150201,0.186839049,0.046287985,-0.334644694,0.35946976,-0.018698876,-0.089917717,0.282437898,-0.568898581,0.158006642,0.264800394,-0.13543495
pa:10021,-0.049491007,-0.251406673,0.202290638,0.137714868,0.26485707,0.19644155,0.031651089,-0.429567488,0.313188566,-0.019033243,-0.006718301,0.282123383,-0.537735287,0.157834685,0.264473823,-0.1344781
pa:10022,-0.05179494,-0.251330542,0.215550383,0.037454452,0.237431773,0.18551563,0.086367206,-0.456719314,0.256027211,-0.019118979,-0.001396549,0.290069313,-0.555158375,0.162414296,0.272033619,-0.144237921
pa:10023,-0.051089964,-0.236125457,0.169698949,0.112310142,0.292596013,0.204625718,0.077414058,-0.350321489,0.371753823,-0.019484521,0.002294982,0.288647759,-0.550008399,0.161500388,0.270578855,-0.142524428
pa:10024,-0.050183179,-0.246693715,0.225111919,0.048584223,0.237456543,0.189183165,0.117694025,-0.430804019,0.320688922,-0.019370036,-0.006040898,0.284356211,-0.541564763,0.159079893,0.266521617,-0.134996605
pa:10025,-0.050270962,-0.25166207,0.236340226,0.076751048,0.258545853,0.191997245,0.121578942,-0.352471833,0.368182823,-0.019410465,0.002960213,0.285602561,-0.543329436,0.159761322,0.267656052,-0.140647126
pa:10026,-0.052046379,-0.254718689,0.261525028,0.130167786,0.279846291,0.199312124,0.077485804,-0.34602256,0.267068099,-0.019069164,-0.11485865,0.291425994,-0.557873209,0.163137141,0.273289655,-0.144781005
pa:10027,-0.050893794,-0.249210608,0.167212775,0.137164254,0.297672985,0.192929677,0.036581474,-0.448426474,0.252292245,-0.018297073,-0.001890934,0.284978396,-0.545986745,0.159540591,0.267286806,-0.141685539
pa:10028,-0.048387499,-0.262324722,0.208228521,0.116932207,0.338787384,0.229975982,0.152791521,-0.331251648,0.343352961,-0.017751778,-0.001307372,0.270844407,-0.519875259,0.151612855,0.253978298,-0.147468245
pa:10029,-0.046136805,-0.23406975,0.196758315,0.083159689,0.277871068,0.163787437,0.096091356,-0.374277802,0.310695681,-0.017218438,0.000376554,0.260929864,-0.587405053,0.146012188,0.244638139,-0.230157362
pa:10030,-0.051778441,-0.258233099,0.179021182,0.03752281,0.244476125,0.197346447,0.10671685,-0.454349626,0.256022172,-0.018839129,-0.001827695,0.290271386,-0.555973485,0.162511626,0.272273778,-0.144323291
pa:10031,-0.050707339,-0.251267449,0.241380987,0.100066208,0.265862073,0.185534554,0.187975881,-0.40750734,0.251821526,-0.018494849,-0.001701598,0.285057788,-0.545500302,0.159547598,0.267303892,-0.141485571
pa:10032,-0.051011522,-0.227156468,0.101471694,0.059778607,0.329492319,0.193752973,0.079444033,-0.419437626,0.325390621,-0.018566628,-0.002285111,0.285154505,-0.546618607,0.15969626,0.267507276,-0.142077685
pa:10033,-0.051167698,-0.237304845,0.150265019,0.088095768,0.274408465,0.194870396,0.077643537,-0.380737236,0.367681804,-0.019515379,0.002526552,0.290242851,-0.552965668,0.162355891,0.272011573,-0.143266122
pa:10034,-0.050541963,-0.248247776,0.242579028,0.131074943,0.263440559,0.191652197,0.095642312,-0.33490228,0.369011004,-0.01932865,0.002475153,0.28589931,-0.544719847,0.159964032,0.267997524,-0.141197408
pa:10035,-0.050042722,-0.245521918,0.233991104,0.099440525,0.282690304,0.185542508,0.199026026,-0.422878496,0.248528067,-0.018103919,-0.002354504,0.279485374,-0.535720661,0.156509116,0.262147214,-0.139185436
pa:10036,-0.052175099,-0.256184577,0.241786071,0.114603111,0.309617695,0.195364984,0.169586712,-0.348869117,0.259800851,-0.018836535,-0.109324058,0.248009766,-0.559302344,0.163345173,0.273670051,-0.140872255
pa:10037,-0.036721085,-0.250809924,0.232232281,0.009456124,0.21633841,0.169668066,0.166997284,-0.383727855,0.35531924,-0.01872146,-0.009871674,0.287505691,-0.551084376,0.160989018,0.269697246,-0.138898119
pa:10038,-0.04971822,-0.245584233,0.218726437,0.097149501,0.328989816,0.183793115,0.171947551,-0.330428245,0.354161508,-0.01838089,-0.00965016,0.278608609,-0.532904396,0.155920651,0.261257134,-0.138334602
pa:10039,-0.050320544,-0.260140711,0.232060006,0.057897691,0.247756833,0.199338267,0.077022586,-0.447658637,0.268121098,-0.018773535,-0.040021446,0.282314666,-0.546165224,0.157997484,0.264709419,-0.13514936
pa:10040,-0.049986027,-0.249210885,0.228221748,0.057416269,0.244963033,0.188800757,0.108665388,-0.441433453,0.299578978,-0.019247191,-0.022294574,0.28318941,-0.541449477,0.158458706,0.26548573,-0.134605295
pa:10041,-0.052466385,-0.227541288,0.200663941,0.163732267,0.288885008,0.194995689,0.077445484,-0.349664805,0.292755238,-0.019343386,-0.112442306,0.294855286,-0.563833308,0.165016409,0.276446467,-0.146400314
pa:10042,-0.047107304,-0.238333316,0.198085076,0.100408408,0.266005246,0.135361592,0.06953853,-0.40905594,0.273113138,-0.017362053,-0.001442104,0.264615791,-0.591594634,0.148167034,0.248193808,-0.227949545
pa:10043,-0.04619618,-0.252102155,0.22474591,0.120088805,0.237976206,0.235349986,0.06455101,-0.406546001,0.246724243,-0.007381829,-0.098735174,0.259728374,-0.59465198,0.145399982,0.2436067,-0.125213556
pa:10044,-0.049676392,-0.231573088,0.241756325,0.163531677,0.266330211,0.183128061,0.07512253,-0.371100554,0.358337277,-0.019308879,-0.005769442,0.282476181,-0.537750914,0.158033564,0.264800392,-0.134224926
pa:10045,-0.048937504,-0.235008444,0.210041195,0.143843599,0.195220726,0.17966553,0.030276284,-0.404737006,0.245798943,-0.008032348,-0.101155494,0.273850554,-0.62411993,0.153411324,0.256980891,-0.132816556
pa:10046,-0.049452423,-0.240280221,0.246645967,0.113930097,0.254311563,0.194884678,0.082988997,-0.372570926,0.363758556,-0.019895866,-0.021442426,0.283281479,-0.539436456,0.158362854,0.265359989,-0.133207292
pa:10047,-0.050059446,-0.250992314,0.246027417,0.109502835,0.272251102,0.199504576,0.132260437,-0.332548963,0.350675503,-0.019382699,-0.063228628,0.285221889,-0.54278137,0.159593843,0.267386189,-0.140344605
pa:10048,-0.051678566,-0.258331196,0.25918733,0.156566486,0.245358393,0.196085578,0.013551708,-0.34406776,0.324331586,-0.018715087,-0.087449004,0.288427527,-0.552687832,0.16149399,0.270546982,-0.143414777
pa:10049,-0.04841596,-0.239368989,0.207522213,0.132172775,0.236112429,0.180195288,0.015089687,-0.329865675,0.340682477,0.052539097,-0.072498757,0.270412302,-0.617266387,0.15140991,0.253641785,-0.130706116
pa:10050,-0.050484545,-0.242530095,0.247183389,0.125748445,0.256776909,0.18564351,0.084056495,-0.347221754,0.370746554,-0.019720272,0.00332188,0.286286999,-0.544389231,0.160176301,0.268372542,-0.140850095
pa:10051,-0.050006745,-0.251001714,0.24663949,0.136842995,0.263964982,0.189438457,0.087340562,-0.343726792,0.367445122,-0.019402172,0.003460611,0.283948268,-0.540322941,0.158843336,0.266117933,-0.139891753
pa:10052,-0.050089567,-0.234989183,0.18836164,0.109543329,0.269316195,0.188623222,0.076233968,-0.439409595,0.310734446,-0.019305644,0.003198108,0.28474885,-0.541751198,0.159320441,0.266906572,-0.140184544
pa:10053,-0.050328206,-0.249436482,0.23405781,0.137447993,0.301270481,0.18045604,0.090244261,-0.331892722,0.356335463,-0.019276131,-0.057897324,0.284415166,-0.541923422,0.159099264,0.266598616,-0.135238314
pa:10054,-0.049412989,-0.24322039,0.233427752,0.121578966,0.299836656,0.188654011,0.200862741,-0.419878937,0.245986004,-0.017883168,-0.002669859,0.276041682,-0.529265853,0.154574196,0.258931547,-0.137475772
pa:10055,-0.030406839,-0.241142521,0.228265792,0.148170978,0.358299099,0.164449513,0.174660258,-0.33215959,0.248828865,-0.017738912,-0.010260585,0.275626209,-0.531251726,0.25440223,0.259632686,-0.133955703
pa:10056,-0.054818406,-0.171884177,0.081084211,-0.013495986,0.199069217,0.177145151,0.086006591,-0.476110668,0.286187395,-0.019415392,-0.003835291,0.30577915,-0.587273255,0.171251927,0.286857598,-0.152664209
pa:10057,-0.049151956,-0.249328664,0.227346984,0.07918454,0.262491598,0.177536223,0.140474174,-0.395004936,0.337204213,-0.019221879,-0.061430702,0.277583838,-0.545245605,0.155264649,0.26015945,-0.131507097
pa:10058,-0.050723936,-0.275789625,0.244927002,0.154129003,0.324151343,0.259350823,0.067336525,-0.339238876,0.253429528,-0.018363538,-0.099552207,0.245635674,-0.543254472,0.158615828,0.265713759,-0.141310083
pa:10059,-0.045328256,-0.207516628,0.209384511,0.102292437,0.381644547,0.160570275,0.185930538,-0.390956565,0.228014967,-0.016408034,-0.002624959,0.253649813,-0.577316333,0.142032225,0.237902297,-0.1226949
pa:10060,-0.047072967,-0.242614784,0.201978576,0.089773463,0.289970279,0.136756994,0.101712002,-0.320945435,0.338060937,-0.017645147,-0.031272601,0.269735607,-0.58844622,0.15099696,0.252973075,-0.229204726
pa:10061,-0.049559007,-0.244275807,0.23846442,0.07734085,0.25243261,0.190287281,0.102302564,-0.388205389,0.357422045,-0.019718254,0.005239643,0.283855451,-0.538458095,0.158693167,0.265902243,-0.139141278
pa:10062,-0.035357105,-0.231762618,0.155508992,0.117483226,0.33554684,0.176683033,0.055911204,-0.345560757,0.343828799,-0.019004972,-0.080757447,0.290844793,-0.557157189,0.162846273,0.27279435,-0.140185746
pa:10063,-0.049631135,-0.244636574,0.213865102,0.195787927,0.309758994,0.183548222,0.070993002,-0.349253501,0.352527213,-0.018329243,-0.008564984,0.278566792,-0.533044515,0.15595543,0.26128961,-0.133958499
pa:10064,-0.049068333,-0.245766627,0.235870067,0.110845843,0.253023123,0.182150359,0.090232089,-0.417513066,0.33366822,-0.019504064,0.006415989,0.281665506,-0.533923952,0.157465952,0.26382624,-0.138003698
pa:10065,-0.046660413,-0.228318534,0.224422111,0.144650081,0.252248164,0.173782494,0.097346877,-0.374189772,0.310373687,0.082506164,-0.011199331,0.261833912,-0.601297726,0.146581382,0.245554409,-0.12616296
pa:10066,-0.045803878,-0.224245912,0.22209572,0.206222031,0.325900178,0.173702552,0.024483907,-0.345946747,0.312489703,0.07184829,-0.002698405,0.25524149,-0.58143189,0.142977302,0.239470246,-0.123614657
pa:10067,-0.050288199,-0.2536602,0.242212761,0.103381497,0.263872686,0.201239331,0.090389361,-0.332776551,0.371612351,-0.019640648,0.002499881,0.286431443,-0.544621718,0.160167305,0.268404021,-0.141062033
pa:10068,-0.050356195,-0.24654233,0.227172612,0.068082962,0.269740208,0.190501827,0.13476092,-0.44852911,0.248369576,-0.018662809,-0.000589521,0.283469427,-0.542200034,0.158702312,0.265843907,-0.140774856
pa:10069,-0.047590531,-0.238902565,0.163659431,0.06661009,0.276132747,0.158656171,0.073839651,-0.358625527,0.330130327,-0.017498032,-0.001252067,0.266968416,-0.596405832,0.149424075,0.250378772,-0.229501281
pa:10070,-0.049141725,-0.254267655,0.241832803,0.122081612,0.278233172,0.194102797,0.128243001,-0.438044073,0.2673405,-0.018421695,0.001198393,0.276359289,-0.527433654,0.154616488,0.259077966,-0.136848274
pa:10071,-0.050889672,-0.250119933,0.199391275,0.129566308,0.272646211,0.19141714,0.065119682,-0.342230645,0.373970503,-0.019530236,0.002811758,0.288938987,-0.550003309,0.161675033,0.270853143,-0.142246946
pa:10072,-0.150228192,-0.18556609,0.313829333,0.096906278,0.354130309,0.195940873,0.078591946,-0.336739596,0.252266682,-0.018089872,-0.037963672,0.280300419,-0.543692767,0.156925755,0.262893987,-0.135755789
pa:10073,-0.054193442,-0.264557404,0.23557446,0.038768769,0.245402088,0.125250058,0.169734914,-0.361778808,0.26945324,-0.019473902,-0.002190214,0.302924918,-0.580903532,0.169603307,0.284118632,-0.150931511
pa:10074,-0.053062584,-0.215301887,0.114876504,0.060529524,0.338342964,0.202421963,0.082975492,-0.355179199,0.301708394,-0.019010377,-0.125423342,0.296117241,-0.570434457,0.165871302,0.277824174,-0.143458716
pa:10075,0.005290655,-0.073688443,0.061208215,0.252347643,0.347975425,0.128078007,0.252539041,-0.372650489,0.23808728,-0.017045289,-0.003238267,0.264149964,-0.600513559,0.147920142,0.247771158,-0.127795867
pa:10076,-0.048043146,-0.232190319,0.23682502,0.11596417,0.244172836,0.184603565,0.06076103,-0.321600269,0.332270862,0.074116907,-0.075717976,0.268547619,-0.613822213,0.150324613,0.251872906,-0.129864588
pa:10077,-0.051034336,-0.252053964,0.178459797,0.069437172,0.264587663,0.193097808,0.078124413,-0.453937992,0.275647659,-0.019093286,0.000442709,0.287026005,-0.548230971,0.160651857,0.269121065,-0.142181861
pa:10078,-0.12887613,-0.179285062,0.144083296,0.006743206,0.329059866,0.127025638,0.174306198,-0.336992084,0.252393924,-0.018098731,-0.003480403,0.280468936,-0.637952055,0.157045815,0.263097875,-0.136044922
pa:10079,-0.136211491,-0.180113027,0.282831266,0.061080282,0.350151258,0.176820879,0.143580559,-0.306596875,0.317561427,-0.016358766,-0.026216082,0.255049615,-0.580553847,0.142813881,0.239250813,-0.123542986
pa:10080,-0.047196388,-0.225175101,0.154004901,0.126081427,0.283103196,0.184643686,0.069026136,-0.413222468,0.260700344,0.00583224,-0.098445513,0.265400296,-0.607524433,0.148641356,0.24893807,-0.128135243
pa:10081,-0.051578861,-0.233150944,0.163160277,0.14995445,0.275121812,0.176052608,0.001786778,-0.391516181,0.354180606,-0.018716553,-0.001949843,0.288311142,-0.552467603,0.161454567,0.270434685,-0.143365702
pa:10082,-0.053575368,-0.292839539,0.222763151,0.062723315,0.263805816,0.152609297,0.121248671,-0.356047363,0.260973523,-0.020135777,0.000611803,0.302048803,-0.576694999,0.169039283,0.283227217,-0.149490593
pa:10083,-0.051910744,-0.217402798,0.147261159,0.130770854,0.285773078,0.196744828,-0.038122709,-0.386424014,0.356157519,-0.018491807,-0.003177305,0.28927264,-0.55542412,0.161998468,0.271357721,-0.144393363
pa:10084,-0.049666766,-0.213319502,0.12507691,0.205033981,0.30380312,0.174355664,0.134672524,-0.331646141,0.248476232,-0.017791337,-0.003340943,0.276394537,-0.629254533,0.154773521,0.259250889,-0.133916189
pa:10085,-0.051193293,-0.256385863,0.235111212,0.19992873,0.359080486,0.207465326,0.053148595,-0.341750896,0.255433838,-0.018317676,-0.09990756,0.235260389,-0.546132766,0.15930743,0.26689357,-0.137893673
pa:10086,-0.050400554,-0.256971093,0.251972794,0.125896408,0.261474018,0.194300396,0.073202938,-0.333616986,0.367974559,-0.019290406,-0.020286777,0.285577709,-0.54399637,0.159742836,0.267646108,-0.135931369
pa:10087,-0.048192999,-0.242821068,0.213499308,0.100314054,0.281339226,0.160173511,0.125207161,-0.323780102,0.268073208,-0.017542098,-0.09886444,0.27067652,-0.602131658,0.151565136,0.253926633,-0.229191217
pa:10088,-0.049474067,-0.24696765,0.234506189,0.117646379,0.254382885,0.177931078,0.074944835,-0.422018229,0.328759048,-0.01951499,0.005364503,0.281890758,-0.534778629,0.15765153,0.264131335,-0.138120116
pa:10089,-0.050289307,-0.250649953,0.231039933,0.13736386,0.260629117,0.191856809,0.072326837,-0.346445985,0.369530691,-0.019351344,0.002798472,0.285938698,-0.5444204,0.159954798,0.267983645,-0.141117762
pa:10090,-0.042958083,-0.139922876,0.220236296,0.190125994,0.38077627,0.166508434,0.155838847,-0.362174595,0.304589319,-0.016098977,-0.002665945,0.249349266,-0.567262496,0.139610352,0.233877339,-0.120665115
pa:10091,-0.049447047,-0.25108067,0.238262073,0.109069086,0.255278782,0.196877122,0.087349634,-0.367753919,0.36536155,-0.019804304,0.005554748,0.283741484,-0.538034952,0.158661542,0.265833893,-0.138937877
pa:10092,-0.048392547,-0.264872826,0.234257412,0.183707381,0.303520845,0.24361031,0.124264987,-0.323640397,0.34179311,-0.017753242,-0.021071606,0.271348769,-0.519557812,0.151895434,0.254457789,-0.135080147
pa:10093,-0.049770085,-0.271398247,0.158540311,0.133231617,0.288830387,0.250076578,0.090097884,-0.437711866,0.247029399,-0.018240321,-0.009013512,0.278788826,-0.534129037,0.156074236,0.261479886,-0.134626261
pa:10094,-0.050225999,-0.221274229,0.192403822,0.130414998,0.26493598,0.191802878,0.031323868,-0.428716097,0.324008234,-0.019035403,-0.022719542,0.285638602,-0.547191483,0.159849544,0.267801983,-0.136352847
pa:10095,-0.049413852,-0.244020058,0.251719347,0.118422836,0.27046727,0.191929242,0.090236788,-0.374031752,0.356771401,-0.019221968,-0.004641749,0.280671453,-0.533608322,0.156962507,0.262997559,-0.13265732
pa:10096,-0.04800813,-0.240930607,0.237031683,0.135854139,0.311246396,0.194101931,0.161703548,-0.410387693,0.299085895,-0.018006081,-0.021411397,0.270426605,-0.518295534,0.151307921,0.253514801,-0.129350808
pa:10097,-0.050439021,-0.227848935,0.148161766,0.156872679,0.322364747,0.189609603,-0.003012371,-0.409102758,0.326015867,-0.018193638,-0.002927821,0.281550116,-0.539977018,0.157624543,0.26407987,-0.140283998
pa:10098,-0.049597871,-0.252342898,0.249647086,0.138372132,0.266638875,0.207681533,0.080241943,-0.354201895,0.359599473,-0.018968723,0.002745401,0.280434534,-0.534030923,0.156833086,0.262780241,-0.138221493
pa:10099,-0.04995057,-0.250971231,0.242554444,0.156065065,0.280723122,0.190212944,0.09124821,-0.331774415,0.357180067,-0.018989723,-0.061329491,0.282734547,-0.541182359,0.158137311,0.264964542,-0.134952518
pa:10100,-0.049687423,-0.253940191,0.23797189,0.100916074,0.278326267,0.196897253,0.142727965,-0.331361644,0.364066398,-0.01941432,-0.02865456,0.283660318,-0.539964033,0.158667356,0.265865705,-0.134901582
pa:10101,-0.047889649,-0.232088147,0.229478324,0.101382682,0.249711903,0.177108593,0.11124463,-0.320026378,0.338785999,0.075487065,-0.040665071,0.267773242,-0.613451377,0.149914307,0.251117793,-0.129227477
pa:10102,-0.050365187,-0.254769533,0.255236788,0.164325417,0.261001015,0.195854588,0.039906583,-0.337476974,0.346882211,-0.01896913,-0.059061408,0.284983273,-0.544273043,0.159476037,0.267193315,-0.141402083
pa:10103,-0.04720145,-0.257204625,0.223772276,0.136705302,0.331222147,0.224318457,0.168905577,-0.389099408,0.30523415,-0.017294111,-0.001474667,0.265204584,-0.50775399,0.148461063,0.248727975,-0.131825961
pa:10104,-0.046429726,-0.226852452,0.19893368,0.066405297,0.327321931,0.168923066,0.16722928,-0.328614726,0.326040778,-0.007457585,-0.097579931,0.259498132,-0.592839845,0.145311356,0.243428163,-0.125375366
pa:10105,-0.048460055,-0.242301823,0.150950789,0.031287892,0.245906833,0.163199983,0.075733654,-0.364066551,0.333830994,-0.017571689,-0.002273176,0.271055599,-0.60336416,0.15172922,0.254221902,-0.22992366
pa:10106,-0.048710126,-0.243268718,0.240498281,0.126549562,0.272910749,0.185037359,0.120356578,-0.399815861,0.337216135,-0.019013711,0.004398713,0.2781601,-0.528454266,0.155539847,0.260660375,-0.136626831
pa:10107,-0.050438721,-0.250017888,0.227003066,0.035231304,0.238720723,0.196578802,0.088324346,-0.436635812,0.309265539,-0.019220085,0.001382001,0.284584942,-0.542864352,0.159237532,0.266803223,-0.140872931
pa:10108,-0.05240042,-0.222973688,0.148101397,0.1294264,0.247081097,0.210097498,-0.054798683,-0.419221243,0.321301492,-0.018870128,-0.010616859,0.292003193,-0.560449224,0.163529911,0.273918804,-0.141655042
pa:10109,-0.051871584,-0.255171979,0.206743234,0.034343655,0.230045755,0.193782623,0.093174858,-0.456278525,0.256590676,-0.019059948,-0.001857496,0.290354341,-0.555887439,0.162532731,0.272282225,-0.144407249
pa:10110,-0.050291875,-0.246146979,0.236860164,0.102176738,0.266398151,0.189229256,0.109836556,-0.450000429,0.246183763,-0.018838005,8.85E-05,0.283255115,-0.540843092,0.158551247,0.265580501,-0.14007817
pa:10111,-0.04825232,-0.216919599,0.217253002,0.08789926,0.344731827,0.160095421,0.228423859,-0.406377218,0.242258467,-0.017272364,-0.068302468,0.269498366,-0.542125338,0.150918633,0.252800398,-0.130520197
pa:10112,-0.05163011,-0.245630734,0.213019275,0.160335795,0.268111473,0.190463105,0.020747054,-0.343552541,0.351951274,-0.019126398,-0.068471704,0.289685015,-0.554085529,0.162163999,0.271646677,-0.139122956
pa:10113,-0.051120126,-0.221668861,0.165534105,0.149804814,0.298167562,0.19055969,0.02785557,-0.449149182,0.264895037,-0.018580425,-0.009661892,0.28632511,-0.548764734,0.160322679,0.268580426,-0.138228944
pa:10114,-0.050216949,-0.241367159,0.240205836,0.166968416,0.291062785,0.178259604,0.117774854,-0.33242465,0.35793154,-0.019052254,-0.036405291,0.282249456,-0.538619629,0.157942783,0.26457895,-0.135072708
pa:10115,-0.050715746,-0.248046814,0.228136365,0.133394006,0.262609967,0.196913152,0.060274797,-0.336221234,0.371061419,-0.019526975,-0.016075604,0.288271629,-0.548697613,0.161250554,0.270196178,-0.141916713
pa:10116,-0.049589315,-0.253530609,0.241178197,0.1462257,0.28493452,0.200889291,0.101646078,-0.329965469,0.356722059,-0.019062182,-0.041321764,0.2824252,-0.537942376,0.158046871,0.264740662,-0.139380846
pa:10117,-0.050920766,-0.240510311,0.233035625,0.059206605,0.269043583,0.136516029,0.100603685,-0.449202153,0.28163269,-0.018814508,-0.022941771,0.285720272,-0.548429438,0.15997253,0.26801465,-0.137094209
pa:10118,-0.049999885,-0.231454883,0.174220933,0.108388096,0.280007518,0.197321061,0.075008257,-0.405105988,0.348900198,-0.019555241,0.004305533,0.285520549,-0.542487761,0.159676427,0.267530659,-0.140479046
pa:10119,-0.050211622,-0.2442801,0.159159596,0.141260675,0.30462982,0.20165044,0.077603645,-0.443924787,0.26442429,-0.018384823,-0.001495009,0.282075316,-0.539948381,0.157969413,0.264594653,-0.140107301
pa:10120,-0.049327086,-0.248928662,0.252871764,0.141300877,0.25464515,0.190930127,0.054597324,-0.392121044,0.342972562,-0.018705171,0.002178369,0.279879749,-0.533706565,0.156610058,0.26238363,-0.13827866
pa:10121,-0.050894214,-0.249681928,0.233682096,0.136468442,0.328251048,0.187081041,0.116519091,-0.338392014,0.290508775,-0.018710592,-0.112509404,0.284704485,-0.545032243,0.159412511,0.267034922,-0.136979005
pa:10122,-0.042189138,-0.261864584,0.241890991,0.112319199,0.233157982,0.149890191,0.069070005,-0.450774008,0.25146846,-0.018806927,-0.040039119,0.287046035,-0.5557476,0.160624413,0.269122065,-0.13802771
pa:10123,-0.049570571,-0.245624617,0.24757247,0.120383892,0.288406754,0.18539945,0.182338909,-0.420200178,0.245908429,-0.018164862,-0.022244107,0.278016932,-0.534145216,0.155631381,0.260742263,-0.133984773
pa:10124,-0.050337926,-0.251898469,0.214520539,0.129963102,0.269988963,0.193402804,0.050788324,-0.355830428,0.36912145,-0.019377002,-0.005722282,0.286193282,-0.544944268,0.16012573,0.268278857,-0.135892792
pa:10125,-0.050607919,-0.244418272,0.16987021,0.13565146,0.286766198,0.187634189,0.023584707,-0.429702596,0.311508891,-0.01868412,-0.000532253,0.28359228,-0.542438089,0.158729348,0.265924877,-0.140845526
pa:10126,-0.050794245,-0.251808637,0.240002942,0.075597799,0.258245329,0.197468533,0.115313544,-0.335383099,0.367630073,-0.019670676,-0.032961247,0.288023367,-0.548326008,0.161127257,0.269941762,-0.14197795
pa:10127,-0.050409402,-0.247298599,0.230077691,0.054108395,0.242189018,0.193353275,0.076354754,-0.38468177,0.363423568,-0.01974132,-0.005228561,0.28742608,-0.546434663,0.16077026,0.26933661,-0.13601502
pa:10128,-0.052446982,-0.218217076,0.152596994,0.151942767,0.240423427,0.200959522,-0.051223374,-0.454919925,0.269653587,-0.018778484,-0.010605754,0.292178484,-0.561188948,0.163611121,0.274095587,-0.141836482
pa:10129,-0.051735024,-0.255686893,0.188159236,0.145408859,0.271553055,0.193107252,0.001765663,-0.344264524,0.362796306,-0.018907889,-0.035361824,0.289747505,-0.554762588,0.162236377,0.271760183,-0.143975354
pa:10130,-0.050597936,-0.234304352,0.164282927,0.154204622,0.300921082,0.19118963,0.023460417,-0.39686795,0.342451715,-0.018666374,-0.000447494,0.283220911,-0.541610366,0.158533776,0.265562326,-0.140633743
pa:10131,-0.04318626,-0.237778205,0.176489044,0.100977903,0.258969421,0.162137758,0.051726806,-0.416841405,0.25990045,-0.017469414,-0.001713794,0.26696251,-0.595257084,0.149503779,0.250450747,-0.227885988
pa:10132,-0.049216108,-0.246496404,0.245145523,0.082900609,0.26239827,0.215154583,0.10379853,-0.436508933,0.287627284,-0.018894573,0.002026703,0.278358797,-0.530572222,0.155732594,0.260950987,-0.137698225
pa:10133,-0.048616075,-0.26687139,0.242077992,0.146277539,0.25656098,0.254022585,0.064198737,-0.428617716,0.264986019,-0.017932026,-0.022095474,0.273493517,-0.525223074,0.153090767,0.256494095,-0.131606566
pa:10134,-0.048989885,-0.267928922,0.226679832,0.078881574,0.247213067,0.254269479,0.161133337,-0.403874423,0.24387044,-0.017858669,-0.071409993,0.274696698,-0.552660282,0.153777657,0.257613365,-0.132541605
pa:10135,-0.051088303,-0.246687175,0.227072703,0.042783593,0.246560058,0.190737851,0.109089092,-0.453327619,0.259587985,-0.018878744,-0.008685216,0.286826387,-0.548895978,0.160557697,0.269004464,-0.138013465
pa:10136,-0.049883597,-0.249890917,0.247566027,0.11979898,0.255582976,0.196926475,0.069119374,-0.359395558,0.365268346,-0.019408309,0.003821424,0.283906874,-0.539855611,0.158779863,0.266050873,-0.139737316
pa:10137,-0.039196645,-0.263229786,0.078915562,0.03064399,0.28180672,0.124642826,0.178469475,-0.369895549,0.27643156,-0.019807808,-0.01158584,0.308233664,-0.592108708,0.172678198,0.289216368,-0.149587706
pa:10138,-0.050084009,-0.25557938,0.236004655,0.077437976,0.26813026,0.196328103,0.135826044,-0.345026309,0.364684496,-0.01904611,0.001354816,0.283876839,-0.541231991,0.15881024,0.26603795,-0.140253785
pa:10139,-0.05015406,-0.245681888,0.217666776,0.03413897,0.303791131,0.184948235,0.167577995,-0.349818069,0.356544681,-0.018383537,-0.001272436,0.281659551,-0.539101668,0.157657583,0.264128861,-0.139944116
pa:10140,-0.047790532,-0.160938408,0.229652526,0.126137167,0.266195918,0.148883298,0.125426306,-0.373975555,0.31445811,0.073426546,-0.04018218,0.26795219,-0.611877707,0.150020334,0.25131706,-0.129611
pa:10141,-0.046123215,-0.2511985,0.214307179,0.113421399,0.247267953,0.250186399,0.071927052,-0.404717639,0.245982742,-0.007297378,-0.098049028,0.258760826,-0.592156729,0.144899607,0.242714329,-0.124852583
pa:10142,-0.049233314,-0.244193598,0.221135167,0.110621229,0.259987981,0.191385701,0.072788854,-0.429672987,0.320600261,-0.019641859,-0.02144478,0.281579597,-0.536495238,0.157455298,0.263813943,-0.132416138
pa:10143,-0.050472162,-0.243204243,0.24234967,0.09025064,0.258107829,0.190531028,0.112537681,-0.348651707,0.373064865,-0.019830641,-0.004138295,0.286736616,-0.54435789,0.160360095,0.268704005,-0.135029163
pa:10144,-0.049242744,-0.245379567,0.250311056,0.153339328,0.297114575,0.210112041,0.10075342,-0.328861122,0.356737782,-0.018499916,-0.008258713,0.278822549,-0.532287786,0.156049922,0.261412613,-0.137977114
pa:10145,-0.049715758,-0.247418673,0.229969986,0.099725175,0.313294272,0.197733062,0.124183649,-0.330040675,0.354080266,-0.019067928,-0.056939186,0.282606106,-0.538339771,0.15807066,0.264856681,-0.134503314
pa:10146,-0.051940854,-0.24020745,0.264027091,0.130345836,0.253635574,0.192192434,0.167265596,-0.368739775,0.256025964,-0.019250663,-0.000349141,0.292638016,-0.559400392,0.163773708,0.274394376,-0.145212045
pa:10147,-0.050019082,-0.246524114,0.234700352,0.117033945,0.268488474,0.190002973,0.111621805,-0.44858732,0.251631832,-0.018771313,0.000326715,0.281625969,-0.537691402,0.157601243,0.264042508,-0.139329376
pa:10148,-0.049902663,-0.273387389,0.150158558,0.117744177,0.295391886,0.24566141,0.091391846,-0.43793222,0.24816053,-0.018272449,-0.001742788,0.279344857,-0.53499905,0.156374947,0.261974771,-0.139114255
pa:10149,-0.047323547,-0.238742461,0.165017483,0.102698711,0.272066169,0.162820924,0.052226062,-0.367839243,0.322900585,-0.017379574,-0.00103907,0.265406003,-0.593982031,0.148513806,0.24883031,-0.229401415
pa:10150,-0.052388675,-0.201436191,0.137222904,0.116059478,0.323817878,0.195235255,0.08089205,-0.348417222,0.351138453,-0.0191938,-0.068124047,0.29341872,-0.561418993,0.164257463,0.27515228,-0.14554528
pa:10151,-0.050111128,-0.25395729,0.249008675,0.131487857,0.259941944,0.198702174,0.07014975,-0.342155883,0.367332172,-0.019335689,-0.006245243,0.28447847,-0.54194982,0.159130355,0.266621667,-0.135141415
pa:10152,-0.048321887,-0.239232356,0.238597189,0.161476421,0.329895401,0.176270258,0.112237947,-0.406958128,0.303959632,-0.018062053,0.000353308,0.270914809,-0.517395892,0.151627256,0.253999835,-0.134153877
pa:10153,-0.052219342,-0.261181935,0.269094559,0.150289458,0.17776212,0.179607393,-0.007586171,-0.362958928,0.206915715,-0.019259937,-0.101188343,0.256174678,-0.603844811,0.169060572,0.283213095,-0.214322467
pa:10154,-0.050785057,-0.251738148,0.227308294,0.034233493,0.259002844,0.196546317,0.148552362,-0.355516431,0.362451939,-0.019006743,-0.000108922,0.285226088,-0.544909642,0.159644872,0.267460189,-0.141423376
pa:10155,-0.051988364,-0.243733059,0.259058739,0.148903149,0.255493364,0.198536458,0.023738954,-0.347076466,0.304857459,-0.018927858,-0.103149479,0.291544433,-0.558212414,0.163208313,0.273418508,-0.144770833
pa:10156,-0.050446926,-0.266507875,0.2460629,0.134421023,0.256999367,0.262829037,0.063400517,-0.335317725,0.32058339,-0.018681371,-0.084299664,0.282200915,-0.540082177,0.157988449,0.264663623,-0.140231537
pa:10157,-0.051770237,-0.252134914,0.216684727,0.021340837,0.214896351,0.210346506,0.096085416,-0.454667437,0.2571462,-0.018613467,-0.002615926,0.289692323,-0.555501936,0.162214333,0.271778566,-0.14422396
pa:10158,-0.051520272,-0.252674071,0.156294618,0.049678131,0.248538133,0.190274328,0.079256445,-0.450921007,0.296320452,-0.018989583,-0.000353169,0.289502721,-0.553618711,0.162025642,0.271455096,-0.143549531
pa:10159,-0.049969783,-0.254483252,0.232642512,0.052951124,0.257303624,0.201389894,0.103459354,-0.366705766,0.363204408,-0.019304039,0.002716318,0.28480424,-0.542225904,0.159378257,0.267018859,-0.140550997
pa:10160,-0.050308584,-0.251538504,0.196924253,0.104011683,0.262788318,0.166054556,0.078120204,-0.337030334,0.329281908,-0.019143461,-0.085978023,0.286212401,-0.572575288,0.160184308,0.26832704,-0.211357822
pa:10161,-0.049679452,-0.252889572,0.255696965,0.12510701,0.249602151,0.202139861,0.03974999,-0.347082695,0.358644775,-0.018897436,-0.059693398,0.280559951,-0.551658171,0.156978917,0.262991021,-0.133955694
pa:10162,-0.05114693,-0.250656421,0.231485799,0.051613492,0.225639949,0.212717299,0.082647955,-0.365850044,0.36756404,-0.019297929,0.001058155,0.288488565,-0.550608753,0.161467884,0.270523349,-0.142616561
pa:10163,-0.054944323,-0.176664466,0.252692563,0.066816925,0.292008912,0.095542982,0.126606224,-0.366541169,0.271751791,-0.019935617,-0.024924464,0.307133368,-0.590678993,0.172009831,0.28812989,-0.148212809
pa:10164,-0.050766674,-0.247565906,0.214299684,0.147253567,0.259399929,0.187971551,0.027433465,-0.369548595,0.362128779,-0.019065476,0.001062014,0.28597187,-0.545741769,0.160017771,0.268094636,-0.141383274
pa:10165,-0.050316606,-0.2480267,0.250495527,0.118601894,0.265729802,0.195752096,0.080014704,-0.334445766,0.369670989,-0.019402571,0.002887735,0.28584066,-0.54405209,0.15991606,0.267884256,-0.140978452
pa:10166,-0.047239667,-0.254422669,0.286245659,0.155019436,0.33832899,0.226020085,0.10591882,-0.412039913,0.236046794,-0.017072262,-0.009380558,0.263587666,-0.50570644,0.147607311,0.247238609,-0.127643217
pa:10167,-0.047161054,-0.256774493,0.207852337,0.06915266,0.240285184,0.240602816,0.121976521,-0.399135924,0.236236031,0.063579422,-0.055743051,0.263703035,-0.601938398,0.147649219,0.247349943,-0.127416891
pa:10168,-0.048426125,-0.225190708,0.111768113,0.083026483,0.343768671,0.139777174,0.075928233,-0.325070107,0.316826072,-0.017338278,-0.066654431,0.270636919,-0.600792016,0.151554237,0.253869764,-0.227315196
pa:10169,-0.055366137,-0.252415995,0.220650557,0.146700109,0.183086885,0.167505088,0.049702724,-0.368744789,0.273283392,-0.020147667,-0.025211436,0.309645838,-0.595514097,0.173388175,0.290470775,-0.149370853
pa:10170,-0.050418975,-0.235762151,0.233044494,0.084945831,0.267933229,0.1888498,0.175745904,-0.43686365,0.249859126,-0.018454889,-0.001527085,0.28281082,-0.54147552,0.158347792,0.265223674,-0.140683524
pa:10171,-0.049508871,-0.246434172,0.238462174,0.132285157,0.261943388,0.18842823,0.061709844,-0.440302403,0.287515217,-0.018948945,0.001909907,0.280569604,-0.534710829,0.156939349,0.262969708,-0.138621578
pa:10172,-0.049381626,-0.241829054,0.184944068,0.137391672,0.354894084,0.165354844,0.135160575,-0.329692055,0.350195633,-0.018328559,-0.019833014,0.277138369,-0.535123236,0.155109475,0.259867656,-0.166202137
pa:10173,-0.047469804,-0.237468696,0.205794672,0.09601133,0.300538707,0.135213353,0.138799939,-0.318240568,0.312142916,-0.017349167,-0.066829269,0.266295789,-0.592979167,0.149069246,0.249730201,-0.226521675
pa:10174,-0.053791796,-0.255269592,0.259850214,0.138259574,0.207423525,0.199119686,-0.032037806,-0.358971189,0.268670723,-0.01917801,-0.118180334,0.298889437,-0.573870138,0.167372322,0.280350824,-0.144761446
pa:10175,-0.050704874,-0.230278135,0.198827812,0.081974585,0.251430915,0.186709927,0.076348067,-0.447701362,0.307185882,-0.01953317,0.003884783,0.287171444,-0.546204227,0.160607851,0.269123061,-0.141480117
pa:10176,-0.050378163,-0.235581753,0.150094643,0.151172355,0.324586426,0.194198089,0.007636517,-0.393049998,0.338864293,-0.018257068,-0.002205352,0.281359801,-0.539080428,0.157532913,0.263899847,-0.13988547
pa:10177,-0.049735527,-0.246293329,0.232850052,0.140149515,0.317955761,0.188709642,0.153434794,-0.330005654,0.338655259,-0.018600382,-0.069174954,0.279270824,-0.533954261,0.156314317,0.261852235,-0.133914673
pa:10178,-0.049554252,-0.244553291,0.195208682,0.087450064,0.262348393,0.198910054,0.073707342,-0.426463601,0.329964947,-0.019691735,0.005688817,0.284074389,-0.539167305,0.15890206,0.26618715,-0.139592834
pa:10179,-0.052193811,-0.285666094,0.240533526,0.078236662,0.288075014,0.149415436,0.182633445,-0.349083014,0.258736743,-0.019052454,-0.002011036,0.292907262,-0.56082277,0.1639682,0.274679742,-0.145616304
pa:10180,-0.046540966,-0.228252009,0.222220245,0.130509156,0.257191335,0.176651667,0.101598457,-0.374287907,0.310398701,0.083671478,-0.010736878,0.26175031,-0.601690998,0.146498332,0.245413352,-0.125917817
pa:10181,-0.051444246,-0.243084179,0.251034147,0.113475314,0.268914479,0.195008636,0.117572693,-0.341696828,0.309036433,-0.019383458,-0.107481618,0.29082211,-0.554882619,0.162747825,0.272635646,-0.143960246
pa:10182,-0.051690379,-0.258796206,0.237768183,0.08546198,0.265377699,0.196717541,0.124683281,-0.344094572,0.306619944,-0.019366607,-0.114958119,0.291447045,-0.556873881,0.163113037,0.273254835,-0.139695627
pa:10183,-0.049951248,-0.239454961,0.211315646,0.051875491,0.242477601,0.183965523,0.223675001,-0.373916315,0.250238048,-0.01789578,-0.093696454,0.278590548,-0.591789049,0.155997868,0.261312071,-0.134809264
pa:10184,-0.051430583,-0.237734521,0.13000877,0.06056237,0.317926761,0.191492647,0.092880155,-0.450620637,0.255285151,-0.018572722,-0.002344504,0.287374427,-0.551039216,0.160977696,0.269617595,-0.143100925
pa:10185,-0.046178013,-0.25415588,0.20591554,0.100558278,0.284456815,0.201797214,0.068192832,-0.309283636,0.329669828,-0.017065518,-0.004317754,0.25979105,-0.592702909,0.145413654,0.24362863,-0.224798887
pa:10186,-0.049712877,-0.249150813,0.252219215,0.17183678,0.273970786,0.195224526,0.084375807,-0.332432221,0.34389259,-0.018895192,-0.060242039,0.282104904,-0.539541898,0.157880505,0.264464534,-0.153955838
pa:10187,-0.049958896,-0.25191875,0.208524264,0.067899767,0.256775483,0.189899553,0.074982099,-0.439792902,0.309183812,-0.01932839,0.003690925,0.284209865,-0.540729444,0.158967364,0.266297883,-0.139936061
pa:10188,-0.052842957,-0.248267556,0.218416872,0.128082186,0.228583628,0.190455948,-0.016542241,-0.352165437,0.347155099,-0.019249598,-0.07323666,0.295045956,-0.565524769,0.165233989,0.276773049,-0.14702038
pa:10189,-0.05246615,-0.218850535,0.240077387,0.163236628,0.274693232,0.193425174,0.057158623,-0.349870433,0.292437457,-0.01929585,-0.111158386,0.294190173,-0.56309647,0.164692551,0.275956455,-0.146195155
pa:10190,-0.050608529,-0.2462047,0.152423852,0.114851673,0.323762144,0.196344478,0.064248334,-0.445640557,0.252042051,-0.018428615,-0.001889248,0.283267359,-0.542745239,0.158614384,0.265719966,-0.140907266
pa:10191,-0.05003926,-0.252580408,0.224222457,0.03402363,0.26770872,0.199234275,0.152595446,-0.365019012,0.357316145,-0.018787112,0.000199046,0.282743188,-0.539927996,0.158241606,0.265072801,-0.139934335
pa:10192,-0.046282464,-0.230398823,0.190756529,0.040322202,0.366144826,0.080929274,0.306678219,-0.310552871,0.233049183,-0.016672386,-0.003163552,0.258391648,-0.572685776,0.144716334,0.242423426,-0.215886801
pa:10193,-0.050572757,-0.25270168,0.191932771,0.140406019,0.256186353,0.194302843,0.001819833,-0.399486202,0.344497441,-0.018676989,-0.000501153,0.28495019,-0.545002885,0.159475692,0.267189734,-0.141348735
pa:10194,-0.049835149,-0.259313203,0.224419246,0.102609057,0.259800567,0.194195532,0.07542543,-0.448492341,0.264725816,-0.01863157,-0.040315965,0.280780297,-0.542794311,0.157098565,0.263205576,-0.133660934
pa:10195,-0.050141782,-0.229925464,0.140795037,0.133925906,0.355644668,0.195464615,0.093358286,-0.437052822,0.250194768,-0.018098931,-0.00255854,0.279981633,-0.536801966,0.156766414,0.262620501,-0.139346208
pa:10196,-0.050455768,-0.252619927,0.229282956,0.041464834,0.23776899,0.201786187,0.106462564,-0.383248095,0.35835668,-0.019358407,0.0021716,0.285706329,-0.544327009,0.159869125,0.267799256,-0.141027275
pa:10197,-0.049825272,-0.220513561,0.213384671,0.040350168,0.279988123,0.168311683,0.23119327,-0.415195772,0.249846667,-0.017928122,-0.070374968,0.278322319,-0.559814134,0.155856685,0.261074608,-0.134781982
pa:10198,-0.04818679,-0.220437596,0.171485935,0.056767915,0.337897236,0.115078992,0.238551094,-0.341653932,0.241786344,0.019775578,-0.091312691,0.268402524,-0.610915952,0.150319746,0.25181103,-0.130195139
pa:10199,-0.055924494,-0.217490924,0.173527597,0.186162215,0.239465356,0.184125304,0.065981885,-0.373097354,0.216052035,-0.019967622,-0.042890796,0.311408112,-0.604694051,0.174359911,0.292109125,-0.150748427
pa:10200,-0.050808167,-0.246919341,0.213302373,0.134917136,0.314325279,0.222586829,0.077578314,-0.338338788,0.307799558,-0.018852407,-0.107375792,0.2859538,-0.546907668,0.160062263,0.268148956,-0.137423141
pa:10201,-0.04797316,-0.242052097,0.207077335,0.103177844,0.299763163,0.172705519,0.09329974,-0.321491992,0.275753142,-0.017382151,-0.095204136,0.268729239,-0.598343597,0.150458214,0.2520313,-0.228126935
pa:10202,-0.050232573,-0.244800608,0.237495011,0.159365819,0.301503679,0.177747617,0.153412924,-0.335096038,0.323313469,-0.018734305,-0.082955388,0.282396238,-0.539614488,0.158125666,0.264857662,-0.1399126
pa:10203,-0.049930991,-0.243489271,0.246436614,0.148887495,0.283828955,0.185531528,0.141513981,-0.330391551,0.360040285,-0.018746871,-0.015097315,0.281294061,-0.53680817,0.157363573,0.263650896,-0.139222638
pa:10204,-0.049790827,-0.243798602,0.229362259,0.154887933,0.243317411,0.166658989,-0.002012052,-0.333541965,0.344355443,-0.017900756,-0.039866939,0.278459762,-0.571693726,0.155960977,0.261235065,-0.214059112
pa:10205,-0.051118082,-0.248303829,0.257711681,0.166471902,0.267769823,0.187470721,0.02979863,-0.341327266,0.328441437,-0.01866675,-0.083259914,0.286873644,-0.549047927,0.160565962,0.269048188,-0.142452895
pa:10206,-0.049273974,-0.248376219,0.24018862,0.122917425,0.264180276,0.192011381,0.075192686,-0.444287095,0.278211265,-0.018814471,-0.006268406,0.28024801,-0.534454475,0.156796612,0.262679006,-0.13347942
pa:10207,-0.050820236,-0.253364995,0.255046303,0.133665626,0.255888318,0.190763286,0.053847013,-0.337162913,0.360270913,-0.019205727,-0.051096145,0.286986237,-0.547534013,0.160574195,0.269012523,-0.13703781
pa:10208,-0.125253521,-0.198478592,0.288500277,0.06794662,0.345275357,0.222607969,0.141206856,-0.333644994,0.303151365,-0.016003629,-0.002830318,0.247068154,-0.562715625,0.138383558,0.231817534,-0.119562162
pa:10209,-0.05182012,-0.252959927,0.184207347,0.069834208,0.267472168,0.190407129,0.161097647,-0.426286228,0.253919789,-0.019293026,-0.000754576,0.290351179,-0.555420007,0.162566569,0.27232574,-0.144276518
pa:10210,-0.050565535,-0.217108474,0.143209066,0.136390627,0.343452407,0.193731975,0.013687351,-0.380716048,0.348115326,-0.018290336,-0.002245355,0.282795736,-0.542098983,0.158328803,0.2651876,-0.140751706
pa:10211,-0.032762867,-0.264756406,0.246066189,0.023274912,0.195351778,0.181861783,0.118174523,-0.356992592,0.315801173,-0.019207888,-0.108790065,0.298192471,-0.57212143,0.166989845,0.279715412,-0.14419706
pa:10212,-0.047469977,-0.23679184,0.16065288,0.101700923,0.274387817,0.166375929,0.068166436,-0.415422407,0.2585519,-0.017252701,-0.001790512,0.265861853,-0.59297046,0.14884681,0.249347556,-0.227058854
pa:10213,-0.050814617,-0.247191814,0.223184084,0.059566947,0.243019425,0.189832821,0.078384553,-0.4542184,0.272966314,-0.018907794,0.000491526,0.286750001,-0.547745535,0.160494075,0.268868401,-0.142244991
pa:10214,-0.136899309,-0.233246504,0.300300056,0.055883753,0.316125766,0.176427027,0.170495949,-0.347915768,0.230606179,-0.016474328,-0.002968891,0.256083119,-0.582821032,0.143411219,0.240233285,-0.124008576
pa:10215,-0.049363259,-0.270485416,0.231962653,0.088445508,0.253152807,0.256941958,0.107461461,-0.4367858,0.244963716,-0.018183596,-0.001262046,0.277541797,-0.531109659,0.155354839,0.260270354,-0.137891822
pa:10216,-0.054387142,-0.239444815,0.113630622,0.026296393,0.311519241,0.16179774,0.188589373,-0.362980574,0.271401121,-0.01935553,-0.003452106,0.302741657,-0.581095351,0.169524087,0.283988729,-0.151009111
pa:10217,-0.050268648,-0.206869765,0.135872723,0.136077315,0.362317552,0.19542359,0.082484897,-0.438935387,0.252167362,-0.018319745,-0.002764805,0.28152692,-0.539698538,0.157660363,0.264093229,-0.140362148
pa:10218,-0.138238026,-0.218585461,0.317582358,0.100938005,0.331357263,0.176193864,0.089493239,-0.311853643,0.235512855,-0.016701129,-0.09544655,0.259409526,-0.589685752,0.145264607,0.243316174,-0.12560864
pa:10219,-0.049765183,-0.250160561,0.218592859,0.07132369,0.261626896,0.190193982,0.075079679,-0.403565556,0.348256657,-0.019596167,0.005395284,0.284199051,-0.539411134,0.158850652,0.266195765,-0.139376145
pa:10220,-0.052063254,-0.258386489,0.242004813,0.098626744,0.268721153,0.194583977,0.119899387,-0.346810843,0.282394307,-0.019132321,-0.133458017,0.291484732,-0.55996884,0.16318466,0.273361129,-0.140346163
pa:10221,-0.047811288,-0.234913944,0.183099456,0.121078802,0.255255878,0.185636665,0.042842079,-0.417849706,0.251728734,0.052740863,-0.072244549,0.26736119,-0.611137094,0.149717841,0.250767658,-0.129054427
pa:10222,-0.051281135,-0.233700339,0.211742055,0.05805455,0.243676895,0.194733818,0.077599142,-0.367032426,0.375064658,-0.01985573,0.003100151,0.291723618,-0.555230076,0.163172292,0.273422865,-0.143768997
pa:10223,-0.049969469,-0.249297246,0.241314474,0.112483307,0.275512816,0.196564506,0.198006598,-0.413000386,0.248404879,-0.018219384,-0.001901028,0.279707746,-0.535858087,0.156597,0.262343474,-0.139213297
pa:10224,-0.050058885,-0.248623851,0.240480026,0.102065273,0.262568456,0.190694834,0.114337241,-0.350786411,0.368931231,-0.019610825,0.00439459,0.284600997,-0.540789296,0.159139838,0.266670656,-0.139992268
pa:10225,-0.051983727,-0.233190428,0.151211169,0.055086853,0.274525069,0.190541631,0.080639291,-0.458582267,0.265483767,-0.019024306,-0.009518699,0.291360895,-0.558273627,0.163142876,0.273285011,-0.140552306
pa:10226,-0.049582241,-0.246399311,0.197052339,0.135783433,0.277569784,0.185239136,0.063112017,-0.405355989,0.341908459,-0.019375975,0.004115243,0.282518181,-0.537054479,0.157976959,0.264689062,-0.139112459
pa:10227,-0.051459449,-0.255025217,0.22171554,0.037280347,0.238570142,0.189355726,0.102576039,-0.453563802,0.254350314,-0.018873441,-0.001264696,0.288378943,-0.552058602,0.161456349,0.270431785,-0.143417861
pa:10228,-0.051128848,-0.242979731,0.195377762,0.070590856,0.255839851,0.201890198,0.077264501,-0.366543019,0.372621421,-0.019644017,0.003113439,0.290107967,-0.551980422,0.162259988,0.271861243,-0.142582332
pa:10229,-0.051442075,-0.251108889,0.256680318,0.126414953,0.250525645,0.200787271,0.018594106,-0.34399341,0.330868739,-0.018969147,-0.103970587,0.288712709,-0.554819683,0.161617146,0.270803569,-0.139277638
pa:10230,-0.050287305,-0.247664459,0.222207873,0.055827354,0.239494726,0.181876706,0.106489004,-0.442025622,0.305624685,-0.019423075,0.002380736,0.285115652,-0.542866323,0.159558075,0.267293161,-0.140671557
pa:10231,-0.023732154,-0.240464553,0.220227722,0.074715637,0.320628315,0.161125311,0.14300474,-0.331957684,0.340605095,-0.018571778,-0.059403643,0.280349601,-0.548614248,0.156910915,0.26287696,-0.186912836
pa:10232,-0.0499331,-0.245617836,0.232926487,0.14147638,0.251143748,0.187730109,0.032016969,-0.433570678,0.303347884,-0.018920266,0.000975767,0.282002153,-0.53804586,0.157776744,0.264331839,-0.13936141
pa:10233,-0.050075288,-0.251748176,0.243478562,0.125013707,0.290373777,0.199029537,0.153414804,-0.33299491,0.329775274,-0.018917797,-0.079667708,0.282553109,-0.53926916,0.158126944,0.264947548,-0.139815259
pa:10234,-0.049722483,-0.192367227,0.094864842,0.055529629,0.334329496,0.167551862,0.077671718,-0.333182786,0.321422834,-0.01781862,-0.072185878,0.277425502,-0.601181143,0.155364147,0.260256348,-0.229019957
pa:10235,-0.048751184,-0.246377911,0.231232624,0.125816341,0.290941789,0.189228844,0.076836161,-0.420044825,0.316873442,-0.019265097,-0.004109125,0.277604694,-0.527280717,0.155170412,0.260053555,-0.131282151
pa:10236,-0.050730492,-0.24580989,0.262249768,0.118279132,0.26388409,0.198415845,0.085244242,-0.335318553,0.346556208,-0.019372916,-0.072145431,0.287125772,-0.546975281,0.160654392,0.269090778,-0.141442294
pa:10237,-0.050537854,-0.249417149,0.242335039,0.149981791,0.268230566,0.192263492,0.049982543,-0.334559517,0.366582867,-0.019139957,-0.030696292,0.285194709,-0.54608525,0.159584404,0.267356106,-0.135984559
pa:10238,-0.050134459,-0.249498397,0.251007089,0.119427946,0.261326926,0.193426948,0.109468926,-0.332548798,0.369020961,-0.01940134,-0.003014862,0.285370754,-0.543077299,0.159601463,0.267435032,-0.140591903
pa:10239,-0.049960029,-0.253497654,0.237183105,0.18822096,0.311733198,0.172310683,0.055498393,-0.343070621,0.279118474,-0.018605883,-0.113699866,0.286946543,-0.550327259,0.160698767,0.269174911,-0.138763472
pa:10240,-0.052274725,-0.248881714,0.147525593,0.036516981,0.260912833,0.197542243,0.129625643,-0.448117793,0.258779815,-0.019170823,-0.009343564,0.292050219,-0.559575494,0.16350892,0.273937543,-0.141068505
pa:10241,-0.049287543,-0.245632745,0.227763835,0.084073646,0.269990863,0.189892303,0.143414755,-0.432118426,0.29911461,-0.018831786,0.002216218,0.279023802,-0.531647885,0.156079208,0.261479401,-0.137757836
pa:10242,-0.051640433,-0.173329399,0.255713705,0.143146554,0.203974849,0.158796022,-0.024873586,-0.327989904,0.259382709,0.083478513,-0.113883819,0.264606027,-0.655995813,0.1614935,0.270486938,-0.139942832
pa:10243,-0.05015427,-0.22354482,0.232230349,0.131101178,0.260917606,0.187092954,0.075165919,-0.373036921,0.36607543,-0.019741767,0.004753691,0.285955076,-0.543255426,0.159930115,0.267962265,-0.140726123
pa:10244,-0.051282488,-0.253829523,0.221260596,0.175123522,0.2551398,0.191187148,0.00038397,-0.342705303,0.361694017,-0.018679832,-0.014661529,0.286762062,-0.549608648,0.160592444,0.269022457,-0.142718761
pa:10245,-0.051533214,-0.254939624,0.18820203,0.049972783,0.25547643,0.192008065,0.079789162,-0.456835961,0.257013735,-0.0189071,-0.001417646,0.2893656,-0.553690629,0.161974288,0.271391282,-0.143603326
pa:10246,-0.050421568,-0.228123605,0.173557009,0.105962041,0.278326736,0.197972018,0.077171739,-0.44635704,0.29518233,-0.019296461,0.001545786,0.285460493,-0.544257732,0.159691876,0.267634687,-0.14098644
pa:10247,-0.047996931,-0.236837634,0.24041412,0.116545536,0.241285714,0.186238555,0.056804875,-0.321042067,0.331128388,0.078821672,-0.063676635,0.268412025,-0.613360011,0.150302806,0.251793605,-0.129861351
pa:10248,-0.04873037,-0.209717391,0.176803165,0.098405865,0.259062842,0.187334079,0.076324195,-0.327579168,0.335495139,0.052581491,-0.113961006,0.273121252,-0.622869392,0.152931563,0.256202101,-0.132143089
pa:10249,-0.047670233,-0.227481753,0.239806775,0.135953888,0.220543415,0.170388209,0.015891893,-0.418150594,0.249708459,0.071772127,-0.040012677,0.268237549,-0.611043409,0.150210375,0.251622175,-0.130022953
pa:10250,-0.052194153,-0.232891234,0.256455035,0.146842805,0.263553365,0.195744261,0.055541878,-0.347373181,0.300063539,-0.019117791,-0.10783299,0.292562589,-0.559782144,0.163756537,0.274360863,-0.145277858
pa:10251,-0.049826026,-0.244057602,0.227549071,0.116397463,0.302306543,0.186783901,0.158977418,-0.331076485,0.359380668,-0.018787289,-0.028807461,0.28164799,-0.537729394,0.157577795,0.26401836,-0.134577605
pa:10252,-0.051743971,-0.254939301,0.197439383,0.044029136,0.242879852,0.191269104,0.092864467,-0.456445266,0.255432832,-0.019027864,-0.001241928,0.289846842,-0.55509616,0.162308324,0.271875177,-0.144410806
pa:10253,-0.049673385,-0.242348026,0.178996479,0.12476683,0.277607496,0.196623695,0.055427495,-0.424078905,0.326655404,-0.019285438,0.003397452,0.283351802,-0.538687357,0.158522793,0.26553708,-0.139113661
pa:10254,-0.052608048,-0.256136477,0.144087983,0.114636622,0.352585714,0.180973867,0.143596645,-0.350857591,0.260419648,-0.019006426,-0.002128937,0.294054886,-0.563627028,0.164623807,0.275851298,-0.146326742
pa:10255,-0.051085819,-0.236441004,0.174097817,0.063880168,0.251827217,0.18450971,0.077348438,-0.432129532,0.331728797,-0.019463682,-0.006750021,0.289240322,-0.551454884,0.161843927,0.271167683,-0.137693344
pa:10256,-0.051404483,-0.253935967,0.243863285,0.128508054,0.244408725,0.200761482,0.009764752,-0.342820806,0.355827725,-0.019094416,-0.051845937,0.289033035,-0.55292275,0.161799577,0.27110183,-0.143608124
pa:10257,-0.110865866,-0.100885353,0.19277546,0.007002861,0.339526697,0.160939949,0.130229346,-0.403077202,0.242568916,-0.017273498,-0.099307247,0.266913152,-0.61292546,0.150935994,0.252841997,-0.130681087
pa:10258,-0.048546835,-0.231782273,0.217399158,0.144504039,0.35006463,0.157606644,0.151808862,-0.323948792,0.321222852,-0.017570231,-0.064266858,0.271082769,-0.541961661,0.151774335,0.254239168,-0.194674462
pa:10259,-0.052892557,-0.254247629,0.145302964,0.058215714,0.302122736,0.201434335,0.191800852,-0.366712936,0.2633904,-0.019250121,-0.002053726,0.295941521,-0.56693873,0.165679579,0.277563718,-0.147299288
pa:10260,-0.050934873,-0.249647224,0.259414392,0.132050142,0.290343831,0.193813201,0.113559781,-0.339283383,0.295802055,-0.019110863,-0.1069941,0.286971962,-0.548126278,0.160575586,0.269035837,-0.142143444
pa:10261,-0.05011257,-0.245947642,0.228514054,0.057479576,0.265693415,0.199354935,0.214533545,-0.397148456,0.254003545,-0.018396453,-0.039016974,0.284565554,-0.551839048,0.159323008,0.266892195,-0.137445573
pa:10262,-0.049005936,-0.240489889,0.222957575,0.150395759,0.346537011,0.179352117,0.169286748,-0.327489814,0.341564665,-0.017881245,-0.0375561,0.274702069,-0.526037417,0.15379952,0.257620843,-0.136657972
pa:10263,-0.049518601,-0.248029389,0.226850634,0.053355039,0.261905165,0.185608092,0.128674395,-0.400882361,0.344552413,-0.01911943,0.003893602,0.282336969,-0.536986972,0.157918623,0.264606628,-0.138894579
pa:10264,-0.047779812,-0.259691633,0.237896141,0.115654891,0.192576227,0.227422243,-0.00525186,-0.347842094,0.332142648,-0.017393279,-0.002510881,0.266859776,-0.578555078,0.149416263,0.250284691,-0.2212311
pa:10265,-0.050146964,-0.25136861,0.258295421,0.129012083,0.255229812,0.207680563,0.042488427,-0.348188669,0.362356133,-0.018932144,0.00101705,0.283255151,-0.540746786,0.158524144,0.265599763,-0.140175748
pa:10266,-0.049726859,-0.252321001,0.23832269,0.100026224,0.256448919,0.195410027,0.080090376,-0.366166517,0.366594549,-0.01993102,0.005367505,0.284404118,-0.539544529,0.159052621,0.26651846,-0.139547279
pa:10267,-0.051633981,-0.22218877,0.127390875,0.157800184,0.283365275,0.2651236,-0.048591228,-0.449167533,0.192227044,-0.018443768,-0.003729134,0.288351528,-0.554905535,0.161535448,0.270567221,-0.156414106
pa:10268,-0.050551779,-0.250773835,0.24574943,0.101169385,0.257878002,0.197629066,0.09261295,-0.339678951,0.370348486,-0.019668324,0.002734825,0.286346925,-0.54511465,0.16024359,0.268498377,-0.141228405
pa:10269,-0.050891388,-0.251129465,0.235692562,0.068279476,0.265551737,0.192109867,0.12752366,-0.336178185,0.361098261,-0.019645088,-0.051470362,0.288448869,-0.549036071,0.161369485,0.270367657,-0.1421963
pa:10270,-0.050929132,-0.245394744,0.23304916,0.063669144,0.241095094,0.19473932,0.099092537,-0.363112425,0.370912582,-0.019648531,0.003807654,0.288275527,-0.548454598,0.16131763,0.270234883,-0.142019573
pa:10271,-0.049014304,-0.244914226,0.24345051,0.142325547,0.261086289,0.192492129,0.099316444,-0.380995084,0.352777377,-0.01944965,0.004961954,0.280085398,-0.531298533,0.156566663,0.262367698,-0.137546175
pa:10272,-0.05118916,-0.250777208,0.209145011,0.051021603,0.248137463,0.204385271,0.111487474,-0.451049306,0.251932817,-0.019018293,-0.000865838,0.287765223,-0.550497955,0.161088728,0.269892982,-0.142982296
pa:10273,-0.050333867,-0.250088187,0.228034203,0.045777421,0.231048713,0.196749941,0.085113822,-0.43032547,0.321128892,-0.019119199,0.002051263,0.285008896,-0.543122723,0.159473957,0.267184292,-0.140653977
pa:10274,-0.047032031,-0.238304313,0.220611951,0.152785093,0.300528242,0.159292586,0.051753651,-0.331705955,0.332159645,-0.018313563,-0.068326584,0.279337255,-0.559144754,0.156374398,0.26195036,-0.203741138
pa:10275,-0.116463053,-0.146686873,0.285312198,0.011832653,0.318410791,0.188366362,0.150142822,-0.314341842,0.327994352,-0.016739018,-0.003080247,0.260798779,-0.593361255,0.14606424,0.244667426,-0.126470577
pa:10276,-0.050108832,-0.227752246,0.141192974,0.130946852,0.339839489,0.186680407,0.01609757,-0.413669144,0.320935196,-0.01821303,-0.002469918,0.281215078,-0.538941583,0.157421701,0.26375482,-0.139958488
pa:10277,-0.046254647,-0.251624653,0.215116141,0.074487053,0.24368273,0.24497235,0.117322076,-0.405159607,0.246641191,-0.007244268,-0.098133326,0.259242512,-0.593153447,0.145152781,0.243156677,-0.125156173
pa:10278,-0.049286808,-0.190065548,0.174167347,0.138307509,0.187401157,0.177991321,-0.038796037,-0.431316376,0.258746117,0.073084458,-0.041258603,0.277122019,-0.630210781,0.155225823,0.259969406,-0.134197838
pa:10279,-0.050576943,-0.255507696,0.231686439,0.080777975,0.261732604,0.1936406,0.130201174,-0.335517064,0.369845433,-0.019395957,-0.000269248,0.286944246,-0.546629623,0.160506623,0.26891947,-0.141585651
pa:10280,-0.051319522,-0.249599488,0.213439173,0.110418518,0.267795647,0.199159987,0.181813795,-0.395898787,0.253752589,-0.019002725,-0.000570012,0.28959293,-0.553918433,0.162100693,0.271570209,-0.143798627
pa:10281,-0.041335462,-0.210177337,0.239581914,0.137681112,0.249133658,0.18468538,0.06014025,-0.321298262,0.33787917,0.052459989,-0.08421649,0.268409036,-0.613092713,0.150296944,0.251775184,-0.129702703
pa:10282,-0.050285818,-0.243479494,0.20487072,0.092770381,0.268374411,0.217765868,0.076979331,-0.333576796,0.348415436,-0.019268387,-0.062985086,0.284813605,-0.556879046,0.159343654,0.266970822,-0.193225347
pa:10283,-0.051707362,-0.191312015,0.209031205,0.069363836,0.282494175,0.197992812,0.160963051,-0.343842641,0.368711967,-0.018957211,-0.021848869,0.290187397,-0.555186371,0.162425828,0.272102773,-0.139397752
pa:10284,-0.048360364,-0.263921969,0.204137143,0.056552129,0.304304361,0.226181928,0.174201952,-0.399328525,0.313252856,-0.017648478,-0.001096012,0.271976654,-0.520304209,0.152228815,0.255018767,-0.135023619
pa:10285,-0.049668155,-0.249873117,0.229898675,0.047145499,0.247403799,0.195548511,0.113288548,-0.420432934,0.326857462,-0.018978449,0.002844899,0.282403392,-0.538109311,0.157980833,0.264687753,-0.13942547
pa:10286,-0.050096322,-0.249741137,0.25291757,0.120250266,0.260056691,0.201128037,0.095106081,-0.332011347,0.365845945,-0.019407023,-0.030123115,0.28555504,-0.543716963,0.159756558,0.267656869,-0.140975757
pa:10287,-0.05110818,-0.276149748,0.230651384,0.067518937,0.248475568,0.259578353,0.188204588,-0.35682783,0.255117923,-0.018492261,-0.0025754,0.286120611,-0.549830891,0.160230581,0.268390142,-0.155507029
pa:10288,-0.053927421,-0.248900342,0.120301606,0.012928514,0.313374825,0.166156518,0.189897302,-0.361212103,0.269941515,-0.019301048,-0.003493771,0.300921708,-0.577654787,0.168546871,0.282343894,-0.150118898
pa:10289,-0.03518191,-0.215207211,0.091274009,0.044343157,0.210607189,0.178268784,0.194319328,-0.445846868,0.258931314,-0.01843967,-0.086372447,0.28787238,-0.59448973,0.161179766,0.270013114,-0.139484979
pa:10290,-0.049832051,-0.246590552,0.230046891,0.059370463,0.254273988,0.187438904,0.125320348,-0.434681898,0.307348958,-0.019196136,0.002946472,0.281762674,-0.536383447,0.157638284,0.264110522,-0.138849337
pa:10291,-0.050785857,-0.251074047,0.258419775,0.153106997,0.259089444,0.196039384,0.034974659,-0.337175366,0.356862247,-0.018866662,-0.046592915,0.285021316,-0.544948445,0.15953172,0.267262794,-0.136848857
pa:10292,-0.051468174,-0.252386896,0.232104796,0.061953763,0.245850916,0.193196713,0.165164441,-0.421931815,0.253772262,-0.018930303,-0.001360757,0.288468272,-0.552308316,0.161532259,0.270604875,-0.143279192
pa:10293,-0.051427404,-0.243586012,0.17221023,0.127878997,0.276669186,0.198146589,0.000701679,-0.367750789,0.363601368,-0.019019888,-0.001373887,0.288635859,-0.55236757,0.161584804,0.270714231,-0.143445452
pa:10294,-0.050958856,-0.217963731,0.108716815,0.073889202,0.316604644,0.164482008,0.079604167,-0.340549604,0.334791567,-0.018442301,-0.069175949,0.284395631,-0.583678702,0.159265491,0.266778823,-0.218411072
pa:10295,-0.048799829,-0.266702883,0.240395,0.186232899,0.290571629,0.246389147,0.083144252,-0.325326317,0.345009794,-0.017811397,-0.021427251,0.27338341,-0.523399652,0.153075271,0.256416617,-0.135833362
pa:10296,-0.049202395,-0.245259777,0.116964121,0.0035529,0.238798563,0.156327114,0.077496027,-0.419244185,0.292114429,-0.017712372,-0.002984532,0.275419184,-0.59710104,0.154257036,0.258393456,-0.227811395
pa:10297,-0.137719912,-0.197961082,0.295104364,0.059030427,0.323677111,0.181627756,0.104573881,-0.30826265,0.32371656,-0.016525169,-0.004256244,0.256970988,-0.584984039,0.143886554,0.241015698,-0.124259641
pa:10298,-0.049681378,-0.244620531,0.245316028,0.183778408,0.302771721,0.186052699,0.086958028,-0.330994256,0.349510873,-0.018491677,-0.038966078,0.279591722,-0.534482372,0.156492932,0.262164541,-0.138749821
pa:10299,-0.049395984,-0.248229717,0.219675597,0.055438796,0.282927152,0.194206595,0.154605457,-0.429245276,0.295572741,-0.018512276,0.000442351,0.278155426,-0.531390278,0.155696044,0.260808655,-0.137761608
pa:10300,-0.050680903,-0.265733262,0.159595824,0.123402305,0.256194762,0.269882321,-0.033913067,-0.439806665,0.253935614,-0.018077185,-0.003422205,0.282278613,-0.541865651,0.158067259,0.264787101,-0.140880244
pa:10301,-0.049797514,-0.253320334,0.242535899,0.146628202,0.26877018,0.1892817,0.071551154,-0.356144961,0.362037486,-0.019211335,0.003031772,0.28185992,-0.536765716,0.15769081,0.264184856,-0.139031889
pa:10302,-0.046583691,-0.221366221,0.198026472,0.208811845,0.305775459,0.170457642,-0.024613006,-0.351803685,0.31781223,0.072272852,-0.003216358,0.259768884,-0.590750648,0.145481199,0.243675762,-0.125844478
pa:10303,-0.048135455,-0.233514816,0.231652411,0.150065561,0.243833607,0.17378914,0.028707181,-0.322224913,0.337449467,0.077543047,-0.040596186,0.268732988,-0.613003653,0.150490994,0.252107149,-0.130120092
pa:10304,-0.049397775,-0.239701581,0.211282683,0.127223597,0.239312729,0.20083306,0.006464095,-0.332073514,0.25782676,-0.017827283,-0.199079752,0.276391216,-0.615959691,0.154808657,0.259282791,-0.133943134
pa:10305,-0.048419275,-0.235661904,0.227231007,0.154001018,0.364906176,0.18050968,0.172584664,-0.324216491,0.34085847,-0.017512967,-0.02736662,0.271203247,-0.519979041,0.151866915,0.25441183,-0.131027707
pa:10306,-0.049356849,-0.24291212,0.220635177,0.081767339,0.318852766,0.183049303,0.234893571,-0.40857902,0.247217238,-0.017806791,-0.009876748,0.275653652,-0.529015186,0.154373021,0.258606964,-0.133507659
pa:10307,-0.051797106,-0.248482073,0.240850539,0.156116462,0.271378985,0.193200579,0.06261844,-0.345340786,0.297487543,-0.019317969,-0.109328953,0.291566684,-0.557544592,0.163225427,0.27344018,-0.144685952
pa:10308,-0.050142026,-0.25012135,0.227775033,0.052490383,0.247745158,0.190378512,0.119924069,-0.396966287,0.350082611,-0.019423308,-0.005636765,0.284080451,-0.540971719,0.158941302,0.266302164,-0.134924308
pa:10309,-0.050967538,-0.249194475,0.250237933,0.109977411,0.28619515,0.128236675,0.081184409,-0.346071815,0.368226421,-0.019228908,-0.007557428,0.287060185,-0.548085269,0.160647084,0.269151281,-0.137160415
pa:10310,-0.050655475,-0.236100185,0.130555697,0.06844498,0.285746314,0.195298011,0.079000705,-0.337968211,0.333698477,-0.018516128,-0.070213205,0.283292402,-0.582021466,0.158657151,0.265748777,-0.219726735
pa:10311,-0.049462919,-0.236245079,0.111309535,0.026586166,0.316427906,0.159883583,0.175920448,-0.339476559,0.248300304,-0.017684505,-0.003240655,0.275941843,-0.611931643,0.154533156,0.258830519,-0.230887577
pa:10312,-0.048931543,-0.252188587,0.244098524,0.137363798,0.273920361,0.207210306,0.114561139,-0.350281579,0.360048321,-0.019309495,-0.021594963,0.278895668,-0.532376468,0.155979271,0.261371498,-0.132051963
pa:10313,-0.051213937,-0.246133845,0.226671285,0.167252783,0.387333384,0.16864607,0.111611735,-0.342410009,0.256546577,-0.018387159,-0.077036887,0.213585196,-0.552625311,0.159923558,0.267844424,-0.169861683
pa:10314,-0.048529802,-0.231330107,0.218273089,0.054176211,0.422168415,0.071462165,0.310517366,-0.325101309,0.243681,-0.017428749,-0.003059179,0.270496164,-0.519297964,0.151491039,0.253748581,-0.135048704
pa:10315,-0.050882613,-0.233211469,0.153318509,0.079008947,0.276878718,0.189292398,0.07732856,-0.427762575,0.330879497,-0.019322704,0.001700477,0.287505648,-0.548240547,0.160906585,0.269542699,-0.142096933
pa:10316,-0.051300833,-0.247743359,0.119056266,0.052532111,0.280852654,0.197704161,0.079296359,-0.42574873,0.328871678,-0.018885884,-0.00101272,0.287858565,-0.550433957,0.161095663,0.26989665,-0.142800567
pa:10317,-0.047273164,-0.159401636,0.221232282,0.107786598,0.300390107,0.149422783,0.152652962,-0.369420231,0.310919142,0.072329389,-0.039882472,0.264857972,-0.604721256,0.14830569,0.248436808,-0.128114172
pa:10318,-0.052397261,-0.225246322,0.228642932,0.16369485,0.279198732,0.198750026,0.074087505,-0.348214309,0.291301023,-0.019297827,-0.111956993,0.293516867,-0.561554004,0.164299774,0.275222412,-0.145771933
pa:10319,-0.05006145,-0.248640634,0.251043599,0.122630932,0.267599995,0.192639208,0.106181057,-0.332614192,0.359044272,-0.019850104,-0.051555379,0.286268856,-0.543714864,0.160107084,0.268260309,-0.140875323
pa:10320,-0.050803864,-0.251311453,0.215252766,0.140061229,0.27084773,0.194835738,0.059905741,-0.335323858,0.371983996,-0.019495556,-0.021718666,0.288085309,-0.548740107,0.161143921,0.270017338,-0.136934029
pa:10321,-0.053190323,-0.22376478,0.080493599,0.015022642,0.291472805,0.19974024,0.083263074,-0.36139823,0.373127524,-0.018992929,-0.003331266,0.296522326,-0.568975328,0.166044805,0.278152204,-0.147673007
pa:10322,-0.051422907,-0.212823094,0.138236521,0.069857549,0.408231908,0.150755975,0.152215681,-0.323574118,0.242709155,-0.01730477,-0.003213605,0.269268046,-0.612770205,0.150827137,0.25262723,-0.130547546
pa:10323,-0.050736909,-0.254884691,0.255474273,0.162171375,0.257693078,0.192034628,0.022823005,-0.338339893,0.360102672,-0.01858401,-0.003541498,0.284080964,-0.543800232,0.159042456,0.26643271,-0.141002443
pa:10324,-0.04996961,-0.256673786,0.252492008,0.139113809,0.264765323,0.204767111,0.090674378,-0.330448829,0.363323299,-0.0191151,-0.020394841,0.283078125,-0.539551506,0.158393079,0.265361883,-0.139745183
pa:10325,-0.050662661,-0.275535484,0.237441738,0.154443682,0.334613753,0.25345452,0.06876536,-0.339678555,0.253110652,-0.01835714,-0.099148411,0.245642571,-0.542986948,0.158544913,0.265603359,-0.140986462
pa:10326,-0.049576465,-0.242612041,0.217179385,0.108908831,0.255139839,0.192023546,0.073029074,-0.414167474,0.340704471,-0.019694608,0.006282863,0.283478328,-0.537609993,0.158429934,0.265491169,-0.139065708
pa:10327,-0.050253017,-0.248728186,0.229236511,0.035602807,0.23227932,0.199977638,0.099211645,-0.421599355,0.328528599,-0.018923963,0.001163753,0.284540936,-0.542882134,0.159165233,0.26671414,-0.140759402
pa:10328,-0.048106849,-0.238678879,0.205453256,0.055807957,0.224823394,0.186520273,0.075430487,-0.421106388,0.253803894,0.052654806,-0.07214822,0.269438172,-0.615243789,0.150811769,0.252653777,-0.130163576
pa:10329,-0.050655453,-0.248641656,0.192927605,0.1840517,0.280065936,0.188488939,3.73E-05,-0.362171384,0.356003056,-0.018345091,-0.002492795,0.283677965,-0.54388793,0.158873336,0.266131157,-0.141235309
pa:10330,-0.049317884,-0.248056167,0.241359568,0.117570404,0.262440552,0.190701777,0.081056961,-0.441557635,0.28789281,-0.018949111,0.0029701,0.279769179,-0.532404692,0.156485316,0.262195461,-0.137707055
pa:10331,-0.049265445,-0.243064821,0.242199052,0.089411555,0.257935259,0.195698641,0.085978778,-0.411797676,0.33754439,-0.019597373,-0.003336395,0.281448409,-0.53358896,0.157351234,0.263637227,-0.132338889
pa:10332,-0.047219681,-0.231987563,0.217290923,0.107996328,0.305853371,0.175334396,0.158470845,-0.317611096,0.286738177,0.070685964,-0.121102606,0.264529715,-0.602464368,0.148157562,0.248168586,-0.128205086
pa:10333,-0.049317759,-0.244678855,0.200664268,0.124940775,0.26805134,0.205880368,0.069338215,-0.422689097,0.324719766,-0.019387311,0.004782841,0.281359466,-0.534520736,0.157329712,0.263647326,-0.138317669
pa:10334,-0.051115184,-0.258698984,0.259502915,0.114524233,0.259873639,0.199897569,0.06505301,-0.339377847,0.326563306,-0.01945169,-0.093374287,0.289042024,-0.551177602,0.161727548,0.270958899,-0.142984836
pa:10335,-0.051362425,-0.224883928,0.105716488,0.073597764,0.353897019,0.184871785,0.147107434,-0.423299998,0.257362068,-0.018428652,-0.0033451,0.286731127,-0.550088294,0.16057247,0.268992954,-0.142876573
pa:10336,-0.050494064,-0.250012581,0.245435119,0.129557585,0.260329289,0.193260008,0.097744338,-0.332777283,0.369383304,-0.019376258,-0.012344872,0.285950321,-0.544502997,0.159959005,0.268016106,-0.140934637
pa:10337,-0.049777561,-0.242424994,0.216455356,0.134430814,0.259831057,0.185077448,0.059348476,-0.414256236,0.338794091,-0.019820411,-0.003626597,0.283085879,-0.537057257,0.158257766,0.265243231,-0.133328166
pa:10338,-0.048458862,-0.237082588,0.127113764,0.061291118,0.280080186,0.156513482,0.107531563,-0.417251615,0.242845701,-0.017447774,-0.002821782,0.270647836,-0.600971025,0.151533415,0.253862335,-0.227627855
pa:10339,-0.051559353,-0.251327166,0.194151205,0.028553677,0.225871206,0.210660591,0.080819693,-0.455366036,0.271156986,-0.018995449,-0.001389864,0.289716332,-0.554631334,0.162203577,0.271736531,-0.144185534
pa:10340,-0.031302676,-0.194355893,0.218807854,0.020616068,0.192170935,0.187129436,0.086669005,-0.361088881,0.380664163,-0.019638344,-0.02324102,0.302123133,-0.579406328,0.169180033,0.283420167,-0.146048863
pa:10341,-0.051687523,-0.254013696,0.216470054,0.021970289,0.208439746,0.194832801,0.079973226,-0.448663621,0.294132669,-0.018770792,-0.001376821,0.288769648,-0.553187414,0.161654088,0.27085871,-0.143501847
pa:10342,-0.138640176,-0.185629009,0.293659315,0.081445447,0.326181722,0.178316251,0.081542569,-0.30996344,0.322072902,-0.016702048,-0.026474084,0.258255627,-0.588110474,0.144639793,0.242275188,-0.12504106
pa:10343,-0.049385821,-0.238153784,0.228379474,0.155135655,0.277464843,0.164436799,0.035734176,-0.330769915,0.247852692,0.072875235,-0.136553598,0.252106908,-0.62659994,0.154200737,0.258301532,-0.133551951
pa:10344,-0.049478101,-0.249339174,0.233954492,0.075907924,0.257330147,0.182165646,0.110110067,-0.436079141,0.306303717,-0.019254672,0.003653034,0.281358087,-0.535086387,0.157372008,0.263699347,-0.138577205
pa:10345,-0.049539125,-0.245827636,0.250069896,0.128618018,0.288799471,0.188342644,0.137425547,-0.328252543,0.355173577,-0.019072706,-0.040468571,0.281025143,-0.536448391,0.157181128,0.263354079,-0.153494215
pa:10346,-0.049636431,-0.251535099,0.236641257,0.111462837,0.268145763,0.193375994,0.116651919,-0.358892292,0.364129056,-0.019611641,0.004816113,0.282180061,-0.536101596,0.157845478,0.264461199,-0.138752613
pa:10347,-0.050543571,-0.244986992,0.220818061,0.144341126,0.26763102,0.189297259,0.125451281,-0.437227538,0.246786397,-0.01891563,0.000308914,0.284370843,-0.543191305,0.159144569,0.266598337,-0.140994061
pa:10348,-0.049469094,-0.248445709,0.234394421,0.083173476,0.250782493,0.192541216,0.093021331,-0.430212034,0.317635468,-0.019406457,0.00519153,0.281709883,-0.534845514,0.157486677,0.263859422,-0.138310317
pa:10349,-0.052015606,-0.236378047,0.226815785,0.180689389,0.287823795,0.174735494,0.184271467,-0.346616994,0.257971569,-0.018850279,-0.040076313,0.29023402,-0.562951211,0.162519614,0.272250846,-0.140205638
pa:10350,-0.048277614,-0.261513455,0.239638464,0.155659241,0.318874966,0.224632996,0.127324007,-0.334816436,0.344354091,-0.017769001,-0.001117872,0.271184296,-0.518595229,0.151791346,0.254306477,-0.134453926
pa:10351,-0.050259854,-0.249263827,0.224300857,0.141692802,0.271499795,0.19353909,0.034353461,-0.359653639,0.362826302,-0.019053728,0.001288116,0.284436641,-0.542345353,0.159164183,0.26668125,-0.140537928
pa:10352,-0.049705149,-0.247587785,0.215741401,0.071809961,0.275494027,0.185591165,0.153780772,-0.441582639,0.275738446,-0.018566518,-8.20E-05,0.280516089,-0.536009134,0.157036548,0.263044397,-0.138994814
pa:10353,-0.133735949,-0.229458812,0.299948835,0.0792751,0.368839262,0.174024583,0.143218819,-0.301233063,0.266289998,-0.016202658,-0.082807462,0.250661072,-0.57009469,0.140383382,0.235165037,-0.121451955
pa:10354,-0.049086151,-0.234853814,0.237772958,0.127186386,0.255841618,0.192652249,0.073524629,-0.402120301,0.346278987,-0.019600543,0.006131177,0.282096994,-0.535024595,0.157736665,0.264285082,-0.138408994
pa:10355,-0.046480713,-0.234842686,0.170853117,0.04623471,0.354534068,0.14382716,0.163086274,-0.310457477,0.321974933,-0.016648083,-0.029449173,0.258779795,-0.585426099,0.14489349,0.242716561,-0.218151239
pa:10356,-0.051589908,-0.253942197,0.188808278,0.114897798,0.283770408,0.207311327,0.139483883,-0.399805735,0.249907725,-0.019615705,0.001728023,0.292172778,-0.557132163,0.163447051,0.2738338,-0.144551241
pa:10357,-0.037292212,-0.19653053,0.130134038,0.112545225,0.337936891,0.17163142,0.155898789,-0.423601751,0.259279326,-0.018839641,-0.002815543,0.290208337,-0.55651278,0.162544786,0.272263113,-0.144631228
pa:10358,-0.051144202,-0.244132203,0.234737583,0.07729393,0.251888857,0.188170833,0.095955182,-0.35189043,0.372282485,-0.019621634,0.002303611,0.289004217,-0.550069734,0.161658391,0.27085313,-0.142258769
pa:10359,-0.050797897,-0.240283241,0.233438506,0.115869246,0.266446256,0.188282651,0.110385522,-0.333721058,0.374037357,-0.019571691,-0.020061173,0.288209421,-0.548139759,0.16120678,0.270081045,-0.136465887
pa:10360,-0.048876999,-0.250484072,0.230182791,0.074766781,0.27777459,0.201268187,0.148935386,-0.385682298,0.34526703,-0.018870922,-0.005315108,0.278356382,-0.530008095,0.155671206,0.260797191,-0.132140644
pa:10361,-0.050776111,-0.245863763,0.228901911,0.160128052,0.304435951,0.166116688,0.066015901,-0.341797439,0.25558228,-0.018291533,-0.173572636,0.280568816,-0.572147656,0.159361716,0.266945564,-0.137709457
pa:10362,-0.051643106,-0.256846316,0.115593636,0.060920662,0.321155248,0.189116742,0.181386999,-0.370366615,0.256972251,-0.018484769,-0.073089477,0.287046096,-0.577570538,0.16074831,0.269261003,-0.138809383
pa:10363,-0.049004861,-0.270505084,0.131892932,0.031500198,0.323621544,0.141480789,0.174337096,-0.328153092,0.245754442,-0.017436177,-0.003333033,0.273022989,-0.605657661,0.152859186,0.256104371,-0.228436894
pa:10364,-0.049897054,-0.251258033,0.202039416,0.075955179,0.25737066,0.199724389,0.07405849,-0.405679026,0.349215518,-0.019788913,0.00545671,0.284871883,-0.540364976,0.159303208,0.266921837,-0.139488418
pa:10365,-0.049710331,-0.248975337,0.188890597,0.120914607,0.273097198,0.19508879,0.061624406,-0.396654266,0.352127875,-0.019663617,0.005257929,0.283938652,-0.539347852,0.158840281,0.266086031,-0.139673392
pa:10366,-0.049455874,-0.239024757,0.229035635,0.108889502,0.306459526,0.182859441,0.206137501,-0.420002931,0.247209101,-0.017835641,-0.002662127,0.276773163,-0.530517921,0.154985227,0.259587863,-0.137696855
pa:10367,-0.05062194,-0.258418051,0.25089662,0.111962877,0.282156284,0.160991864,0.127880422,-0.335163198,0.339436238,-0.019275214,-0.080520165,0.286831572,-0.546422697,0.160465278,0.268842581,-0.141445633
pa:10368,-0.05013492,-0.250550774,0.22544969,0.050336052,0.246483349,0.189435451,0.094485698,-0.432527546,0.314686144,-0.019040426,0.001939183,0.283936,-0.541266787,0.158876606,0.26612361,-0.140197917
pa:10369,-0.051338383,-0.242268148,0.183512704,0.034769151,0.234212646,0.193721121,0.078951899,-0.428947418,0.333230548,-0.019447484,0.00080599,0.28966374,-0.552533849,0.162045294,0.271515058,-0.143431826
pa:10370,-0.140680625,-0.171442366,0.307828784,0.101821609,0.400353922,0.150855813,0.139432761,-0.263921139,0.237870513,-0.016986682,-0.087116149,0.22179931,-0.600295248,0.147807046,0.247610058,-0.128009924
pa:10371,-0.036462911,-0.259952111,0.2483587,0.018711239,0.17620799,0.176922963,0.098240236,-0.35458186,0.37273728,-0.019067317,-0.010032026,0.295099283,-0.566144027,0.165253913,0.27683175,-0.142787143
pa:10372,-0.052016552,-0.242658876,0.228040477,0.079831994,0.270973324,0.152202844,0.077768169,-0.340871778,0.377733897,-0.020052245,-0.021712835,0.29268363,-0.557304567,0.163738966,0.274350122,-0.13897724
pa:10373,-0.025583795,-0.005499732,0.228065739,0.093437586,0.423679164,0.157148812,0.164612142,-0.340069079,0.237288461,-0.016937975,-0.096638788,0.26084471,-0.598832125,0.147441455,0.247013205,-0.127673773
pa:10374,-0.049101289,-0.235587964,0.158273586,0.025825916,0.212400559,0.173854113,0.076748112,-0.367388873,0.338709047,0.037829923,-0.086822186,0.274476849,-0.627311112,0.153705717,0.257513157,-0.132956771
pa:10375,-0.055926181,-0.254445418,0.20396767,0.130551855,0.201268514,0.205996023,-0.048434867,-0.373798929,0.205363825,-0.019886752,-0.122134682,0.310787888,-0.596971975,0.174063823,0.291564659,-0.150694276
pa:10376,-0.049834124,-0.25043815,0.237163143,0.10306743,0.273738063,0.192055545,0.087228503,-0.448728305,0.251318131,-0.018824852,0.000273652,0.281936995,-0.538371298,0.157775711,0.26434549,-0.139732563
pa:10377,-0.049335645,-0.247800684,0.239201923,0.099319998,0.251858194,0.184996509,0.086476393,-0.402247351,0.346740175,-0.019733652,0.005435047,0.282584575,-0.536098713,0.157980794,0.264704052,-0.138606251
pa:10378,-0.051793364,-0.253574693,0.24456987,0.146670016,0.30657032,0.183438966,0.08829637,-0.345257019,0.264840791,-0.018930981,-0.120067925,0.289805717,-0.555315569,0.162241852,0.271813203,-0.139907221
pa:10379,-0.050145049,-0.248042016,0.235973613,0.161664222,0.302243337,0.186581385,0.048262056,-0.333998142,0.35694978,-0.018731499,-0.037322124,0.28251728,-0.539964339,0.158175359,0.264950681,-0.135430313
pa:10380,-0.048990164,-0.251220101,0.246636606,0.107042697,0.258035867,0.206612793,0.09872129,-0.343273385,0.361647311,-0.019208953,-0.062119817,0.279595943,-0.549190386,0.15633343,0.261974648,-0.132194342
pa:10381,-0.051015172,-0.249590918,0.211867451,0.155741482,0.231658062,0.179707571,-0.008179674,-0.426294479,0.317472278,-0.018511918,-0.002325972,0.285176013,-0.54639929,0.159709866,0.267541346,-0.141790467
pa:10382,-0.050433151,-0.247092052,0.240753968,0.143080409,0.259564857,0.1896934,0.060316404,-0.350617704,0.367678103,-0.019552444,0.002994028,0.285252392,-0.542638548,0.159476326,0.26724408,-0.140652504
pa:10383,-0.052599853,-0.232014485,0.168532931,0.128701732,0.306645297,0.195549424,0.055606739,-0.349555558,0.314963844,-0.019590512,-0.103515503,0.295074497,-0.564107007,0.165149836,0.27666183,-0.146559053
pa:10384,-0.050276619,-0.247802768,0.256196938,0.141038938,0.287682537,0.19605939,0.117427649,-0.334573149,0.320246304,-0.019353447,-0.092549651,0.284735304,-0.542715664,0.159357107,0.266944728,-0.140861194
pa:10385,-0.049221282,-0.234312361,0.195761066,0.086639177,0.249093058,0.164146683,0.076422681,-0.329426443,0.320891252,-0.017985064,-0.074575776,0.276415599,-0.602095926,0.154720572,0.259213577,-0.233626031
pa:10386,-0.049327589,-0.240469005,0.233126301,0.095123364,0.249588095,0.192001306,0.077944846,-0.404752463,0.3489794,-0.019861765,0.006716965,0.283856375,-0.537832032,0.158678958,0.265847146,-0.139171707
pa:10387,-0.049224548,-0.241623525,0.234540758,0.175861349,0.323528143,0.184391454,0.14782586,-0.32830011,0.343914779,-0.018008061,-0.038087228,0.276049908,-0.528241814,0.154545839,0.258862374,-0.13698506
pa:10388,-0.039560612,-0.254226415,0.245373883,0.018518611,0.178051733,0.173223092,0.118749521,-0.364988105,0.370388373,-0.018972283,-0.010008386,0.293652266,-0.563240843,0.164479851,0.275511217,-0.141938604
pa:10389,-0.047406962,-0.23820986,0.153057796,0.120262666,0.282340737,0.181763892,0.061489006,-0.416229284,0.250809334,0.052298028,-0.071907603,0.266314337,-0.60860038,0.149133127,0.249818315,-0.12867785
pa:10390,-0.050869315,-0.248715548,0.24034,0.143517995,0.328434413,0.18727399,0.078816331,-0.338739992,0.293149929,-0.018548742,-0.111352123,0.285007749,-0.545625719,0.159529479,0.267248165,-0.137136211
pa:10391,-0.050154694,-0.247286429,0.238707217,0.121271511,0.26338565,0.186086226,0.149656037,-0.439511685,0.247329369,-0.018508217,-0.00089064,0.281592793,-0.53864154,0.157638767,0.264090466,-0.139786801
pa:10392,-0.050021167,-0.252477136,0.239902602,0.098305975,0.275748448,0.192161879,0.138797867,-0.332127457,0.362113414,-0.019370152,-0.035400797,0.284731118,-0.542083046,0.159292246,0.266903637,-0.140381663
pa:10393,-0.051013545,-0.250484037,0.260453735,0.127918904,0.256095898,0.188982643,0.028614942,-0.338475091,0.360391327,-0.019122273,-0.040658698,0.287244113,-0.548463905,0.16073982,0.269291873,-0.142106592
pa:10394,-0.048615953,-0.265054837,0.22527541,0.145938924,0.302542993,0.219047134,0.150592987,-0.337611227,0.348560967,-0.018014144,-0.000503545,0.273980812,-0.523711384,0.153358616,0.256927093,-0.135914456
pa:10395,-0.048893238,-0.24540522,0.236840286,0.11351375,0.252243588,0.181662962,0.086416036,-0.421885548,0.328481665,-0.019309532,0.005622122,0.281571357,-0.534186279,0.157400228,0.263733821,-0.138026048
pa:10396,-0.132482563,-0.247081389,0.305956041,0.096154122,0.309040373,0.221878915,0.051242563,-0.379332488,0.252912104,-0.015921547,-0.002602612,0.246600057,-0.561665761,0.138087765,0.231296484,-0.119240056
pa:10397,-0.047702903,-0.262290444,0.239049154,0.119451816,0.286922322,0.254522933,0.142251075,-0.365161927,0.334993769,-0.01783933,-0.000214032,0.270105377,-0.516180246,0.151187662,0.25327491,-0.133738609
pa:10398,-0.050556711,-0.247765897,0.244779386,0.105156362,0.259027269,0.192441202,0.101893193,-0.333775526,0.369052875,-0.01967618,-0.033082661,0.287982595,-0.547451443,0.16105335,0.26983235,-0.141766812
pa:10399,-0.04937877,-0.252802086,0.24313164,0.132470945,0.272598624,0.200121296,0.083526466,-0.354784788,0.361897149,-0.019338487,0.003667249,0.281240988,-0.534700142,0.157282021,0.263565038,-0.138643306
pa:10400,-0.049811641,-0.230994128,0.0883118,0.015182846,0.307803565,0.162429103,0.077934108,-0.33383042,0.291512901,-0.017863778,-0.093851826,0.277939588,-0.616345754,0.155582787,0.260689497,-0.23255908
pa:10401,-0.050420198,-0.258003732,0.245413877,0.121641917,0.264865857,0.195673186,0.094698141,-0.332688982,0.368572038,-0.019331263,-0.013800444,0.285215992,-0.54293562,0.159544292,0.267340596,-0.135327065
pa:10402,-0.050911924,-0.243274065,0.163043179,0.136607159,0.303306196,0.197573468,0.024996445,-0.447497365,0.253421268,-0.018535385,-0.002069819,0.284982955,-0.546108277,0.159569857,0.267320162,-0.141880747
pa:10403,-0.041828811,-0.205990676,0.105864625,0.040031459,0.187314107,0.180157924,0.177346836,-0.450080425,0.261253752,-0.018577115,-0.087328559,0.290517652,-0.600193629,0.162683886,0.272493012,-0.140940831
pa:10404,-0.050104245,-0.2574769,0.265574583,0.149457571,0.17666887,0.177078126,-0.014241232,-0.357748327,0.26267325,-0.019147709,-0.099962847,0.252443837,-0.595006979,0.166695004,0.27922649,-0.211424361
pa:10405,-0.048704143,-0.250155174,0.251309912,0.150837926,0.279989326,0.206419109,0.123965665,-0.348749408,0.354328477,-0.018985895,-0.021540937,0.276630724,-0.528843916,0.154798826,0.259344759,-0.13171585
pa:10406,-0.049498879,-0.239838234,0.226729363,0.15567988,0.314654433,0.167337601,0.065794279,-0.329919615,0.339989423,-0.018686539,-0.060007476,0.279415073,-0.54634375,0.156354907,0.261980839,-0.187114789
pa:10407,-0.050180096,-0.250744286,0.240747507,0.130037149,0.282334642,0.191017474,0.106322562,-0.328921414,0.365601767,-0.019610031,-0.032022783,0.284497325,-0.540475311,0.159132964,0.266629673,-0.139657771
pa:10408,-0.047145296,-0.233345061,0.228066897,0.11319142,0.270484957,0.190061078,0.10988218,-0.315026865,0.332949165,0.037705488,-0.100947148,0.264011078,-0.605249207,0.147837789,0.247633679,-0.127378068
pa:10409,-0.048320007,-0.253124128,0.244866781,0.101912501,0.330454444,0.251473838,0.077773948,-0.424532618,0.240445715,-0.017565767,-0.00912357,0.270489953,-0.518468778,0.15141336,0.253692411,-0.130633156
pa:10410,-0.050162713,-0.213008362,0.145542341,0.152874719,0.331253712,0.191039692,0.020430444,-0.420815226,0.313591872,-0.018201238,-0.002361383,0.281703029,-0.539820587,0.157731544,0.264249913,-0.140296122
pa:10411,-0.051058476,-0.252231599,0.185541966,0.167552509,0.286736037,0.203840573,0.015398433,-0.341134148,0.35669172,-0.018588583,-0.039940083,0.286622189,-0.548880312,0.160468604,0.268831705,-0.142415492
pa:10412,-0.051434205,-0.229890801,0.124234114,0.073631606,0.332363536,0.192292395,0.08272128,-0.449224636,0.255266674,-0.018426009,-0.009922591,0.28663848,-0.550023184,0.160516435,0.26890232,-0.138569079
pa:10413,-0.047143739,-0.236635526,0.187400627,0.085565072,0.293550995,0.148813871,0.072775331,-0.407719509,0.280090851,-0.017531952,-0.000648186,0.265117501,-0.578951909,0.148417944,0.248633025,-0.226746497
pa:10414,-0.050687914,-0.25096123,0.249606898,0.130190475,0.254639489,0.201159959,0.04064503,-0.337081776,0.366382216,-0.019325082,-0.028944972,0.287032749,-0.547559647,0.160610443,0.269119771,-0.136877913
pa:10415,-0.052139919,-0.243103199,0.098395864,0.053404954,0.314630684,0.181149866,0.183207609,-0.374757867,0.260579977,-0.018626508,-0.073788013,0.29048472,-0.584227824,0.16262624,0.272462444,-0.140542015
pa:10416,-0.049611074,-0.248341854,0.196867398,0.139510193,0.272427765,0.190732124,0.070998648,-0.444014607,0.288061266,-0.019044546,0.002695857,0.28181518,-0.536729909,0.15767564,0.264112672,-0.139264609
pa:10417,-0.054246203,-0.263117242,0.160228039,0.080650824,0.291453379,0.135487877,0.178015247,-0.360824414,0.267860546,-0.01965742,-0.010237821,0.302413884,-0.579900016,0.169338594,0.283671907,-0.146080007
pa:10418,-0.050385988,-0.257088733,0.250784357,0.134480502,0.259159416,0.208276911,0.076177135,-0.335788169,0.336253467,-0.018658931,-0.110262763,0.283364782,-0.548760877,0.158608698,0.265701111,-0.136121213
pa:10419,-0.050693914,-0.252527766,0.224761545,0.037675646,0.231803988,0.198891074,0.124910025,-0.380195964,0.359487982,-0.019025049,0.000947886,0.286401952,-0.546662828,0.160263135,0.268507803,-0.141558877
pa:10420,-0.048919072,-0.251104927,0.222056169,0.096385573,0.263353381,0.200710497,0.116045255,-0.38437535,0.356764393,-0.019767038,0.006610922,0.281720688,-0.533462015,0.157483811,0.263883126,-0.137856834
pa:10421,-0.117413119,-0.151867782,0.281794641,0.005798793,0.306921899,0.181160454,0.148426773,-0.316671114,0.330251709,-0.016871941,-0.002804577,0.262717923,-0.597778904,0.14715258,0.246466549,-0.127508986
pa:10422,-0.051210174,-0.255813232,0.224252947,0.113971899,0.259932479,0.189172835,0.132112676,-0.418905734,0.246838235,-0.019571247,0.001969589,0.290365483,-0.552970011,0.162445157,0.27217933,-0.143168121
pa:10423,-0.050533214,-0.25189643,0.214317823,0.066555546,0.240197074,0.186620643,0.077103725,-0.4493052,0.292739422,-0.019138075,0.001430955,0.286131554,-0.545694429,0.160083401,0.268241282,-0.141394228
pa:10424,-0.048910026,-0.244586176,0.227476535,0.082725205,0.273332451,0.182612196,0.099364855,-0.39608275,0.354239247,-0.02011496,-0.02114897,0.281951462,-0.535560931,0.157522148,0.263956849,-0.131292418
pa:10425,-0.039147797,-0.25977499,0.17553746,0.045227533,0.18502129,0.177984688,0.082040995,-0.457542686,0.292748395,-0.019013286,-0.00222006,0.294419162,-0.564334013,0.16485871,0.276166704,-0.146519599
pa:10426,-0.050728259,-0.255649408,0.209366651,0.044833393,0.234225631,0.197305702,0.078537543,-0.447656997,0.292437067,-0.019029896,0.000240736,0.286669257,-0.547435504,0.16045483,0.26879141,-0.141874507
pa:10427,-0.15092962,-0.225510465,0.228230087,0.05421426,0.39936378,0.190825035,0.079180112,-0.337539181,0.252923591,-0.018120755,-0.038195161,0.281077046,-0.54551986,0.157409658,0.263691589,-0.136251445
pa:10428,-0.050379355,-0.252082,0.233735995,0.10352722,0.320332018,0.194668265,0.165934111,-0.3375596,0.287109157,-0.018391178,-0.12238464,0.282510122,-0.543260347,0.158192439,0.264989525,-0.136533016
pa:10429,-0.051338731,-0.255968625,0.245107307,0.115139319,0.282913612,0.192145523,0.136045956,-0.343556818,0.280168524,-0.018723539,-0.130753345,0.28838566,-0.554339125,0.161511273,0.270508231,-0.139103487
pa:10430,-0.05255169,-0.258134805,0.254264934,0.139283864,0.278876464,0.189784095,0.095214876,-0.350061056,0.25884985,-0.019371246,-0.115456539,0.277746242,-0.564077958,0.16501975,0.276455117,-0.146495123
pa:10431,-0.035884306,-0.250326835,0.187385965,0.01285227,0.163834533,0.179261511,0.082723115,-0.427998043,0.343698314,-0.019061098,-0.010157032,0.295486015,-0.566786086,0.165488191,0.277198778,-0.142790933
pa:10432,-0.049679498,-0.251446806,0.245585028,0.127150685,0.28025963,0.199223197,0.14821148,-0.331866361,0.343112494,-0.01912975,-0.065626286,0.282814874,-0.538802166,0.158220334,0.265069875,-0.139653862
pa:10433,-0.051092768,-0.251811216,0.246123192,0.136815182,0.254882639,0.189805747,0.023820597,-0.340327332,0.359259588,-0.019324909,-0.046370585,0.288403281,-0.550464783,0.161370398,0.270366034,-0.142782574
pa:10434,-0.050922667,-0.251801185,0.163469455,0.122178518,0.302436893,0.185594865,0.121613809,-0.442048137,0.249363848,-0.018641987,-0.008768017,0.284878163,-0.544977022,0.159472786,0.267120729,-0.136732893
pa:10435,-0.049867477,-0.234772887,0.193700474,0.11024117,0.266186106,0.191101604,0.073594332,-0.378062296,0.371338121,-0.020257421,-0.02170478,0.287599511,-0.546792538,0.16078652,0.269395012,-0.134554259
pa:10436,-0.051488739,-0.25069005,0.192341732,0.072609568,0.259203337,0.198112712,0.129838941,-0.44561729,0.25192554,-0.018959297,-0.008487282,0.288505028,-0.552040222,0.161476286,0.27055726,-0.138602434
pa:10437,-0.050398194,-0.251708352,0.229194782,0.069713638,0.27552912,0.197402467,0.1918881,-0.41699517,0.250836737,-0.018411765,-0.00191729,0.282549902,-0.541289395,0.158194238,0.264975927,-0.140693253
pa:10438,-0.0516202,-0.230098153,0.229876069,0.131061832,0.252791251,0.19123899,0.022845924,-0.349382989,0.370296787,-0.019388339,-0.000258014,0.290468103,-0.555001997,0.162602757,0.272373969,-0.144159466
pa:10439,-0.05136055,-0.253383343,0.255916937,0.131085274,0.222353673,0.201318544,0.045829182,-0.344517175,0.257918899,-0.018451273,-0.107221893,0.184081485,-0.640159146,0.160695082,0.269182313,-0.139242751
pa:10440,-0.051057283,-0.255414911,0.262216976,0.123670028,0.261138374,0.196946306,0.051419081,-0.339910373,0.328539332,-0.019197539,-0.090464498,0.28863149,-0.550875589,0.1614915,0.270602564,-0.142732298
pa:10441,-0.047847066,-0.233627737,0.222660889,0.09682231,0.25659717,0.176304835,0.098215267,-0.319830109,0.338412935,0.067042398,-0.0696645,0.268009039,-0.614221029,0.150041512,0.251352651,-0.129055022
pa:10442,-0.051506312,-0.253204111,0.244612091,0.148319082,0.291297784,0.195033813,0.139479525,-0.345415813,0.256668866,-0.018884742,-0.111575899,0.288168789,-0.554347729,0.162051315,0.271439275,-0.144134166
pa:10443,-0.049674669,-0.2534655,0.243904032,0.125714067,0.260734476,0.197494335,0.09412323,-0.35353846,0.365960922,-0.019271745,-0.005165683,0.283010109,-0.538062595,0.158238596,0.265129045,-0.133771961
pa:10444,-0.051042689,-0.24771738,0.246497747,0.124481025,0.231226933,0.197516496,0.008666201,-0.448578682,0.254740376,-0.018427479,-0.002331974,0.286097993,-0.54856516,0.160228718,0.268365953,-0.142444687
pa:10445,-0.050692273,-0.240351952,0.249748666,0.135522484,0.259532332,0.187094312,0.072995372,-0.335963632,0.369938661,-0.01929049,-0.011160996,0.2874221,-0.547610451,0.16079972,0.269417878,-0.141692548
pa:10446,-0.049705049,-0.251909767,0.213503684,0.095143341,0.269601679,0.201466306,0.075581217,-0.449284572,0.273925603,-0.018890931,0.001946041,0.282169028,-0.537862554,0.157845801,0.264497391,-0.139306748
pa:10447,-0.049214481,-0.244804822,0.243973746,0.132759688,0.257610485,0.182799529,0.077253001,-0.403516364,0.340733187,-0.019462755,0.004854539,0.280625018,-0.532832314,0.156927498,0.262961285,-0.137807387
pa:10448,-0.048773901,-0.268684781,0.226086646,0.077934002,0.254551297,0.253540271,0.122431444,-0.429205093,0.281288068,-0.018321555,0.000196937,0.275089034,-0.525408784,0.153925427,0.257897512,-0.136249722
pa:10449,-0.050502171,-0.253882863,0.226198439,0.068241558,0.276835737,0.19198035,0.156625916,-0.335519039,0.364336154,-0.01894514,-0.002313869,0.284781592,-0.543860123,0.159336144,0.266988467,-0.141105821
pa:10450,-0.048600368,-0.246388673,0.219770958,0.144136034,0.285358582,0.196532576,0.072507845,-0.413182676,0.324907139,-0.019064116,0.004667807,0.277736178,-0.527502013,0.155285268,0.260217645,-0.136571949
pa:10451,-0.047562868,-0.238798923,0.143275231,0.101879707,0.29060107,0.156850484,0.070069152,-0.416080021,0.253068545,-0.01734077,-0.002399733,0.266416033,-0.592999027,0.149192633,0.249920036,-0.225894423
pa:10452,-0.050389983,-0.245538707,0.240298338,0.101151249,0.262989534,0.180780573,0.129086928,-0.448383025,0.247156636,-0.01876241,-0.000319634,0.283100599,-0.541096864,0.158409086,0.265408087,-0.140483648
pa:10453,-0.141521707,-0.235248861,0.308142349,0.107599401,0.335198808,0.184754363,0.073495599,-0.316796863,0.237520839,-0.016951959,-0.094213716,0.263825182,-0.575516511,0.14775993,0.247515727,-0.127852321
pa:10454,-0.049929312,-0.249748302,0.182961549,0.055136878,0.260071766,0.138289728,0.178551003,-0.334159406,0.249774668,-0.017794844,-0.003058178,0.27821946,-0.617540487,0.155789245,0.260983256,-0.233356466
pa:10455,-0.049820051,-0.25147419,0.227407884,0.04253676,0.274377945,0.201076634,0.156086893,-0.36343352,0.355358961,-0.018545015,0.000139945,0.281438319,-0.537523297,0.157509223,0.263857118,-0.139285234
pa:10456,-0.05069309,-0.24848497,0.219077893,0.183099096,0.265155295,0.186879665,-0.009834181,-0.361665717,0.355590731,-0.018341083,-0.00271674,0.283480598,-0.543255702,0.158726859,0.265903763,-0.140923061
pa:10457,-0.051349211,-0.191400616,0.135612463,0.112950099,0.30069519,0.191923351,0.079163857,-0.426096064,0.328693933,-0.018801238,-0.023306686,0.287658491,-0.552366137,0.161001781,0.269694997,-0.138038198
pa:10458,-0.049882942,-0.251579327,0.226507767,0.110994409,0.270761682,0.145577164,0.071325415,-0.439215679,0.303431298,-0.019122699,0.002888679,0.28305349,-0.539055439,0.158312554,0.265261266,-0.139716344
pa:10459,-0.048657616,-0.216513919,0.229839645,0.116661625,0.313199325,0.16451967,0.2265285,-0.405923648,0.243904566,-0.017548678,-0.068640825,0.271917103,-0.546845563,0.152236628,0.255067108,-0.131700784
pa:10460,-0.05200364,-0.244646668,0.207783627,0.121970184,0.257910288,0.199928289,0.008902155,-0.344937339,0.367395705,-0.019155773,-0.030433683,0.291423174,-0.557203782,0.163156157,0.27330582,-0.14439714
pa:10461,-0.048657149,-0.268238154,0.232359988,0.129807547,0.259395163,0.256278834,0.07945273,-0.431470607,0.26448711,-0.018218902,-0.022028631,0.274148215,-0.525876964,0.153453174,0.257096044,-0.131432873
pa:10462,-0.049550883,-0.249224578,0.246062546,0.129396062,0.261898963,0.18170129,0.080036773,-0.373857753,0.359732544,-0.019528032,0.004691279,0.282180184,-0.535647156,0.157823476,0.264445922,-0.138439476
pa:10463,-0.051004014,-0.21029392,0.140685778,0.129248111,0.341308951,0.192606793,0.012494705,-0.444157731,0.26396235,-0.01825888,-0.010267328,0.284823197,-0.546485226,0.159474921,0.267118359,-0.137791003
pa:10464,-0.050880753,-0.226342816,0.205744497,0.05338585,0.245194632,0.193850454,0.077051404,-0.409735467,0.35175673,-0.01976148,0.002960744,0.288888504,-0.549703716,0.161625278,0.270837364,-0.142275518
pa:10465,-0.047335617,-0.229513506,0.216551697,0.07200285,0.264999178,0.173019109,0.183958124,-0.403504075,0.237309224,0.05053139,-0.070372569,0.264243052,-0.602346682,0.147952824,0.247873601,-0.12801903
pa:10466,-0.050178979,-0.25420188,0.218736293,0.048623926,0.23433139,0.198503728,0.086164856,-0.427074386,0.326579458,-0.019385777,0.002612827,0.284830779,-0.542203634,0.159362642,0.267031686,-0.140247194
pa:10467,-0.048585412,-0.241550478,0.229006508,0.115671325,0.285236126,0.180688951,0.124764748,-0.407328517,0.334086148,-0.019416928,-0.003430896,0.278504385,-0.528142144,0.155713183,0.260880148,-0.131041502
pa:10468,-0.048728276,-0.241377476,0.235444628,0.081860816,0.27841934,0.189923544,0.124918257,-0.408356202,0.334914987,-0.019255133,-0.003663224,0.2791741,-0.529892089,0.156064989,0.261502212,-0.131391561
pa:10469,-0.05130025,-0.249079077,0.243001178,0.133804906,0.339013286,0.194346487,0.143038047,-0.343773863,0.256148771,-0.018478093,-0.112750423,0.257109649,-0.551566097,0.161037757,0.269801353,-0.138963684
pa:10470,-0.047731922,-0.198756554,0.191217702,0.092658491,0.401205344,0.152096529,0.169564869,-0.322985499,0.239328524,-0.017323272,-0.003218894,0.266067002,-0.605315736,0.149019387,0.249622979,-0.128805793
pa:10471,-0.051407609,-0.253269998,0.251133746,0.141212135,0.219090213,0.193511863,-0.014095462,-0.358097515,0.361865258,-0.018640317,-0.002466827,0.287399389,-0.550799849,0.160924511,0.269590016,-0.143067454
pa:10472,-0.047239444,-0.237577269,0.143362371,0.102559364,0.284736721,0.162418571,0.041023972,-0.41545963,0.260913196,-0.017378385,-0.002236187,0.267084415,-0.593892495,0.149540437,0.250486133,-0.225785496
pa:10473,-0.051129218,-0.243741983,0.235566373,0.127821633,0.258751351,0.193719173,0.043007592,-0.341367188,0.370480051,-0.01915062,-0.007353565,0.288749151,-0.551205582,0.161539179,0.27066212,-0.138030168
pa:10474,-0.053443535,-0.260078999,0.161479579,0.123061638,0.310930216,0.133070959,0.176453678,-0.356822218,0.264691005,-0.019568538,-0.009378733,0.299074284,-0.572684902,0.167386248,0.280428216,-0.144345505
pa:10475,-0.052040354,-0.213700038,0.143065957,0.045279949,0.258979076,0.198879163,0.080899904,-0.451578902,0.301770898,-0.019216429,-0.001349446,0.292050988,-0.558957204,0.163486663,0.273888304,-0.145286535
pa:10476,-0.028872219,-0.263091756,0.211041424,0.076292532,0.314594702,0.222535692,0.079023251,-0.439038455,0.245076639,-0.018341866,-0.008915869,0.278341374,-0.532717052,0.155832045,0.261039059,-0.133917212
pa:10477,-0.052530624,-0.23849669,0.198943332,0.035222702,0.235266314,0.198564625,0.081269972,-0.350034352,0.368578896,-0.019847742,-0.051420409,0.29706504,-0.567130872,0.166275379,0.278546978,-0.147052343
pa:10478,-0.046845325,-0.234459955,0.193152101,0.1393073,0.248041166,0.163447359,0.025157815,-0.332622498,0.340770352,-0.018008191,-0.048641452,0.278320818,-0.58873637,0.155796126,0.261007144,-0.226549806
pa:10479,-0.050217297,-0.250934252,0.242002742,0.132618898,0.27129045,0.196910675,0.077639572,-0.332667024,0.368526575,-0.019264031,-0.007368017,0.285322127,-0.543070967,0.159637253,0.267460606,-0.140350646
pa:10480,-0.049005928,-0.243509054,0.236534085,0.095797581,0.272946632,0.188416063,0.078554482,-0.399391945,0.348144569,-0.019579524,0.007226585,0.28112347,-0.532853183,0.157100317,0.263226526,-0.137546886
pa:10481,-0.050828272,-0.250404505,0.250785494,0.127082501,0.261774528,0.186694571,0.065045156,-0.335830734,0.360365562,-0.01969057,-0.051520663,0.288060958,-0.548098328,0.161099686,0.269961802,-0.141943693
pa:10482,-0.053085544,-0.256699511,0.265073754,0.138322685,0.241728971,0.192593011,0.019792074,-0.354559837,0.264763855,-0.019307678,-0.11960445,0.296197319,-0.567933363,0.16587911,0.27787762,-0.143072503
pa:10483,-0.052137615,-0.253742334,0.256216956,0.164917542,0.310653231,0.194894339,0.077119989,-0.347883877,0.259310012,-0.01894163,-0.112783726,0.256321461,-0.558233701,0.16301748,0.273073666,-0.140717929
pa:10484,-0.051837571,-0.261388786,0.152244156,0.117103622,0.368498032,0.159400484,0.168585056,-0.346554547,0.258456984,-0.018713049,-0.023743263,0.289608193,-0.557632177,0.16223204,0.271731443,-0.140282726
pa:10485,-0.050815294,-0.250935454,0.229456056,0.041036831,0.262806287,0.198631471,0.154063676,-0.338800509,0.361687777,-0.019089929,-0.032551233,0.286816809,-0.547948247,0.160513815,0.268939958,-0.142216343
