head,0,1,2,3,4,5,6,7,8,9,10,11,12,13,14,15,16,17,18,19,20,21,22,23,24,25,26,27,28,29,30,31
"Wine:1001",-0.5659899982645847,-0.40059842493478093,-0.1556775354230573,0.002484924903803773,-0.12738201357277817,-0.39941623777415874,0.18509131967437936,0.36181703614491606,-0.15797858771302523,-0.19783879179464767,-0.061257012132991534,-0.19562485589193807,-0.12259643163604039,-0.0008944752340791498,-0.14383173348278283,0.021790593263882985,0.06116273707848621,0.009217947513082634,-0.016299786380665253,-0.006358928234272194,-0.04032915547244387,-0.05882992532706141,0.04034153100386506,-0.027115297094070505,0.006424222868292184,-0.0057738806162321715,-0.0024382934783467756,-0.00033191709351661013,-0.0045086022748867,0.0013342814752918904,0.0021820633298803354,0.001757506252263907
"Wine:1002",-0.6235579152622539,-0.36386128146924956,-0.17311226945642755,0.0027372131266680073,-0.013999962505977012,-0.4984219459694814,0.1444327012945164,0.23753940839689328,-0.18278769356532523,-0.2178058683301628,-0.05082704486209397,-0.10800029162660833,0.00021482393872801687,0.10679628236254644,-0.03852107456367801,0.02443619831179695,0.06760343513368768,0.010134168278999402,-0.01808680597814005,-0.007436331259338285,-0.04441815247936393,-0.06529096472524763,0.0445570785973367,-0.03005203155077009,0.007013458338893053,-0.006417478237527193,-0.0026840163033701905,-0.0003437515705673925,-0.005007608342799599,0.0014903647114052356,0.0024042014251058155,0.001944612158309445
"Wine:1003",-0.5645950003632639,-0.33626928273185386,-0.16789747405765085,0.0026741766069353027,0.07172775312784524,-0.5325154699044832,0.13182039472463708,0.26801251126877734,-0.0809995047590844,-0.21104082725279238,0.06208070018007256,-0.13430570395323882,-0.14679494482542413,0.1069073998929802,-0.11301298072798086,0.023636589522473477,0.06574615708799274,0.009990282731191865,-0.017613482978891176,-0.006884713131576674,-0.08735310993758208,-0.16569814306193092,0.04348571907500744,-0.02913655814262025,0.006877166631527566,-0.006182266632663909,-0.002577004079005078,-0.0003515535699872131,-0.004897887683450612,0.00143312340846794,0.0023913283888650394,0.001908089852656997
"Wine:1004",-0.43954144628243186,-0.26024780133134573,-0.23773603360287407,0.0023398925635751753,-0.19127078649906004,-0.5597605908626988,0.1481092550716781,0.39364361800874487,0.021459378817432255,-0.1775624089780163,-0.13268234488167557,-0.09326464436039114,-0.16508246192634307,0.09280056884797637,-0.17134093084724664,0.11290938086773798,0.057778113510856724,0.008667528653777361,-0.015480323970955799,-0.006258113099299495,-0.03816792335577945,-0.05637711145572214,0.038144564444316534,-0.02556068100743308,0.00602851905554566,-0.005516759428229659,-0.002259435451322465,-0.00029540111530765116,-0.028144214665391302,0.09040677215087004,0.0020627796578809063,0.0016514072487742064
"Wine:1005",-0.5629676500005868,-0.3412154778802111,-0.16340683054588856,0.002457387110705615,-0.09523935421193469,-0.463151806215959,0.04107365381186266,0.3864938554918875,-0.15208389588462665,-0.19660596261949997,-0.04196433674787658,-0.09627118704674384,-0.11683730099162408,0.1968691953865498,-0.11627734400215692,0.11754343883684425,0.06068285174319331,0.008984316828403798,-0.016329259818621027,-0.034943120853551966,-0.040149215028653054,-0.05857545040061111,0.04006898925584915,-0.026865200255701764,0.006309037116651944,-0.005743430660823548,-0.0023638035868877067,-0.0002602407641490628,-0.004472738151739103,0.0013319280924318725,0.0021731371493112286,0.0017293523796446137
"Wine:1006",-0.49337251783729,-0.3915815206010644,-0.20327300733125656,0.002605511700258303,-0.006330477865697928,-0.5291446907220457,0.18042679475850856,0.306147742809135,-0.007336950995397322,-0.20849004318651826,-0.043837205976529195,-0.1158170811782003,-0.14041012291347038,0.20645344490941345,-0.043173261647903007,0.02266572616638541,0.06362815671267735,0.03954052795172312,-0.01708918433533602,-0.0065249649393407366,-0.04193736647867254,-0.15191748295771004,-0.01804473985512373,-0.02833320206517091,0.0067177038757044415,-0.00607021275080657,-0.00246274589059986,-0.00028138767389371125,-0.004695457009251962,0.0013999794736836006,0.0022973826867830815,0.00182696494133385
"Wine:1007",-0.458368045084434,-0.18949631521729793,-0.23880990680851336,0.0023193231966730115,-0.18009049683979259,-0.6136862829056898,0.22851800854644572,0.39181532712216094,0.03303817446996424,-0.13623229709739176,-0.04016792394570916,-0.06739763417486712,-0.033243153105588244,0.11493656535925993,-0.1120653131793867,0.02069656580988628,0.05748634549738146,0.00859186058274469,-0.015318960867873575,-0.021509296990404204,-0.03792796946793069,-0.1461952318425221,0.037849916936364095,-0.02540550857337699,0.005894173463912225,-0.005493019495020219,-0.0022487291383055277,-0.0002495434037452584,-0.004247449428665608,0.0012541667924038102,0.0020469447146230367,0.0016438490908584108
"Wine:1008",-0.5760936463710647,-0.45605550303687237,-0.15889022291536553,0.0025263537397234776,0.08171553805074593,-0.48640900305915363,0.13517587278404256,0.249207234612637,-0.08889675466956563,-0.20088133662668212,-0.0435520057257211,-0.10668295655512401,0.02676262196500958,0.034007122759192064,-0.10992572230042298,0.02271303317482605,0.06194330994693332,0.009529732560774442,-0.016668371481963547,-0.006650957138781472,-0.048992606927128146,-0.16132650591723507,0.04099438868223352,-0.027425827342903653,0.006426474525117766,-0.005877022268490909,-0.002530916229996451,-0.0003199683063205981,-0.00462299109288937,0.0013726927093180232,0.00221607265396044,0.0018010254785733924
"Wine:1009",-0.5127177385560376,-0.3743526967678499,-0.16693425670195375,0.002667298329406972,-0.1876075442192775,-0.566476923503378,0.18515421146997948,0.1661784305066689,-0.02212827728719892,-0.16906134422321337,0.05156644439189394,-0.21994710068613502,-0.13785493372390173,0.10556825715186245,-0.11138742689766672,0.02319610289397299,0.06527692272913817,0.11441617946325679,-0.017537737195735884,-0.007022885247638495,-0.05803381583896239,-0.06331864044008077,0.04317203530516992,-0.02896591633382621,0.00684161771602299,-0.006212397177510508,-0.002568841790576633,-0.00035820880234507086,-0.004831898159908123,0.001438023257909469,0.0022997642366242195,0.0018440636346724719
"Wine:1010",-0.46799304519859575,-0.34342149124857246,-0.22883496931009967,0.002408375336733633,-0.03582960867781891,-0.5794915896972972,0.26623814596135204,0.31819349404279684,0.06416732413540736,-0.1109228402176904,-0.13730960447495588,-0.15717624264409738,-0.014177854776387864,0.14847404069686432,-0.05231105448414133,0.021036419926114144,0.05918639586737026,0.07177463362385866,-0.015824255419264802,-0.006212705474727411,-0.03890092770511523,-0.05722443268966574,0.03905851673169256,-0.02617944290335625,0.006097706966095531,-0.00559690663822996,-0.00232256576213142,-0.00023926276840748878,-0.004388690016244507,0.00128381368587796,0.0021034341679616133,0.0017054241547586255
"Wine:1011",-0.4827378506634421,-0.34229509048939305,-0.17710042714000848,0.002102215342299325,-0.06541921142762187,-0.5065713586059345,0.12817237913340676,0.3426805364035566,-0.16142372776818062,-0.17336767562884303,-0.03560820579604076,-0.32160668201168546,-0.08484858820712457,0.1505500967481567,-0.1557098779405292,0.018563903092041478,0.051785707399528785,0.007709268987612977,-0.013773883952772922,-0.005364493989810978,-0.034229303996828706,-0.04983515655525603,0.03443093818450854,-0.023015290272456582,0.005401047958539109,-0.00490766259112117,-0.0020560727645412267,-0.00026871974874059546,-0.003852032580582408,0.0011309105314525052,0.0018561935075488954,0.0014739445837180579
"Wine:1012",-0.39146849441936904,-0.35648055931937467,-0.2581839632355448,0.0024957424098582303,-0.05415288640284447,-0.5988907451162031,0.15552647160920746,0.3218130009291487,0.041693847718372305,-0.11909774661023362,-0.08307827038384516,-0.2931062359776889,-0.1321083996926882,0.09873129310703217,-0.12431664401800141,0.021800498942434143,0.0613446517042389,0.009214064113347768,-0.01634929286536056,-0.006524926654205659,-0.040486587404546526,-0.05920877132155987,0.04050619276592603,-0.02707347191323379,0.0063735967891806935,-0.005841601964624464,-0.0024501407146562625,-0.00029203790208879964,-0.004549729540490318,0.0013319918486219492,0.0022039726332808607,0.0017649346450542963
"Wine:1013",-0.5082392972762166,-0.40161600107946915,-0.17030637247278368,0.002668984619775887,-0.10121488210119432,-0.5666727283352547,0.1445511535204207,0.23139267373200623,-0.08127039294925371,-0.20545587476803323,-0.047329473364481706,-0.11054243841665444,-0.035165258964375806,0.13309584089524593,-0.22190946265795625,0.023408602493247516,0.06580815870257256,0.00967477239053064,-0.017551110065887162,-0.006974168294243334,-0.04339551623089264,-0.06351571733420763,0.04351695090920178,-0.02910856730765009,0.006850971421880239,-0.006172274132876449,-0.002621484920721048,-0.00034299395969598646,-0.004885711672002902,0.001438144651524159,0.0023357305302681513,0.0018828053907655557
"Wine:1014",-0.45879421741943266,-0.22490311388203346,-0.1531115960315228,0.002450132000979296,-0.09668023447726633,-0.5834354172689984,0.22063162516398044,0.4114233843572263,-0.07350907363776073,-0.18473554280491608,0.024264265638032884,-0.0964277475072861,-0.1392978775527489,0.09690326991796529,-0.1377262280962562,0.08176930134458323,0.06011087330780828,0.03285099373481829,-0.08513806658729399,-0.0065954994832411115,-0.13364888398790936,-0.05849714226727739,0.03981316321747108,-0.09465331716229788,0.0062885054018024114,-0.005653558760916674,-0.0023799417155522164,-0.0002591620093697174,-0.004433697140970446,0.001329627408314891,0.0021609188785296526,0.0017230915482607265
"Wine:1015",-0.5445553260103958,-0.3326415532054165,-0.1766539780619624,0.002423001056506056,0.12087089673020572,-0.4910929608224282,0.1455726263067502,0.3820571082754307,-0.10416349555822746,-0.19406440731151314,-0.13635569188557425,-0.10235852754290835,-0.1283265764366112,0.09696969776682804,-0.10488378402850601,0.021591007112593943,0.06001263432142358,0.10567934572965651,-0.016098168394329253,-0.006544137068360306,-0.053657895460760975,-0.05815149887904728,0.039847446475654226,-0.026640913583692912,0.006298520861338491,-0.0056990318357550565,-0.002350932339317317,-0.00030765766893187834,-0.004442386780448093,0.0013080197310796566,0.002153631731984062,0.0017093671347123017
"Wine:1016",-0.5309148104012467,-0.3814320927431641,-0.21722593999519646,0.002333807545396612,-0.07269858099030564,-0.49183231123906984,0.04317639904186904,0.3832375622162003,-0.1587028129510003,-0.19904049631054757,0.055311971042454125,-0.15623873004942268,-0.05511956899130344,0.09264776873065249,-0.12191306818123342,0.0202643885272462,0.057735796667271314,0.008317241569438126,-0.01543637313058011,-0.00586711020764362,-0.037990965294019026,-0.05519010246378497,0.038011866989694845,-0.025512669260919215,0.006014016397272058,-0.005440022016509511,-0.0022903975161681156,-0.00023530218647074247,-0.004268885841113593,0.0012627493891787444,0.0020808419351029156,0.0016377228514997185
"Wine:1017",-0.5740077330007456,-0.30610250140859174,-0.15819157317585383,0.0025210602311283078,-0.2012883342982936,-0.5007018179166383,0.05839909204560994,0.37071685162790047,-0.07460564963416577,-0.10053681255521463,-0.05449584606026595,-0.10978808498622188,-0.1321188974959475,0.0954082371906395,-0.10786414762390319,0.12278313817427092,0.06201496505128456,0.009269459221503334,-0.016533560875883455,-0.0066091331022303515,-0.04091255091434739,-0.11585434313346124,0.12471116395223505,-0.02736115832719372,0.006389686135416266,-0.005898778618901541,-0.002452660971642088,-0.0003327539922901182,-0.004603578563105082,0.0013633990225006,0.0022317522290184696,0.0017757564012801294
"Wine:1018",-0.6032133687792439,-0.3538750245145045,-0.22162262064050725,0.0026546065644395198,-0.031412825297108364,-0.42372484750231415,0.07167836799821975,0.39009098382874,0.057155049813870214,-0.21048414969333298,-0.12519240939249335,-0.10266185457986926,-0.04067724444069115,0.1047395429981406,-0.15462876194023178,0.022978061070645452,0.06463069914552884,0.009746335354448772,-0.01721308005264983,-0.006662512396862364,-0.04262314860481657,-0.06242835252703001,0.04273497106321737,-0.028656176512499694,0.006732824583235006,-0.006196718784544831,-0.0025144296338060657,-0.00032777975905630825,-0.004793967042265992,0.0014107451737796297,0.002317268240450189,0.0018643461856304338
"Wine:1019",-0.546527543010542,-0.35001723347863123,-0.1675103470293411,0.002710035174456611,-0.03753653789420551,-0.5381667595750594,0.11909438314740571,0.2522423903534083,0.01765688528865354,-0.21521388900397007,-0.15656376695895968,-0.17888658464286006,-0.1455809319800884,0.002442911700794609,-0.12220404013009727,0.06376487250349183,0.06613396585942782,0.009886312419262468,-0.017664686368964726,-0.006805342521776868,-0.043442118831677375,-0.08691899421904327,0.15259217861525995,-0.029338706923399765,0.006847109491328083,-0.006272984924021853,-0.0026259085115104275,-0.00024572049075794665,-0.004891467398995862,0.001449311163415143,0.0023543879020314997,0.0018940932338138035
"Wine:1020",-0.5375244009719623,-0.360518810030664,-0.1678584058183647,0.002685341159757762,-0.042089199721061045,-0.5902442478653821,0.13398614529274555,0.21265927852522593,0.08991907249052039,-0.21569267265215764,-0.04631495523292448,-0.1455608503790415,-0.06826323940824262,-0.005133107741044422,-0.1147316637853793,0.024368985080197664,0.0660121357199224,0.009758989174318111,-0.017741383005406976,-0.006607786686303733,-0.08768555628929982,-0.16660705429707073,0.04398346813512781,-0.029449467486783627,0.006858773127248975,-0.006281363776169888,-0.0026238586682222078,-0.00031277082219156806,-0.004932164417943062,0.001447090174530649,0.0023613948354973715,0.0018908988623261265
"Wine:1021",-0.549536973236988,-0.39044870848377516,-0.19284034040009332,0.002400343273626832,-0.0309944795479756,-0.3932573740510604,0.14100218367229442,0.37544872489457276,0.021977215263252164,-0.22572631042623123,-0.040762019740528746,-0.23492725391472136,-0.14110351359787335,0.09498568539811694,-0.15287798041332118,0.020698791138678903,0.05891021014550588,0.008586846237687623,-0.01572950233964736,-0.06374247279126026,-0.03882920928269262,-0.13863370537338782,0.03900690102651038,-0.02613902682487651,0.00620606178845912,-0.005618167927393449,-0.0022962728911774142,-0.0002802894651743685,-0.004372610218603177,0.0012984932372575096,0.0021068554027773956,0.0017088091103940536
"Wine:1022",-0.4339170811916562,-0.38149486045910236,-0.17225852018921128,0.002747565635366086,-0.037105665677453104,-0.6180274607661792,-0.015056682319348738,0.272692774034173,-0.007138506039720855,-0.21935760368210294,-0.04741203153051065,-0.13805917689561278,-0.14819969883514608,0.10941484548301428,-0.11808521579579968,0.10207899662471988,0.06778556155596273,0.010132374147165698,-0.018106847547991217,-0.0851919833994831,-0.08786214203862192,-0.16661635120357463,0.04474287729177066,-0.029943684390829086,0.007099802265324218,-0.006439377132429963,-0.0026664642725192393,-0.00033951168201512794,-0.005003791851742056,0.0014740400511407017,0.0024115263242098935,0.0019483156907782538
"Wine:1023",-0.5104694351730785,-0.35288340148303793,-0.1874765626831091,0.002585772564566261,-0.0030354297063608492,-0.51766595408674,0.1801289592403658,0.3576073120273078,-0.07120859622970234,-0.2072655483346582,-0.14762003530681428,-0.1143555757001491,-0.060890307591488314,0.014272765387657193,-0.11274724902462038,0.022778876269792615,0.0638322228634798,0.009309458072764853,-0.016958593881350674,-0.006724561819912497,-0.0839569544254927,-0.1593750570841423,0.042087735051957606,-0.02815225392236798,0.006633386357872104,-0.006018002758362356,-0.00254306910591849,-0.09952051143918561,-0.04328922589307918,0.0013811680387722694,0.0023158143380200584,0.0018273149085940067
"Wine:1024",-0.44087973926123397,-0.24237065584169032,-0.24069828648302957,0.0023478194149567887,-0.1672319009680942,-0.5604531809162878,0.25482099890809146,0.3439373809174119,0.021699123154121574,-0.13648299996389066,-0.1181977632224794,-0.1699811766911951,-0.123948992693861,0.09343365561570297,-0.14434761078523603,0.06735380203660928,0.14656011771409685,0.008960667245879482,-0.015434477340666952,-0.08707200596075008,-0.13126085177044472,-0.058243839959842836,0.0381675882185114,-0.025554202453377074,0.006081353648374852,-0.005490763295656148,-0.0022708824626213064,-0.00029383286366871375,-0.004282609327372262,0.0012823245203866806,0.002027829477017321,0.0016532311034826287
"Wine:1025",-0.47435843929009186,-0.3794731601070941,-0.23339299407383635,0.0024784640051820845,-0.003625688393943298,-0.6025268765343381,0.10804523363568926,0.30760507668262693,0.02579474489156923,-0.20046928498488775,-0.04239126830340885,-0.10583740607193967,0.0720136279695343,0.10911205838083199,-0.10760747254397333,0.02161484517264564,0.0615225234021142,0.008937136627636396,-0.016480930960974804,-0.006640782813252052,-0.040567449796151296,-0.12691649786420633,-0.037029416133285385,-0.027418153061260962,0.006447390877987615,-0.005827901638141912,-0.002465385066718533,-0.0002863981896687231,-0.004563980941080174,0.001340513405770504,0.002234940623842187,0.0017579578437733133
"Wine:1026",-0.4461231138019107,-0.3548531295959307,-0.15143312421884342,0.0024577220895407184,-0.08433675866743645,-0.5896492568924906,0.1675355645782761,0.31957231996876917,-0.15847398767386392,-0.1959616366216702,-0.10192791713639311,-0.11807550093701583,-0.0822564300353979,0.1881878963059458,-0.11107178807607611,0.05036734645914324,0.05985673601737035,0.008552399420908541,-0.01609040035178845,-0.10518843766601618,-0.039284958071312895,-0.05764084274549581,0.03953413288031133,-0.026581141154785753,0.006213208971487792,-0.005729401353019704,-0.002354626014168508,-0.0002893743069735478,-0.004466632883313508,0.0013263493020005128,0.002147699563393159,0.0017248195995748135
"Wine:1027",-0.5686390869537024,-0.4012635898050309,-0.15706765561559063,0.002483315290463294,0.022048849388209096,-0.5011397966806072,0.1084722293171583,0.2548888802959741,-0.1732004978448071,-0.19854853378091802,0.04835236016814002,-0.1704893850965015,-0.027165603733491448,0.18680065578255525,-0.11746357038891447,0.022255562569069187,0.06138298511934368,0.009358384576356214,-0.016483631610620234,-0.006717105540625342,-0.040516263530399374,-0.059483968649520866,0.040596449573733276,-0.027166631902800813,0.0063812517921165894,-0.00581517149575332,-0.0023741615814286744,-0.00031094034403322926,-0.00454503991514998,0.0013403494500347744,0.0021875214277354443,0.0017679239814332108
"Wine:1028",-0.5110793037908848,-0.1636278331344378,-0.16625473471548424,0.002620701990851161,-0.1974568161038595,-0.5807346366805157,0.25416138287478346,0.29559207657089537,-0.07403348301451197,-0.20924028519074633,-0.045060204648173736,-0.1048893404426047,-0.1364513610415307,0.10412780459267137,-0.11392793414160046,0.023795079606542452,0.06492302541273816,0.010136154211451111,-0.0173154965170347,-0.10963152810917762,-0.05121343244232693,-0.16973209544959325,0.04283575187031483,-0.028845734234950904,0.006753517447801268,-0.0062143273319255204,-0.0025380474723852987,-0.00032799727695480876,-0.0047846771542631675,0.001397200036421802,0.0023174394787373194,0.0018337891933053608
"Wine:1029",-0.5247327990007911,-0.31743764733344826,-0.15772638854704643,0.00249998481597321,0.07190668670261431,-0.5004415216529324,0.077161793382304,0.41738987082495377,-0.055773171776782114,-0.18085076818773724,-0.001975262286032855,-0.22703762666858487,-0.13676170456059608,0.09936639746980103,-0.10721966565458216,0.021807752092146707,0.061757431389893154,0.009209389490836972,-0.016453154073056774,-0.00624982575073655,-0.049039975333948285,-0.1617754651174511,0.04074443376352824,-0.02737784793484497,0.006465234611625011,-0.005880511837770446,-0.0024638990505998605,-0.0003132579062483845,-0.004584710241274961,0.001329998523483348,0.002188031851268266,0.0017773821995412027
"Wine:1030",-0.4461074347333704,-0.3836836581900466,-0.16106571487859428,0.0025628212552264483,-0.1975939768768853,-0.6133268765803341,0.11885764844927403,0.2116639780905188,-0.03763868286743864,-0.1780833729259345,-0.12396337636204949,-0.226409064957829,-0.13541651328493934,0.10180632262031845,-0.11033943454663377,0.022932913925722748,0.0632686507121803,0.009676122058495296,-0.016651471945136834,-0.006811025661509272,-0.04162110784116194,-0.06108981184971072,0.04171386639085274,-0.02794909194755939,0.006556270058228592,-0.006020058177848493,-0.002455086060601231,-0.00026606221726852014,-0.0046732838270145665,0.0013820331277477622,0.002251795920860426,0.0017920402312992026
"Wine:1031",-0.5794579125557016,-0.4204908396382703,-0.16002180422348758,0.0025247767990088316,-0.0046485631783679615,-0.411801217226163,0.0722498526821721,0.3660680694722557,0.03879963941603778,-0.25169649729467486,-0.1419322017296814,-0.10078217396040037,-0.11127500661493357,0.005502093623255774,-0.18057304240135583,0.022778019793193882,0.06259499432524841,0.009677956305325834,-0.016693554333061772,-0.006836230904424292,-0.04144892722734574,-0.060320625959780765,0.041201795958734945,-0.027769133490829778,0.00660023337996141,-0.005907956899817093,-0.0024612029937006153,-0.0003209903612957009,-0.004633985742592587,0.0013866694045489999,0.0022261516691805803,0.0017939482116681026
"Wine:1032",-0.5743513776026515,-0.34755700817440444,-0.2382301451855989,0.0025209671309815622,-0.13276070647154284,-0.43897095643282297,0.08825383578936201,0.36743460828507113,0.013875188838624621,-0.09551202426405929,-0.05406139227762465,-0.20037291184702902,-0.14631199625497177,0.0993081336173198,-0.15345875475203216,0.021484340767609737,0.06132208501548541,0.00907359638846621,-0.01640275930246001,-0.006125977010087087,-0.040420405082719206,-0.15847589045425595,0.004969277252140229,-0.027290518739766175,0.00645841324914467,-0.005849893102997938,-0.0024205157357326808,-0.00025743554277152047,-0.00453534584919894,0.0013377994930077646,0.0022052348007350923,0.0017551071533500936
"Wine:1033",-0.5795123809923959,-0.3940732768130626,-0.17256273207344114,0.0025190864305970413,0.007795166999277339,-0.5215122307838397,0.015037466647884653,0.29059783295295427,-0.07361961817210534,-0.202538226067122,0.026279466972177895,-0.09829060225617373,0.04183564549544655,0.20185145481848646,-0.10139221991247703,0.022511241686712896,0.06265969303072548,0.009493154940192676,-0.016743704788404784,-0.006698536408623961,-0.04138966721046763,-0.060519536042132595,0.04135887858158694,-0.02757168290474438,0.006519911136243091,-0.005972290121314646,-0.002432424721119081,-0.00032139498010868753,-0.004641193210519852,0.0013865598102544526,0.002205967183287219,0.0017972792735874892
"Wine:1034",-0.5487204198653823,-0.38991794321970835,-0.14912507082366364,0.0023919760227325473,-0.11902409245376126,-0.5777047436336523,0.0156138396153059,0.23032257991635047,-0.03942329429070016,-0.14780436659831614,-0.08040539494215425,-0.09196555491586753,-0.16376959491555818,0.16364210640685029,-0.14185579637849144,0.02464142900460394,0.05850598072729537,0.008551876550963757,-0.015710273465708025,-0.006030203557492871,-0.03878104526574451,-0.05669972225833693,0.03861466178365831,-0.026073857915162625,0.006106526770507161,-0.00558901399166622,-0.002334491766762721,-0.0003569946940646239,-0.004392503612952414,0.0013102427326761787,0.0021322634156436234,0.0017058566359753325
"Wine:1035",-0.4803982494462651,-0.3986376273296055,-0.15524604329153258,0.0024711545765340737,-0.1498788135388247,-0.5188038630430465,0.2680270231978767,0.2617052980819393,-0.04648582682736724,-0.08968526977121467,-0.13768975489096624,-0.24927869425505328,-0.13597006121869237,0.0986996912602043,-0.15013899391884242,0.02211497871952052,0.06088508565432068,0.00907238887916819,-0.016362664102242564,-0.006507839272414874,-0.04039275137368975,-0.059034594732264405,0.04030654174798114,-0.027105114227832978,0.006390498017620246,-0.005805695709182449,-0.0024118876064299316,-0.00033548320394331116,-0.00453005407877397,0.0013475729904655516,0.002167221198769515,0.0017362775464882581
"Wine:1036",-0.530566276078014,-0.35506510860993956,-0.19495340698947322,0.002336969436382827,-0.016225228549171432,-0.4709829831405312,0.24867599619961148,0.28121913151735495,-0.18905588699539957,-0.18533991900746816,-0.04299176268217551,-0.09325912345699817,0.029316454506967234,0.29262563282442444,-0.11516913713268283,0.021356748237578778,0.05788752393318422,0.008962505416380115,-0.015505913729907887,-0.006550380838208676,-0.038316824389629786,-0.05615991058555503,0.03827961234895704,-0.025583639971304282,0.00604604003426302,-0.005538924027097041,-0.00223792977308852,-0.00035465094000105543,-0.004281582309282537,0.0012679452593192637,0.002069259725599007,0.0016458682964811129
"Wine:1037",-0.5617143911372642,-0.3855533812535163,-0.2566244492437893,0.002447704313638227,-0.10153721655873668,-0.4936993026562188,0.05427865999547405,0.31618684586558243,-0.07713679467745464,-0.19565506452898015,-0.04142217193621829,-0.1139455509936775,-0.04883107446282569,0.09598986168219342,-0.13202808833795052,0.05095824840826834,0.05962908985322878,0.008355715433216693,-0.015925889765272743,-0.10661105433063765,-0.039147029470265216,-0.05742897710561366,0.03942245451909239,-0.026489679825632793,0.006295900672664608,-0.0056282081501717995,-0.002342641952367258,-0.00030268954447802324,-0.00444000330685039,0.0013237529691146016,0.002124393962290425,0.001728997325781472
"Wine:1038",-0.5060673207293166,-0.39631274953459367,-0.16701479045999362,0.002667364529917217,-0.027016719797654618,-0.5088195081306789,0.03711797803633878,0.3933816035301923,-0.07619582921897823,-0.21280600778156292,-0.04521760674149597,-0.12114000751332407,-0.13211965389489846,0.13626275967204238,-0.010992265419894131,0.023498412990724048,0.06542227532603861,0.009446719623064903,-0.017602584495509156,-0.04613022620514473,-0.04309258617023057,-0.16480129626007536,0.04328340394474543,-0.029044091706905754,0.006891915486880154,-0.006279637800750177,-0.0025727598688970762,-0.00036013795912039965,-0.004873920266141177,0.0014328036293999983,0.0023388415579059948,0.0018802043068583648
"Wine:1039",-0.5054474084616863,-0.37165271738005573,-0.16421955421372095,0.0026156448471318125,-0.02952722353059923,-0.5410548398479146,-0.010932214266761863,0.36513426629330753,-0.06176337496353301,-0.20960821099615845,-0.04481310573304131,-0.14528171276776689,-0.04265757081004787,0.1039634710445768,-0.11091356699551769,0.09951752174817134,0.06425824337037428,0.009547522236483193,-0.01719836212585908,-0.08324906659578485,-0.042240911314754395,-0.12216886555338546,0.13256213390721508,-0.028593544811639077,0.006715429465974287,-0.0061185168718185905,-0.00249765644382213,-0.0003090632437836193,-0.004769053047423461,0.0014173196015868053,0.002287921060898709,0.001853431932530043
"Wine:1040",-0.5591777329391636,-0.3635095958841673,-0.22178210998400902,0.00276738536200712,-0.0028083958482647596,-0.45166123611310394,0.24470132670659406,0.25464994614121833,0.11261186445658578,-0.22112189355739775,0.005538385240750593,-0.10926345749621125,-0.05037816847782965,0.10990604113548465,-0.2269237055319163,0.024824829896852665,0.16444631927876954,0.010191560974788351,-0.018248452950336613,-0.007319877745818774,-0.04469150980996114,-0.06600209992589745,0.04522136563668634,-0.03024076055229146,0.007042650036012093,-0.006441048941194345,-0.002685658483348752,-0.00030568422736509954,-0.00499849546648314,0.001462046979229101,0.0024514597634895585,0.00197152263924877
"Wine:1041",-0.4740582689016252,-0.2926525724929237,-0.22669486826072316,0.0024541734630693637,-0.07684059005805094,-0.5246268371329962,0.2675142143758455,0.34507070579648175,0.06812839432446238,-0.10210529516166747,-0.042054563478607844,-0.13213898534424134,-0.21764618182910841,0.19479524417322344,-0.1503686149468712,0.021855123143795015,0.06048859605331173,0.009173493535560757,-0.016189384637296658,-0.006542216004504008,-0.04001891561883843,-0.05861316538375844,0.04001342686789695,-0.05121717445699441,0.10185513525924865,-0.005721158133700511,-0.002370379517879902,-0.0003146181163459806,-0.00446660678361662,0.0013155635363171496,0.0021728139663084226,0.001729131645049672
"Wine:1042",-0.4668146637142158,-0.3312808796585309,-0.22747504566497476,0.0023771352484323245,-0.13288795560102853,-0.5168824760958591,0.24673393907323743,0.3071910871301085,0.10325323952497648,-0.17173608754555766,-0.03206853847958113,-0.14608667756694424,-0.18644125239375117,0.09426876014362494,-0.18265998653657492,0.10095529207425244,0.058348218495166755,0.008527647480775787,-0.015673199077377485,-0.02940646719711723,-0.03868476842820502,-0.14976876304208367,0.03872524184764946,-0.02594040755687778,0.0060931065456230685,-0.005535847735333942,-0.002327035511290825,-0.00030371283829209387,-0.004320085289442308,0.0012711664255701809,0.0020680412415703914,0.0016704163839810985
"Wine:1043",-0.565068936657948,-0.39968019323557036,-0.15649461717942859,0.0024739062143740677,-0.036748469004423724,-0.4716495909423587,0.1014763377902859,0.20004425328101405,0.041957430776678295,-0.28880443283357987,-0.1374028830066491,-0.22963655590137325,-0.12245700633859713,0.006489097999994763,-0.19562942834110156,0.022265227850881062,0.061212730564184754,0.009072490230384388,-0.01635620396026387,-0.006571180023064909,-0.04049959077494411,-0.05923451471724701,0.04021615011340151,-0.027102075766601907,0.006378405090003371,-0.00586556673050593,-0.002394808840390169,-0.00037969229503719915,-0.004533181872967451,0.0013325532044828467,0.0021740434062086237,0.0017350615405703836
"Wine:1044",-0.589977809242661,-0.3300055369025709,-0.169614899269403,0.002685040874543767,-0.0053215689980533306,-0.43370249023474655,0.19065117768912174,0.35866317578178486,0.13251939223536216,-0.21452966832684295,-0.15055353184180587,-0.09540859622917762,-0.13243719485666397,0.05962355148972142,-0.17410161914008934,0.024048982550040673,0.06603498621451141,0.00999294136460919,-0.017767987853103278,-0.00721676761796377,-0.043817891350560405,-0.06442772785415568,0.04368704970770253,-0.029298582640988065,0.006875863044630595,-0.006250828100119568,-0.0025999645167425057,-0.00031290871393834657,-0.00493125100488004,0.001461946452557865,0.0023544866577206256,0.001892052329991545
"Wine:1045",-0.5385953257158849,-0.24568804343918993,-0.28520743940259335,0.002404448653386142,-0.11001749836965272,-0.4798591121976885,0.17110977864887883,0.3692689247286534,-0.18951886351725733,-0.1923726841270644,-0.07854991490617573,-0.12909347207562324,-0.1340501509421093,0.09534596729755597,-0.10306485012318849,0.020855892450390493,0.05938512314340618,0.008702478365095414,-0.015956610545789132,-0.006052464204809501,-0.03910831964087734,-0.057285159017642945,0.04435292357619674,-0.12467145154941998,0.0062029128734190885,-0.005649021715145803,-0.002308235683178063,-0.0003111119197861763,-0.004407958674002908,0.001288012508927711,0.0021475839263037514,0.0017041170667167953
"Wine:1046",-0.5294384153376226,-0.37173458065092146,-0.23252429713634526,0.002708647168758394,0.0006506790506490455,-0.46207381126164887,0.20446553582988974,0.34934484551581096,-0.08243788196946554,-0.21588118849664284,0.05780379324224066,-0.13370428817680519,-0.11451692038443484,0.10768024823794496,-0.11703315578055533,0.023310723484440004,0.06636361098777281,0.03698752467097163,-0.01778196244202423,-0.006564633068288545,-0.15285036297201113,-0.06387000712757256,0.04392816820684784,-0.029493968410026977,0.007022711804861065,-0.00623883559610939,-0.0026351171288610726,-0.0003530219199675777,-0.004927227714221378,0.0014451608641641302,0.0023876938435711953,0.0019212215540498057
"Wine:1047",-0.5089154430001566,-0.35245060661558275,-0.16043588301913947,0.0025709277421123488,-0.1353455178721033,-0.5810739424841065,0.101854747406697,0.25859813952581917,-0.05331723472364336,-0.20704339045812142,-0.04423683638373362,-0.11354324204900643,-0.1403293648709833,0.1284144980004324,-0.060504981983529244,0.022178445656983393,0.15752239551759195,0.00900176255068349,-0.017041175898688813,-0.006187589543555363,-0.041708271036641514,-0.08364334803043456,0.14854225484167102,-0.028096748709051378,0.006584247216509664,-0.005938916194723073,-0.0025244138568805497,-0.0003584311019043875,-0.004701912847280762,0.0013912305266769345,0.0022577757713013557,0.00182188667170797
"Wine:1048",-0.43971740264955333,-0.25263405250363646,-0.1622489618966932,0.0025775005039007613,-0.1560107614657671,-0.6118081053736615,0.1954283863353692,0.37126319970894284,0.023477993238191813,-0.10372212109781714,0.044333322376011126,-0.17492488424106215,-0.22181053358581515,0.13005794884825567,-0.07769315495487265,0.023358879886156047,0.06332155747380548,0.009889483820796246,-0.016989005199369012,-0.007125428123585724,-0.041912469899297984,-0.06160481302002154,0.041734931271134736,-0.05255318493883063,0.10329087047559317,-0.005994603414883282,-0.0024883467087092044,-0.0002686174014844227,-0.0046618555830470025,0.0013808891494392394,0.0022753251249365315,0.0018302781627071347
"Wine:1049",-0.42976325297778495,-0.40097977348856195,-0.25502325606362225,0.0026911070825170386,-0.002930574898005616,-0.639376158855296,0.1512774977582499,0.26587153042967915,0.026951655228469002,-0.21603389776212545,-0.04669721636336161,-0.12519181757654252,-0.0846901368069064,0.016113608751152673,-0.009086603067569277,0.0238509579254784,0.06611138340800012,0.009862204792021512,-0.017765895013573795,-0.007306308856520914,-0.043539462341025084,-0.06405382538581654,0.04397745978279407,-0.02928181790349423,0.006959117163865241,-0.006306030119098927,-0.002610195533950774,-0.00029493629311967944,-0.004912668142242118,0.0014578820609556762,0.002348502544545754,0.0019011775868521864
"Wine:1050",-0.5555629917574685,-0.2953818035548197,-0.2715904688388595,-0.044894030589014866,0.05766960732002362,-0.4844382492892297,0.18482683132855268,0.3100478440383049,0.10315318624781065,-0.19452888182654163,-0.041198084597268335,-0.09400895952445171,-0.13470855904923293,0.1957271306568776,-0.14373545001339177,0.04940552693852842,0.0594959093071412,0.008484075797232468,-0.015897041399312164,-0.10191571348436605,-0.03909345490166073,-0.05766629229441549,0.039438097465469765,-0.02620264732027006,0.006282183365776068,-0.005662774541438619,-0.002281574725978987,-0.000261819660865497,-0.004405050011099877,0.0013002769862506907,0.002132805523889283,0.0017273463556875957
"Wine:1051",-0.6006395142881042,-0.37180237811692357,-0.16654032588940432,0.0026354391667936625,-0.09054698479366466,-0.4358512460320081,0.10350047301132553,0.3324787291656334,-0.23161106504512,-0.13583755292360605,0.01731019622595347,-0.11940077250239509,-0.09774854733468107,0.10473701348446383,-0.1124380765210385,0.023947579507536225,0.06511420677984527,0.009644172875504991,-0.017420105218044504,-0.007186684906398676,-0.04287089051306302,-0.0627707440682617,0.14720997697680194,-0.0343392820051406,0.006782316810026031,-0.006182304046634474,-0.0025827741581851736,-0.00032692168156932445,-0.004805224632217994,0.0014345570037377425,0.002296306777482628,0.0018543382006679435
"Wine:1052",-0.492524762543828,-0.31103876255121193,-0.16329775983804887,0.002612346476352654,-0.15289877127393928,-0.5908998440935803,0.18724121657310056,0.31321746308548704,-0.01570374444226007,-0.1101324577899548,-0.01608662733075054,-0.1008193039869658,-0.02392166398257331,0.21185666802658043,-0.14575950144280797,0.022727138658858895,0.17170436016884366,-0.01000919389878813,-0.017149704210238998,-0.006530454853125176,-0.04220065008570565,-0.06196511080275801,0.042506553748267395,-0.02849200161432752,0.006629677168636534,-0.0060624010230526295,-0.002525742352774632,-0.0003137898812253666,-0.004789929493346703,0.0014206902146244756,0.0022572442591090327,0.001866374687113559
"Wine:1053",-0.5842180655698566,-0.41305010494938865,-0.16109435686129173,0.0025650177692890896,-0.06762519128769619,-0.49906344526746244,0.11509100330025113,0.17956341492498198,-0.0504639391386325,-0.19062443089513043,-0.1472821762620289,-0.15184697412419282,-0.09194201997581594,0.19352082476241794,-0.1432292411777571,0.022657639077594983,0.06286269669587922,0.009306830259463614,-0.016897384002984177,-0.00670765301115062,-0.041561688214704594,-0.0607935239369291,0.0417037392070135,-0.02794147105281769,0.006512470992584942,-0.006023508627319174,-0.0025022603284438447,-0.0003014605149628834,-0.004666024836129969,0.0013881535218364656,0.0022306570854296725,0.001806445177775012
"Wine:1054",-0.47448100704450413,-0.3745583055283782,-0.25499194805514425,0.0024840050039891324,-0.08039012807756099,-0.597869825314991,0.18733638509656633,0.23862957611906796,0.003840052474084904,-0.08137779922628113,0.03261949859217148,-0.1708528521998441,-0.13392610079728057,0.20085296231913186,-0.03047581876880235,0.02188654855710738,0.06119784100233173,0.07336154736018105,-0.016427123445851965,-0.006380486136952083,-0.04021895794441763,-0.059038182832451894,0.04036204646240399,-0.02716700136277093,0.006488098825899219,-0.005750019265422906,-0.0024195806252836185,-0.0003523007003967894,-0.004536070334226859,0.0013303554360762143,0.002182348895953665,0.001745877152336831
"Wine:1055",-0.5199879998645074,-0.2803977166762299,-0.2504187189646852,0.00261406351526241,-0.20986237433815622,-0.4970802935212845,0.08524060625144377,0.3710805806273827,-0.105052398237678,-0.2093410727683255,-0.04496669332294299,-0.1018220573419646,-0.13903444767319179,0.1042675813284904,-0.12480500723194135,0.023268503320792864,0.06462402769548257,0.07325785802658187,-0.017270920055145227,-0.0068185244098103795,-0.12842925286793871,-0.0870218230927524,-0.06093889179205517,-0.028547011089085608,0.006709272676392527,-0.006128353714741496,-0.002578853630156005,-0.00038782101755948674,-0.004780853926973629,0.0014150835074368247,0.0022881542441224967,0.001849625553067423
"Wine:1056",-0.4598744520869541,-0.2941641488698434,-0.16776763227677216,0.0025714014273773103,-0.042268780533516646,-0.6300398494120948,-0.005643391126377283,0.41646372116343694,0.12772377089428044,-0.20554424305338193,-0.04425046129150216,-0.10563872667375056,-0.0579921995684948,0.03630808026461498,-0.10963493247077719,0.023332781056083985,0.0634424317261607,0.00969914721086323,-0.01700841173955024,-0.0070906211966137,-0.04197970895648139,-0.061658600719547964,0.04192530873884685,-0.028206597386079113,0.0065893396241928255,-0.006044636393238959,-0.002508932220359397,-0.00036176143853462847,-0.004682913047462398,0.0013628892707713341,0.0022598517184627505,0.0018117367214426218
"Wine:1057",-0.5928946718336403,-0.4193438250780997,-0.16394107060751165,0.0025881750456583125,-0.031209936218122476,-0.4540803944168388,-0.04383456470824714,0.30594160002794113,-0.04093062747044603,-0.20400397320420485,0.0594685037616497,-0.19096496076928765,-0.03775784040391329,0.10294346803416776,-0.18534105109226984,0.023211485116308925,0.06395803716077433,0.00973904110306491,-0.017066930530063463,-0.006948267877632929,-0.042160267416798736,-0.06186066522296809,0.04239257785078658,-0.028291648264076735,0.006690496712215159,-0.006103686175749958,-0.002512813184179179,-0.00038413760439761003,-0.004749463295617237,0.0014226323267264175,0.00227488763760764,0.0018154635767052075
"Wine:1058",-0.5358369381325658,-0.3288473712523871,-0.16187119410673445,0.002599074612987832,-0.0018714785440626179,-0.6199270544717208,0.06776033165368862,0.24263719432102118,-0.07737918518950695,-0.20641776962958744,-0.044259319097666575,-0.16639280930505224,0.0433991954025099,0.03802901165363894,-0.11194332965247879,0.022496236476185278,0.06354835811455326,0.009487343142615175,-0.01700420082090441,-0.006725314189653598,-0.14157336667797502,-0.09472143262091105,0.041924954559730505,-0.028074040428807814,0.006658579935570381,-0.0060490027178729455,-0.002451308341409478,-0.00037317430031297706,-0.004704423308794713,0.0013854821310301975,0.002283996124411561,0.0018173996129489556
"Wine:1059",-0.565053959815899,-0.3660661191625774,-0.15419527054995424,0.0024658996138021893,-0.07233641653013739,-0.5192849195603599,0.23954303621116368,0.2491851340358267,-0.18761564296058364,-0.19719244084958718,-0.045271612861427335,-0.10020964163340165,-0.03491901697793132,0.05839540782396512,-0.12698489452632405,0.10044085220350246,0.06073269467272318,0.008895055882307552,-0.016301307460401256,-0.006419720128493411,-0.03997226572523441,-0.05855739373374476,0.04004131075401817,-0.027027321298349775,0.006396184782349593,-0.005796528731888727,-0.0023748495045319176,-0.0003080004600824925,-0.004487858324228954,0.001304206030491709,0.0022035318836893954,0.0017325944230380558
"Wine:1060",-0.596061989360913,-0.31852067123930816,-0.1782416458652161,0.002601685685282774,0.12237670402494931,-0.4931020207728713,0.05986477072997108,0.3548074946397842,-0.10524612986905256,-0.20827279784592911,-0.04458164870382978,-0.12129530609837398,-0.04137814396584323,0.1036396515559562,-0.11185226444964527,0.02303914453886679,0.06440579785374839,0.11311672359218337,-0.017211360641234272,-0.006895358764235223,-0.057411994946224905,-0.06248795548053178,0.04250322504771139,-0.028521032682850812,0.006682227004283806,-0.006140316523573628,-0.002525575110036446,-0.0003611813463161323,-0.0047746791059682875,0.00139754648741607,0.0023225128973175437,0.001855377324377453
"Wine:1061",-0.4871432774710577,-0.3805408847965405,-0.20098828903786176,0.002550397579064463,-0.01647606685209737,-0.5099693342442592,0.07872397196191147,0.41358127531752453,-0.0006664521396116159,-0.2045743506146522,-0.04376117002494596,-0.14023753334883526,-0.14393379236115153,0.03601647768853009,-0.10873431776671341,0.10297142677318236,0.06282244876940825,0.009276132000694281,-0.016886773365991193,-0.006821207164873976,-0.04146069024193878,-0.060802908203113196,0.14497039447316423,-0.033226873018944274,0.006583287939723528,-0.005900129989653227,-0.002489950322039622,-0.0003301637613598976,-0.00463749823519171,0.0013808094257283124,0.002252543108641704,0.0018095275977778095
"Wine:1062",-0.4929575019793214,-0.1887790474842068,-0.2470071275008957,0.0025216769464579936,-0.14597972599576686,-0.5137301241112765,0.25835598153068956,0.4196643873231518,-0.07263407978774152,-0.2004222859442613,-0.13708634231673616,-0.004671847462895009,-0.13361530148752068,0.15097445914754368,-0.029566661381593,0.1064541300361306,0.06213349245355499,0.009534661680295606,-0.016689955668156724,-0.054900795274084514,-0.0410958861121323,-0.06036864406260364,0.040980811518085206,-0.02755855753159769,0.0064253699198550136,-0.005926329330134378,-0.002411380319902029,-0.00028641721788575096,-0.004582902553499114,0.0013741098853434393,0.0022011948522436906,0.0017728288507279223
"Wine:1063",-0.5816942290151397,-0.41320311819089567,-0.167661616362718,0.0025487198388779372,-0.09072150073612206,-0.4975788865229808,0.06589781360923273,0.2599019780871781,0.028308712242239666,-0.22660847217693122,-0.043150405415450184,-0.20331403336014314,-0.041001204951152816,-0.00362985130735231,-0.15589745719752188,0.03924357600795792,0.062389170085913444,0.0091346311665186,-0.016587757200510752,-0.00639156300133895,-0.041012377720222856,-0.060172320225647946,0.041247944696965785,-0.02775112465016998,0.006524678705986355,-0.0059554844820731805,-0.002466449330125886,-0.00027647239868626927,-0.004610359405135627,0.0013728662538739095,0.002249545286239887,0.001792008259495318
"Wine:1064",-0.5538198022197925,-0.35972880054086287,-0.170930584455704,0.0027344308445069435,-0.1108504527637393,-0.545695860257191,0.14853475773778993,0.16077620709774385,0.0934319589568543,-0.21912271275134515,-0.04859217728930724,-0.17612753225229835,-0.032634861726806186,0.18478108495467535,-0.1911779901269509,0.023898974053973256,0.06725615058283764,0.009808734098775702,-0.018064084052198812,-0.007091610257776861,-0.04441854538475127,-0.06507836859705521,0.04455391364200927,-0.02985908860334538,0.007018540362150841,-0.0063883010423395805,-0.002614538154660143,-0.00037251096324925846,-0.005016850645519871,0.001483411505494545,0.002425412729706781,0.0019312236021746434
"Wine:1065",-0.506663270471993,-0.3967634584000645,-0.16878757329964164,0.002658348903028469,-0.088900936967805,-0.49415242617404187,-0.08126822226246892,0.36385723985680984,0.01164788827690592,-0.21077871895239558,-0.04603954372796498,-0.1400929530351393,-0.14405039407909104,0.1017481758043639,-0.112811114387068,0.127063333465566,0.06565274051544794,0.009973585808271583,-0.017632013715042236,-0.007236462321919299,-0.043608843701612755,-0.1519122393995123,0.09633405644346035,-0.0290813019230758,0.006777467143105675,-0.006262838727191279,-0.0025445946082216816,-0.0003504529357927596,-0.004861333083218369,0.0014445768667566182,0.0023394316039042425,0.001874557954049698
"Wine:1066",-0.5489862927587554,-0.3103527090224047,-0.1570209075387502,0.002524797309547347,-0.10708727790749067,-0.5647653661045217,0.07225198409791121,0.3004718939492985,0.027817489322813412,-0.20270063156290852,-0.04270222240341747,-0.12542651766471402,-0.13866504536044116,0.10015989951804213,-0.10512198102788314,0.05163259538734198,0.06186285755728707,0.009117708711011464,-0.016561708564581154,-0.10846164502909778,-0.040540959326249765,-0.1187331313908325,0.12942773219251613,-0.027428500346067752,0.006543225045720345,-0.005965302007015572,-0.002416610369307938,-0.00028720267877147573,-0.004599462653752594,0.0013684191611911354,0.0022166973623179995,0.0017818693849172298
"Wine:1067",-0.6091904422005958,-0.34943095246805245,-0.16445462220837195,0.002647279077325135,-0.08619672735099508,-0.5587961505787422,0.06893407028163633,0.2747989274407242,-0.04568838904342651,-0.21231756058169096,-0.04455394225848432,-0.10588580819931344,-0.057425543654499825,0.02975700555952282,-0.005280950852166231,0.02233098248943029,0.06486631196196645,0.041205313868433006,-0.01734767051267042,-0.0062072168112621735,-0.042500731631174564,-0.06207575526053513,0.04308778608708524,-0.028712741334061345,0.00681459807992376,-0.006126984339486464,-0.0025666016795636098,-0.00033099828626090093,-0.0048015000144693235,0.0014335499056746838,0.0023500867667427877,0.0018868551354924907
"Wine:1068",-0.5128711355262884,-0.36491768689273923,-0.1748311235401524,0.0022327713932958136,-0.004017974762719653,-0.5401360725533985,0.22358282331873278,0.24799375364507636,-0.07829237607488936,-0.18473983833580526,-0.12497862190288817,-0.14417850905103596,-0.00021384952121325244,0.21808126552301596,-0.13432404449317617,0.018765533563684537,0.054666980917833854,0.008041548611075975,-0.014635399006319395,-0.005308445600634135,-0.03587683370258013,-0.14693801617117108,0.022368506075869612,-0.024330419686922705,0.005637905396371718,-0.005225046751422642,-0.002156745492983243,-0.00022704688225802026,-0.004076527816755613,0.001198387893821589,0.001956112833030966,0.0015661773535604086
"Wine:1069",-0.5990253819368878,-0.3179634481674138,-0.26951529182737843,0.002612672456242937,-0.14318799570789534,-0.5150777092054204,-0.0023856034531340767,0.25284774958567163,0.07760870986013246,-0.20856059801859086,-0.03601588450678782,-0.15997482498912186,-0.033057873557894274,0.10430435682228378,-0.12548127743611345,0.022969930295337965,0.06445001965874138,0.009390706950583473,-0.017255518833095115,-0.006729041837463704,-0.042711671155584614,-0.06226926991472711,0.04245943368667814,-0.02845015210959425,0.006711209992138915,-0.006135239138317954,-0.002565091060277577,-0.0003534481167854381,-0.004762273772816925,0.0014188605906999537,0.0023161924519143145,0.0018575548782876726
"Wine:1070",-0.4683146681318876,-0.19838620000751314,-0.15798982297044092,0.0024925916051902358,-0.15178407091478124,-0.5980003516189882,0.27050687866019807,0.3925263478401656,0.03506625507927352,-0.14637185140434605,-0.04494652422143547,-0.13080020099337425,0.03488228861492164,0.03526943551228001,-0.22729696655092452,0.02275068192182361,0.0617058887248823,0.009330341146519818,-0.016585090938676772,-0.006886297812983079,-0.040905583471838126,-0.06009819297466359,0.04087479014892415,-0.02743451936653974,0.00646818094847041,-0.005856492693080953,-0.002414722108594757,-0.00029745682520938296,-0.0045583431913129415,0.0013420299635307606,0.002196067856986284,0.001740148896701318
"Wine:1071",-0.49482595247500066,-0.3534693151239586,-0.2410687894473266,0.0025202247025202834,-0.03661687907962541,-0.5349130978229568,0.17881618996518445,0.32826342598180613,0.03901510030162273,-0.2037037501152675,-0.13239275218714533,-0.16208888352048,-0.04207915749860147,0.14293670768453368,-0.10955670792903979,0.02193778584503984,0.0620708988797462,0.008969961509071839,-0.016566732606285127,-0.00640158732805784,-0.040858845571021866,-0.05973687021238427,0.04075538339187571,-0.027401131234184764,0.006506338878526237,-0.03967362489417361,0.09915674972591046,-0.00028271439088124907,-0.004579362907128237,0.0013440609667448899,0.0022150496743337093,0.0017702691233402411
"Wine:1072",-0.5471332195750243,-0.34675763321658926,-0.1510376239440217,0.002386051484751061,-0.15204661120432714,-0.5650758287458403,-0.033129130991461336,0.24518259403578715,-0.06198700685172263,-0.19119897601621963,-0.04131504779726895,-0.1850467516916614,-0.12570449006919107,0.09488628735617052,-0.10187061567571316,0.021272459180401125,0.059106230065537085,0.10411474193322608,-0.01572607366952232,-0.0062740851795817345,-0.0527023375374452,-0.15213475448494215,0.025091045168088525,-0.026190550520276867,0.0061593511745473084,-0.005662479508731613,-0.0023019104711386046,-0.0002810958036843632,-0.004375401733422969,0.001276628597727856,0.0021095456174507156,0.0016892671784257789
"Wine:1073",-0.5300707082455748,-0.3757623093208106,-0.14470135629406877,0.0023170401644986845,0.02258708620388096,-0.5570551837551231,0.15816978084777708,0.20736795579468023,-0.05036380871267686,-0.2811554350464929,-0.11409283686289536,-0.20066474901131257,-0.03888733101836855,0.10279581645165094,-0.14335640006956102,0.020275994499392085,0.056878396247771336,0.008368433145716711,-0.015192114282417627,-0.006151731115317943,-0.037475927717095,-0.05495176843559235,0.0375558764792331,-0.025110831274756346,0.005932064512290382,-0.005363153523139401,-0.0022603663359055106,-0.0003148215833613545,-0.004215840888458923,0.0012240255483391225,0.0020481234367093985,0.0016420961333853334
"Wine:1074",-0.5432768694565027,-0.36407785587392366,-0.14983348310770503,0.00237805878442414,-0.0018392696324840993,-0.5086243202906282,0.15753341885304678,0.327322820148758,-0.09078555300495351,-0.18957801113828832,-0.06987685302268819,-0.2442786181460387,0.12292931397513766,0.09457468710593994,-0.12322008643437521,0.021253843956126155,0.058542189394166666,0.008758149454120295,-0.015746319163863407,-0.006257437090035454,-0.038685990984565675,-0.05661243005786348,0.0385907365422597,-0.025921698905512904,0.0061069718939455835,-0.005552279002524091,-0.0023009980055818144,-0.00025014775304272924,-0.004355006146032289,0.0012758321899464405,0.0021261324211275918,0.001685000676487409
"Wine:1075",-0.500936308419623,-0.3266762723827523,-0.22304266789316046,0.00263361694059033,-0.19035294204600423,-0.5408519426194839,-0.006484283170327579,0.34869520098691975,0.11330627561515522,-0.21041579658589732,-0.045013826016793664,-0.16101531036184033,-0.12544005235047342,0.1046710175850732,-0.12964246049405836,0.02338053433208029,0.06463713709559939,0.009410387055378373,-0.017248389588166668,-0.0069713962549482296,-0.04268830178337332,-0.06240354783836457,0.04267051171144417,-0.02864558690460449,0.0067204284381327875,-0.006234366254864647,-0.0025108962998365053,-0.00032019836531377695,-0.004794375521781289,0.0014207521833215064,0.002310799416158991,0.0018503250509591478
"Wine:1076",-0.5241324538027498,-0.30335352900061313,-0.16143726138696216,0.0024291731971039037,-0.19728662498147612,-0.48421692191228294,0.16821253737996827,0.3935346472033586,0.10453894458701339,-0.18463157102011182,-0.0434492109895756,-0.14980206485319195,-0.10333922580527498,0.004274550475518386,-0.24259642365732573,0.021758377431864744,0.05987517045425856,0.00883848388094338,-0.016085892280384012,-0.006477534320845894,-0.03956675838212336,-0.05796237788356608,0.03957605936649156,-0.02665297841878268,0.006244474701795046,-0.005686282503859986,-0.002357565398471603,-0.00028494881809527906,-0.004430603484755202,0.001312304537046304,0.0021408585156156962,0.0017024839954646884
"Wine:1077",-0.45362392274210717,-0.24338688056687205,-0.2693761737587554,0.002491949734919792,-0.1906034281394338,-0.5704243639761173,0.24657213190348087,0.32350903020490146,0.023135506054645826,-0.19861923364456818,-0.13772677637433978,-0.12988393915288693,0.05573872703996409,0.07657159371566609,-0.15553702525141944,0.12021216620735574,0.06142350025782476,0.00923660233272013,-0.016350688526028875,-0.001815916979360301,-0.04080439196911799,-0.059329095587122925,0.040581875911854096,-0.027221820626181083,0.006412517502396255,-0.005834338106603255,-0.002395960745947886,-0.0003211659452212654,-0.004523518143744585,0.001368412884192631,0.0021606653951795093,0.0017699645414593476
"Wine:1078",-0.4601733096979331,-0.2610383725256802,-0.15328026504730868,0.0024543200529460203,-0.09862969825392313,-0.5868074840503257,0.1655875428206655,0.4149721717123351,0.025984845229324063,-0.09757648217202382,-0.0418363110587418,-0.18437111829502212,-0.18761886313088016,0.09752478884174733,-0.158871260482119,0.021646129510388516,0.06023219146993282,0.008876287240136675,-0.016136545162700976,-0.006475330084790781,-0.03976287186760825,-0.058566845425121423,0.039809351222676696,-0.12387935847894223,0.02298473661478176,-0.005677029994915974,-0.002375456891457037,-0.00031617657250163257,-0.004463499886710882,0.0013367497429715486,0.0021665025407772314,0.0017294450768551538
"Wine:1079",-0.49047203547880625,-0.3823527688533248,-0.16452904656400166,0.0025720494774707572,0.24018983726493695,-0.46511263277721915,0.18921157443763123,0.3727466175522519,-0.006692996153709136,-0.20358842214548298,-0.044753238426331596,-0.10541945812690867,-0.012829172104672453,0.1884951144787591,-0.11133257853156026,0.023436361388677506,0.15952439079603914,-0.00772029048643092,-0.01712233944879115,-0.007297421891898685,-0.042343231221774164,-0.06190043096494165,0.04198422257908706,-0.028222786089788766,0.006614256761318767,-0.006055808539586464,-0.002480402206885501,-0.00035269094437924637,-0.00468589842145359,0.0013912650242079527,0.0022514072852890974,0.0018020895236104217
"Wine:1080",-0.5565581530145073,-0.32911624111658905,-0.1547820095347838,0.0024431863351876554,0.0752943848859726,-0.5034125043418572,0.13328702840266177,0.35673964941838726,-0.03266420106503628,-0.09973139230133377,-0.04208724189049515,-0.09716204975008867,-0.19537658228282162,0.2586236318674696,-0.12067233931208099,0.02226866379701121,0.060338487232204405,0.009303135120250612,-0.01617175071801868,-0.006612531636206784,-0.040148510365647115,-0.0585945447638682,0.03987998588925908,-0.026879144030016452,0.006309628864711721,-0.005787138774712498,-0.0023677870309051045,-0.0003150830797001284,-0.004472375213298889,0.0013087503823048252,0.002178734767224219,0.0017182414362970425
"Wine:1081",-0.40903814427893725,-0.219196927610417,-0.25262356884264753,0.002532819624573588,-0.13488966009194872,-0.6037309412039221,0.20430427815039345,0.3549542106322873,-0.058935493472464524,-0.2022462847365211,-0.04689976792560659,-0.1975065184748788,-0.20865948665157363,0.10028067183951624,-0.06034324538990972,0.11910088017972731,0.06217455071579539,0.009191937890563563,-0.016717212597715605,-0.03523574103796394,-0.04106485103871933,-0.06048977280906245,0.041117565476704684,-0.027699410703194056,0.006518185177232678,-0.005961200921392814,-0.0024194083592484245,-0.000291380766121553,-0.004621067083699583,0.001349468999149325,0.002221604924776165,0.0017965094362882962
"Wine:1082",-0.540594042361062,-0.38221089538559333,-0.18503713086132156,0.002370091389536881,0.045084162738168225,-0.4846465683480662,0.20387638773419842,0.302194498288622,-0.1833798985869718,-0.18899178208094738,-0.13254493996090919,-0.1861800046284515,-0.1253444504458838,0.09434292595944314,-0.015535455116263018,0.020966166439224467,0.058572193728836215,0.008548228109295635,-0.01570171015165781,-0.006418442377823845,-0.03858464941279302,-0.05675050577601792,0.03853526882579236,-0.025884447906925637,0.006110764059355404,-0.005519255194592585,-0.002294607642362321,-0.0003333194780675405,-0.0043339395747618034,0.001282820330133809,0.0020782565433737563,0.001669520308237326
"Wine:1083",-0.46845583633650434,-0.3669536761175706,-0.2537970870939346,0.002442671370891533,-0.0994058611890975,-0.5861374043117314,0.10025723495659164,0.24736420161719383,0.08523589448815384,-0.0974315607247771,-0.04195411239682163,-0.1378528188604772,-0.10756569126149151,0.29527675450313756,-0.09313516599557303,0.02170743028247955,0.060249975907394164,0.008914073583390605,-0.01623012878357159,-0.0064856397342612235,-0.03957640044125792,-0.05805256521817084,0.03994535177668663,-0.026757729444357743,0.006236135360998864,-0.005749465672872462,-0.0023767691081337567,-0.00030446049494594127,-0.004500609755161754,0.0013276744595011112,0.0021522151160056693,0.0017304951943039664
"Wine:1084",-0.49826204586574746,-0.22776511297289265,-0.22257894593065727,0.0024653121015653237,-0.19456374743779967,-0.4942704123912421,0.26745824877747476,0.4048799945439452,-0.043833778864376935,-0.19669977643039685,-0.04234911164340308,-0.10263340575302375,-0.13172785031346687,0.0016726213679863673,-0.17025439299638126,0.022090743052229304,0.15820310411829802,0.00663974207919299,-0.016261640338673517,-0.006462174936088135,-0.04010846419331374,-0.058943281229956256,0.040370629802306435,-0.026850528361440276,0.006383273990742595,-0.005761153659625088,-0.002377604996108312,-0.0003150531728853727,-0.004500228864770485,0.0013347844224135084,0.00216112924389874,0.0017365087705945993
"Wine:1085",-0.5286137787353296,-0.3769655133719106,-0.17913809878928738,0.002288736196751999,0.019766901666170834,-0.5548568677119824,0.16281035307365524,0.297497079679953,0.02686784627448242,-0.20013481583082268,-0.03991444797449274,-0.125116520084312,-0.015081143995991003,0.19263229959894473,-0.13253440510803102,0.019266352127466687,0.056135118802022155,0.007884297786360392,-0.014969212870253847,-0.0055631478427600215,-0.03666039999428939,-0.05388740487557325,0.037159893856335474,-0.024852203153762565,0.005771152586302667,-0.0051962920378477275,-0.002275393926397985,-0.0002593467699472698,-0.004173378575755232,0.0012478113222382584,0.0020070550224887854,0.0016192288993422065
"Wine:1086",-0.4973687573515478,-0.40246019179860304,-0.17320772721157654,0.002778634266323368,-0.19323039838626366,-0.5593311577028067,0.010970613024270267,0.2834861866926545,-0.06584124965819847,-0.22190859747930908,-0.04717466475923837,-0.12039837257962399,-0.09364175434440972,0.11837630218119781,-0.1181931895719305,0.09091679353096545,0.0683458397065141,0.009926772110561411,-0.01838929608439107,-0.007003902089237647,-0.045169737441127886,-0.06595889235417467,0.045199482271593254,-0.03035596395161046,0.007154435501448302,-0.0064557831601430435,-0.0026855452843989676,-0.00030448860880392275,-0.005088327099710108,0.0014866443057084818,0.0024555271743537657,0.001966319647600941
"Wine:1087",-0.5203411920141394,-0.3286219369322795,-0.1619517747045455,0.0025352180962583373,-0.001015979526200302,-0.5620909061080752,0.1763865632493007,0.3195017009474588,-0.034008382329287094,-0.20266692334151024,-0.1036159685871895,-0.12092786837715713,-0.05475515018564297,0.005982804411464509,-0.11000038382355642,0.16054719867007095,0.06256100306780776,0.009479410709228439,-0.016809041562221374,-0.006555913819140962,-0.08137258827306129,-0.15434506785842608,0.04147861338615376,-0.027716856878387052,0.006542941480265991,-0.0059295507587190524,-0.002449502147116879,-0.00024512984040827543,-0.004630547146486286,0.001359876434882879,0.0022354476728486806,0.0017972510662162705
"Wine:1088",-0.5710191607223559,-0.3633366495323856,-0.15549903717304153,0.0024920578613578204,-0.10547922763684899,-0.49766220243074993,0.17291119694190354,0.2891100438545683,0.028702554910221192,-0.19974855583597326,-0.04281054858664483,-0.10684875021632663,-0.12502967972771148,0.0014217341314414034,-0.20424241504161617,0.02162792826576178,0.16023633348457167,0.00890658356701707,-0.016318645162778676,-0.006331508755044667,-0.04029340875631621,-0.05906796240003303,0.04050158926596694,-0.027268921074478085,0.006501072317720275,-0.005843611870715824,-0.0024435844363621946,-0.00030783825941136414,-0.004574562616323777,0.00134328777091407,0.002200313733532775,0.0017622685919882718
"Wine:1089",-0.4964758384984027,-0.3518815369860102,-0.17102280324186095,0.00256815156976396,-0.20663730576528283,-0.5145419176042106,0.2707141244345322,0.3175150602229792,-0.011546471892456828,-0.20649285749748333,-0.04450191332241774,-0.1296989055031208,-0.035426907010411325,0.0962851335569104,-0.11216873170639947,0.022961439187821963,0.0634048139840299,0.009601026206578269,-0.017005145202379366,-0.006675497740841353,-0.041994255937335745,-0.06143718205015906,0.11525616598548252,-0.10140888281261455,0.006646071976178569,-0.006052017261601962,-0.0024893691845814686,-0.00029956975055415053,-0.00471852546080991,0.0013675714365609369,0.0022939675806057653,0.001807911406289451
"Wine:1090",-0.5396279322328079,-0.35625007746776893,-0.14641309601994862,0.0023585655124031845,-0.09369731022625595,-0.5667011101482494,0.11552290385469577,0.20639930358919634,-0.04521293515403711,-0.18495433038798487,0.05914261913107159,-0.22530371870108257,-0.1265394347340093,0.1841349430082107,-0.15261680873388364,0.020143344724420715,0.057790279264740875,0.008316419740311609,-0.015403585335800869,-0.006148950808942745,-0.03788146884386203,-0.055643010958298704,0.038265743076011875,-0.025760036469240265,0.006068835168626249,-0.00547982293458682,-0.002332873753154262,-0.0002865509345024836,-0.004259791719818928,0.0012579793337162309,0.0020842614275952106,0.0016673065953320874
"Wine:1091",-0.5616292670309273,-0.397586560631423,-0.15684063365124098,0.002463709809471074,0.08119335654826881,-0.5078005916514083,0.1453736731883626,0.2760868743595874,-0.07932314772657285,-0.2510666451566437,-0.03396706924840682,-0.09674340617403013,0.054557425907788344,0.20850695369946995,-0.042389844407738304,0.021668110029243404,0.06058749885875579,0.00923019184160453,-0.016155619997695124,-0.006462741675472982,-0.040053867707533775,-0.05856414675141109,0.04004034332857129,-0.026810857655331276,0.006281519527886443,-0.005802947742328148,-0.0023837988268686624,-0.00031696174887747044,-0.004479828692958358,0.0013310965598711832,0.0021616760458271988,0.0017514363886873597
"Wine:1092",-0.5898812912622674,-0.41837555178397345,-0.17419315333101976,0.0025871802244305255,0.0017988736935825866,-0.4415129980036687,0.08823174288277756,0.30964660184799603,-0.14126072098085324,-0.19708626320103997,-0.028472853472321435,-0.09859185577789459,-0.09882262837123851,0.2093871498670745,-0.1103170719826594,0.021964134338451718,0.06312631013053459,0.009301662005098521,-0.016808201875347487,-0.006440341845594322,-0.0413455328087539,-0.0609928030102293,0.04170164782378066,-0.0278904030766492,0.006545344952653144,-0.005975975368213522,-0.0025238111362277872,-0.000294320220575771,-0.00469362068408957,0.001396316838694254,0.0022641548843044925,0.0018267724911347212
"Wine:1093",-0.5346525043650922,-0.37793249438121324,-0.15574286622611047,0.0023534211106744415,-0.09437221132616322,-0.4685112230281662,0.2502723116077737,0.20986081913355348,-0.09665306709513222,-0.17516361603561245,-0.07569854332560916,-0.22854472146532534,-0.20273111019546772,0.17855639576121046,-0.17331966994579334,0.021391028502386302,0.057689467036482235,0.008738234413087284,-0.015406584090051684,-0.006375464052259239,-0.03806833229386929,-0.056074929414507244,0.03829057474323205,-0.025667277518185563,0.006002846292639888,-0.005465730727461639,-0.0022767796125780313,-0.00028782882217599846,-0.004286934243857986,0.001264243139663818,0.0020452671627466125,0.001639585305318233
"Wine:1094",-0.44708562578149724,-0.252752186947576,-0.15271654975066717,0.0024148855077026424,-0.06989049057958704,-0.5773832175713914,0.26383877656392496,0.3460519765140934,-0.13585973739404353,-0.1925377785698796,-0.09890301911297451,-0.19105502643492966,-0.12719339964641446,0.0956570162480988,-0.10410908019768504,0.10646937928660997,0.059205387973581526,0.008777799018467895,-0.01584914612630502,-0.05491035063490506,-0.03917685473107235,-0.1536722159658298,0.05633865209141424,-0.026303298675511,0.006163785106489202,-0.005607455056117842,-0.002412189168116463,-0.00027347021085969195,-0.004391658123421219,0.0013088985757386783,0.0021333284987742813,0.0016985489805388077
"Wine:1095",-0.5614534230514034,-0.3425491250262193,-0.15180261880127285,0.0024460617008009856,-0.008425092142622256,-0.5726386206971124,0.2146461707647711,0.21769516928732802,0.019470971683977722,-0.1960153438243157,-0.017631103964158654,-0.2045029355589125,0.06792391789654213,0.09668380410181697,-0.1280142340520587,0.02043422104161964,0.05982638377579972,0.008567590013850863,-0.01608071887317812,-0.0058605305797159515,-0.039435615607392685,-0.05771950460654205,0.03979509164131289,-0.02659524921893705,0.006287235531183698,-0.005667636758169196,-0.0024086819290740527,-0.000270278550453347,-0.004452241742362154,0.0013248324567139735,0.0021607124883469184,0.0017214336800428513
"Wine:1096",-0.5022998974214461,-0.3962630139421307,-0.27221659389370834,0.0026506730673369855,-0.007207769755300424,-0.45144190352847596,0.15847601892012672,0.32990076156331394,-0.23819560094099476,-0.1841994844632018,-0.045048935184068786,-0.13804200253155438,-0.09591572171344002,0.10514615531872468,-0.11300562623048031,0.023672060162757403,0.06555405029240316,0.07284219277427714,-0.01756603765008762,-0.006869722412318505,-0.1291381579703738,-0.06301698323728636,0.0430463150106184,-0.0289272951103234,0.006804712980373655,-0.006238029285527668,-0.0025656093113245364,-0.0003416985325698773,-0.004846974308507311,0.0014298219225685551,0.0023054664011094616,0.0018532455361918655
"Wine:1097",-0.5230187948658309,-0.32353166640698466,-0.2242025470941284,0.00228160397666903,-0.07981763533061037,-0.504117034711218,-0.014518597972139518,0.38590257425779717,-0.11142805623728075,-0.16517485414856806,0.03164723384405909,-0.10205566255268027,-0.21141307252365837,0.1692545128726831,-0.16399671642648286,0.020433909122236207,0.056640678820799976,0.008613146581724294,-0.015174592682266872,-0.006328801664648252,-0.03745858905656949,-0.05499862003704924,0.037399035218258665,-0.025012631562477194,0.005872173788114113,-0.005406266321263265,-0.0022135234733663967,-0.00027671427468888796,-0.004173621535795392,0.001226040368847635,0.0020192247172960602,0.0016179803267160385
"Wine:1098",-0.5479971662620724,-0.38888811166847237,-0.15035536864138024,0.002390598286819053,0.03581665677497683,-0.5104262989680669,0.09176504072552079,0.3072048583598631,-0.042518822690378474,-0.25896411924115104,0.0019383912652324853,-0.18975315921918273,-0.055828871707331126,0.15735823488797424,-0.13113758229315955,0.020983565794383242,0.058762622413704155,0.008729079209741806,-0.015711592132337613,-0.005988310659314167,-0.038824320854674285,-0.05681173532331705,0.03888770355287103,-0.026102495872367827,0.006141021320089705,-0.005615687434632206,-0.002319769424633655,-0.00026395893022430444,-0.004361080651929193,0.0012879059909224396,0.002099351426232546,0.0016825431454053565
"Wine:1099",-0.51867424836569,-0.38603174655363803,-0.16881037260029097,0.0026862434088621213,-0.16333684373256752,-0.5492570351410312,0.01614885966901632,0.27153510627649335,-0.0754903375776192,-0.19382022370519414,0.06139547116837258,-0.11650856714430713,-0.12752048215844963,0.2158543270104801,-0.11508718953328625,0.023705105082534445,0.06642180244057583,0.009751702731588641,-0.01773189578167105,-0.007075155885427517,-0.043539901217654144,-0.06423881324028775,0.04406601548316107,-0.02936637783560079,0.006918588897079199,-0.006245934651206378,-0.002642518248114137,-0.000355822897396616,-0.0049319421928850195,0.001485424636701511,0.0023686031289122896,0.0019132189046032425
"Wine:1100",-0.5868748746444474,-0.4153084425616348,-0.16218073484627066,0.002555407181412642,-0.006085159418023623,-0.4951075448456284,0.14166487029167707,0.16908702136346618,-0.17317009558987229,-0.2192857779223894,0.0270481105037184,-0.20182339111887893,0.02118856789663577,0.10194257474392819,-0.13945703043257587,0.02279897442841672,0.063402019478803,0.009329019337208028,-0.016950344731520732,-0.006957320704316759,-0.04185019745011322,-0.061268946309149606,0.04192507961080036,-0.028077343658905154,0.006589522172836324,-0.005996460995479194,-0.0025087823268960907,-0.000318643584842276,-0.0046941831507570685,0.0013734305434947905,0.0022770743611204686,0.0018045109624153079
"Wine:1101",-0.5068082098916522,-0.35846073622397323,-0.13894791736720383,0.002218293046551837,-0.06754100242028478,-0.4432136972158914,0.17871425226564108,0.30188583881925884,0.0494865178816848,-0.197024826447898,-0.12393460429489743,-0.22816162374795107,-0.23191523002437556,0.1937364946582434,-0.22475455189269247,0.01976893708918256,0.11808151291234822,0.008309138652681292,-0.014620094159844535,-0.00604125799000161,-0.036127914828365776,-0.05284493869248258,0.036353087810524924,-0.024240570863699594,0.005607684002198449,-0.005200974383521974,-0.002191193948058393,-0.0002745753478865717,-0.004026984105185419,0.0011991649622025032,0.001945542960160411,0.001562383112253246
"Wine:1102",-0.4938570129597628,-0.2767511311673016,-0.16511475346836232,0.0025907074315640495,-0.14571733973989537,-0.5286794743445832,0.2310514941677605,0.2926273511380299,0.19713628382012216,-0.2077068811650287,-0.045537676351209214,-0.049923697990528974,-0.15135697582720875,0.09939946236679163,-0.21594966907111587,0.12274087417985845,0.1500559478039827,0.009974865905499508,-0.017248211339641346,-0.007350045304272163,-0.0426750541333981,-0.06260532872662875,0.04237608424816909,-0.028436399226108494,0.006636725470144171,-0.006100897571130521,-0.00256293066619449,-0.00033927298491429986,-0.004750251993328109,0.0013869062926734948,0.0022648776313538613,0.0018343389067429902
"Wine:1103",-0.4504595261804997,-0.2833895305140242,-0.23621909646984318,0.0023586079761277225,0.0302804844555143,-0.6021131189529974,0.20473600647565865,0.39872456355421704,0.02203986878203947,-0.1892688518093355,-0.04070178543898468,-0.06039085059349166,-0.1488300809548012,0.0013069433941108669,-0.10055434522286669,0.03649099271890722,0.058364399520098,0.008859658470485908,-0.015600357417285564,-0.006225026773744771,-0.03876559955066739,-0.05663270870988968,0.038420968799005195,-0.042134056361476234,0.0060468566684970726,-0.09803926404116906,-0.0022911885028164994,-0.0002986947101763147,-0.004284648879300118,0.001276971135886009,0.002108186778203341,0.0016694828459991862
"Wine:1104",-0.5552593935492602,-0.40338251880265097,-0.27374645830089617,0.0028748273731729734,-0.04267218736280514,-0.5026330283804936,0.1855256813464752,0.2626350398326094,-0.05300472167790069,-0.10864226656379172,-0.04882046382669348,-0.1314831113267622,-0.06386555141752312,0.1135074950624473,-0.10869618806761883,0.02491398285481835,0.07042902182848838,0.13114185717046348,-0.01875688352929142,-0.006976532906121998,-0.0460778382361151,-0.06737321458138035,0.04635937831933368,-0.03108375948731587,0.007432796968088774,-0.0066957633888256405,-0.002733897390746002,-0.0003451432043115319,-0.005195961661548488,0.0015326418902733602,0.002514971963136321,0.002035741296895795
"Wine:1105",-0.5100622238742991,-0.3230511165706754,-0.17428463435315292,0.0022299294076304813,0.07573847056042993,-0.5345798622333664,0.2446939935656979,0.37068869439732677,-0.02991641087159724,-0.17821229448480846,-0.031672493595971955,-0.19833315893395687,0.05898653318161374,0.0988117038537298,-0.09783147810498026,0.019631322162430086,0.05464977290176743,0.09825891412245029,-0.01463815660380279,-0.005711199395082441,-0.04918151278351462,-0.05300650450123974,0.036200580960608936,-0.02425055533052504,0.005721524831337523,-0.005184743716785597,-0.0021497040417798683,-0.0003019428543745134,-0.004062671694273109,0.0012155378756764541,0.00192694638870999,0.001558004953276304
"Wine:1106",-0.5620421846190428,-0.31067756878152775,-0.252681933157587,0.0025050912373241726,-0.20204613411486355,-0.5657161429906883,0.1921635723934621,0.15618485334194462,-0.04394804095141022,-0.10591742405638671,-0.08353835927208865,-0.1915301277015349,-0.09254748262466381,0.09978661998738036,-0.11738339733250326,0.02205433264779136,0.061784465194240044,0.009143057544219915,-0.016512537649834704,-0.00649720816535733,-0.040800911853973505,-0.059468181945899534,0.040937998015293964,-0.02739049567313626,0.006381024974713935,-0.005883919814233899,-0.0024975605531481542,-0.000298392216690905,-0.004576451527116699,0.0013692964715395952,0.0022119446319759156,0.0017626124551300016
"Wine:1107",-0.4400097359372322,-0.35121287855713695,-0.16952125247415226,0.002516455602453719,-0.08883306439922041,-0.6066151403209228,0.181818770889925,0.32030074990749335,-0.07406030612663635,-0.07095736578839104,-0.1468433701019394,-0.1912176687753354,-0.13500140470064423,0.09951296607882115,-0.11703612131949197,0.021833545265209826,0.06186107682939685,0.009059016586609094,-0.01652949294088846,-0.006230479526046089,-0.04073673695623828,-0.05950333275673614,0.14558548783978487,-0.03306504907556728,0.006471678201097943,-0.005920548524890032,-0.0024871159841383175,-0.0002826782090036201,-0.0045986232953413204,0.0013573584659210697,0.0022381131575905946,0.0017897567149645953
"Wine:1108",-0.46558647209340737,-0.349728199016504,-0.15674670511097136,0.0025017985419293312,-0.18182460983297344,-0.5905924494252338,-0.005589368710221716,0.26655732437870333,0.009900340638079685,-0.1985937287365789,-0.042828334899252175,-0.19232545465847303,-0.1396449442228048,0.19627144744351405,-0.11703048111513813,0.022276198452921833,0.061401810644944675,0.009359214244783094,-0.016512975260928812,-0.042097524059482354,-0.04077820763963298,-0.15087862759026768,0.04051330437992938,-0.02722130889625385,0.006348029740145896,-0.005907202599602771,-0.0023797923958832827,-0.00036719459022570186,-0.004557741442027568,0.0013421891275036415,0.0021753732817979283,0.0017509165354818298
"Wine:1109",-0.48623734388120127,-0.24730213615987692,-0.2493237245765474,0.0024445567391251735,-0.18939260286609563,-0.5788493835330915,0.2635500262594379,0.3306647803237574,-0.08981683683021481,-0.19443813195937854,-0.11686480037866534,-0.009694179711040035,-0.06421680896773745,0.0014756836754587117,-0.1216736163332528,0.022919137612528593,0.06019743596585702,0.009548979525526613,-0.016063570381838296,-0.006576203778611113,-0.040005983688163445,-0.05847105013677566,0.03970143305626103,-0.026695977018511292,0.00630942177257241,-0.005756521641029546,-0.0023769250746102652,-0.0003634653592325291,-0.004446996811312233,0.0013213328378767777,0.0021348252078508536,0.0017473903171699539
"Wine:1110",-0.5032081069106338,-0.28834146767832014,-0.23329349071569858,0.0023529990096613717,-0.1410849488253473,-0.5633321851524503,0.25942293522056187,0.30515343336098616,-0.04874066106392479,-0.136173813701432,-0.0405928354114263,0.0005551534168974219,-0.1366568579787733,0.1002110306774173,-0.18660961798876313,0.07636343152988553,0.058044126969984414,-0.07759560886770218,-0.057204534486977446,-0.006372687058976491,-0.03827096194438815,-0.056555994879082076,0.0384113026903392,-0.02572421085233323,0.006038779602416319,-0.005530725763768276,-0.002297671140548072,-0.0002927037917168777,-0.004321769018511683,0.001285576144730115,0.0020944691788952153,0.0016687790920898466
"Wine:1111",-0.45973656059307527,-0.3053827655100906,-0.2513124674261045,0.002533578505745351,-0.1852123157777685,-0.5899707027273634,0.2026351192847228,0.15133403990985297,0.10289118100001343,-0.20192875367270116,-0.09872865986085991,-0.1564745627586116,-0.13948083953778426,0.060819506104498315,-0.22882463533001282,0.11139226278613772,0.06259769570636999,0.009794849233495818,-0.01675593029831317,-0.0071006733423226685,-0.041350582082839094,-0.06087519134847289,0.04150819961786468,-0.02776021203607975,0.006496352696770881,-0.006011292851488467,-0.002474618961187135,-0.0003473316953587991,-0.00463547910189148,0.00134687697380487,0.0022504699386919442,0.0017861629487394058
"Wine:1112",-0.5362683459891571,-0.39260093743804725,-0.17499930778824735,0.0027644211645342417,-0.0016946885189475618,-0.451202330691575,0.26990521609569523,0.2396884647328003,0.016099189065465293,-0.22152922825771773,-0.11054255963212953,-0.11082752110464789,-0.051638209786823056,0.20912102753222728,-0.20830507940015572,0.02496746870220015,0.06822382658343659,0.010342539067189509,-0.018255253699593233,-0.11935914120675471,-0.04511362198210209,-0.07103719783254228,0.04513575680344657,-0.030254331923963054,0.007150028920983851,-0.006461154972649056,-0.0026635736129033034,-0.000364136575482708,-0.005072051024697595,0.0014938618843850294,0.0024509242786224764,0.001957804237678784
"Wine:1113",-0.5630986556976402,-0.354925622172922,-0.17201973011294272,0.002740029199265689,-0.05373474408128667,-0.5093129294005371,0.087120831629448,0.2592070992865484,-0.06256561907915228,-0.22028647612378277,-0.15070493321721468,-0.12851432526872517,-0.12912203190564206,0.10413646109238539,-0.11818893564283967,0.1382138653100522,0.06751898369777727,0.009793843151592577,-0.018114407103021663,-0.006935533300948338,-0.04459950421247667,-0.06530589541741585,0.15911703980287872,-0.03589923404181055,0.007035261161776962,-0.006420224992540134,-0.002686718750086496,-0.00026523606536422783,-0.004993692397294927,0.001467901071059748,0.0024672373260277223,0.001939674694615679
"Wine:1114",-0.5251859018030804,-0.33434908846180794,-0.2316742841985487,0.0023007749550934017,0.007579787365260432,-0.531343038821274,0.005030910683410685,0.3897360222387653,0.016959018500303166,-0.18382058031704684,-0.031013539993721143,-0.2327495857540267,0.05452431530441484,0.09437513925508109,-0.11370200561310935,0.020320376316152425,0.05630555263108095,0.008362471193175534,-0.015051617829347413,-0.005975664531785695,-0.03730771758942051,-0.05468171650828045,0.03713230043578154,-0.024901850644322755,0.005866820447719824,-0.005333516943693641,-0.002261149232987152,-0.00031354214041969675,-0.004190952900871345,0.001231755872090678,0.00204815115128935,0.0016287361121116348
"Wine:1115",-0.5255639228773062,-0.3742065738230442,-0.1406606417815433,0.0022858641164527085,-0.055393462091221896,-0.5343902243864066,0.16187215356149903,0.3092047683134168,0.033772156006484415,-0.24298595025721978,-0.06565964821616022,-0.18538428376512878,-0.06366120642491287,0.08949215596616587,-0.18039899246677557,0.019127768399370002,0.0556156842376247,0.008105912957970177,-0.014939317963182906,-0.005503368742683002,-0.03650793674651601,-0.05349494263746372,0.03696277105299324,-0.024746836257894263,0.00578997688772455,-0.005299815413078554,-0.002262965805147619,-0.0002638949353308222,-0.004117100995888433,0.001214548615024844,0.0020015527676114516,0.0016155560325244738
"Wine:1116",-0.48274507570641534,-0.3988579189151333,-0.2591624794018043,0.002661638694737389,-0.15704712106382757,-0.5708977217691384,0.07586722394558845,0.24456710370967244,-0.06764310308193763,-0.12602284697153066,0.01996857949806322,-0.11884703663808192,-0.14100930486591085,0.21322423197201135,-0.10132902511381127,0.02328680950154568,0.06541191156612863,0.009569099709906439,-0.017571096447733796,-0.0070787096006019595,-0.04297500935133378,-0.06319131256155448,0.04324055218599956,-0.028925955218515997,0.0067706328307980375,-0.0062231935468541255,-0.002597778439065522,-0.0003285602992331903,-0.004844276753633495,0.0014276843574537637,0.002352584266109339,0.001886760401060987
"Wine:1117",-0.4857693460954901,-0.3619826356274797,-0.25350906427337133,0.0024821638188241143,-0.15582890204622665,-0.5046492206058119,0.26752524837137165,0.3219823855126753,0.16949433180862952,-0.10885125217482593,-0.13871889876631904,-0.0292134806116689,-0.1323894405568061,0.09984044067686489,-0.11736675966753553,0.02288130410745977,0.061827566248520226,0.009690374942905935,-0.016511671294272834,-0.006859932291164846,-0.0409155334892445,-0.06013076638597746,0.04094503836049641,-0.027304617365062865,0.006414893355382815,-0.005939755931305817,-0.0024188968032905567,-0.0003406392800676076,-0.0045451640314398715,0.0013479736049487982,0.002202372722813702,0.0017718354431990135
"Wine:1118",-0.5309700558114151,-0.37501524146263815,-0.16858174655956928,0.0023350907667989435,-0.0037669813623269163,-0.4717977257338668,0.22479305055238508,0.2632762764625031,0.07521385187712241,-0.1113999633101993,-0.06786972370077457,-0.18178604001213547,-0.19242960826542088,0.2408286396366937,-0.21225613618171632,0.020792017138523033,0.05723875509605527,0.008720619187080553,-0.015295522408873866,-0.006112330870590291,-0.037977343602458406,-0.05553170075415084,0.03791947248468971,-0.025273015600913978,0.006012596565448457,-0.005410128938429296,-0.0022535951933746324,-0.0003110274134123342,-0.004239263968358444,0.0012346762868572804,0.0020829572258532457,0.0016377267511390103
"Wine:1119",-0.5227176029354177,-0.30658056092743147,-0.14114521937375615,0.002283915100354638,-0.09344854393067134,-0.5483034674665197,0.16285730281975885,0.3624367703409907,-0.13586035800557705,-0.15631671363171692,-0.029432854521971023,-0.17596335396586887,-0.12273600255359486,0.18978451812203087,-0.09862622494373045,0.019291240723471288,0.05568064849934562,0.008042587596498002,-0.014934058639118114,-0.005624640705678813,-0.0365782903862796,-0.05363024639077658,0.03680283730493368,-0.02468844351722243,0.005922987003260788,-0.0053092690636371885,-0.00217730920710309,-0.00028295612592002805,-0.004164838074894579,0.001221808797297249,0.0020008473427287447,0.0016015294996353326
"Wine:1120",-0.48925348224780696,-0.33459680722911656,-0.23091475282948876,0.002548786908223411,-0.06247933016233972,-0.5090440184487278,0.11148560567099891,0.4072126528460259,-0.038871841781812626,-0.30931681458984056,-0.03403044511308334,-0.13031527497280276,-0.08700915327522309,0.13094455836646612,-0.03997308248248073,0.021288507466165757,0.06205568690886345,0.008521923595101639,-0.016534715874971177,-0.006156357057407336,-0.04046765566334723,-0.05946714962499851,0.04108276736409501,-0.027578768607253765,0.006489278573065316,-0.005876379140091692,-0.002469244718223966,-0.00023196984468846693,-0.004597318863864515,0.001354157910795421,0.0022222970852533294,0.001779181527868717
"Wine:1121",-0.5284586837359507,-0.3833450555320643,-0.1702717893723312,0.0027352401389407386,0.0014467737603268188,-0.5287205120353295,0.09599960488344031,0.36757587273853265,-0.08217768222179775,-0.21851709487083945,-0.046617460717271776,-0.10995250765412118,-0.14658734915318924,0.08714745824513721,-0.030447513556691633,0.08997101730006102,0.06705669175797066,0.009537345513995306,-0.01792626472284899,-0.006742179373369735,-0.04385092670500181,-0.06452938530802857,0.044419434622937584,-0.029779981945807797,0.006917746803539898,-0.006334960163374391,-0.0026933680727477117,-0.00030846301838184415,-0.004950240337739294,0.0014288321651593238,0.0024044377107298055,0.0019219402657514493
"Wine:1122",-0.5012601396572715,-0.23453757744262446,-0.2501358158063126,0.0025593896857480543,-0.034709329454529626,-0.5627790987499423,0.19538072233711673,0.34402712665445795,0.02602940443502236,-0.20239252141487205,0.06167861712820084,-0.19529897508218602,-0.09414643121184037,0.10088138309026377,-0.13053871337087167,0.022214987209363435,0.1676527914541802,0.009172521510021344,-0.016787418096142433,-0.006532362510020364,-0.04150070129102219,-0.06070597824908216,0.04158807807155292,-0.02779718176310331,0.006575223775562725,-0.005906604006950542,-0.0024222817352635793,-0.00027137689626449804,-0.004660092065007154,0.0013704434155568633,0.0022621882379782925,0.0018099153160540179
"Wine:1123",-0.5716363900810696,-0.35668686656656795,-0.18731409454634876,0.002486977792938101,-0.010740780236048821,-0.5010614694922544,0.1160087093910539,0.33051799236247525,-0.09361701282039295,-0.11606972692894765,0.01676534411117259,-0.15895922718648856,-0.16084424444023593,0.18659170633923744,-0.1280482281185483,0.021483531416508363,0.06118071014114988,0.009057322126282004,-0.016441835781529898,-0.00630477085235147,-0.04028986224610671,-0.058938310800598526,0.040362785316261786,-0.027081029055383257,0.006367325514273766,-0.00576458664196136,-0.0024622014817627658,-0.00028760306657673023,-0.004520340366615397,0.001359777816350417,0.0021803012967578387,0.0017561487503741228
"Wine:1124",-0.5377482578625353,-0.20146642883097887,-0.23950029443022586,0.002363232451022762,-0.16810362238581175,-0.5216456275116532,0.25282273071092404,0.39386315280202294,-0.09085563917576371,-0.10018090352007945,-0.06570959324665926,-0.008116806927261203,-0.08096682955965954,0.11621113839324111,-0.1611678371910717,0.021558878212134515,0.05846032489509305,0.008916729917980554,-0.015543439630584695,-0.08870601500935461,-0.03864945277269854,-0.094410206043361,0.03858018838660892,-0.025919044186022148,0.0061066090581264705,-0.005590668748962436,-0.002303394834648032,-0.00034013412842649786,-0.004339326107399314,0.0012643066868132605,0.0021234630839033182,0.0016817716332255769
"Wine:1125",-0.6205636492958457,-0.33102398931806437,-0.17141311640095938,0.002705883320613687,-0.00581133348607557,-0.44265610616597484,0.24450320559772135,0.34363476321734016,-0.0926921831749729,-0.11127034160386422,0.009900597852539104,-0.10719937133901067,-0.07198883334478101,0.20646062635415782,-0.08360243719514313,0.024639065564701676,0.0668780362074666,0.009744024953894861,-0.017959976359919052,-0.007414574146478512,-0.04435006980130466,-0.06496435752581907,0.04440004653427215,-0.0297653325643362,0.0069933619324285545,-0.006335360230688287,-0.0026392213197067205,-0.0003311739637892384,-0.00494985957363134,0.0014665434337157023,0.002355608553704108,0.001905096482160199
"Wine:1126",-0.49154006675283557,-0.39507278636554793,-0.2610770106436534,0.0026955725266154603,-0.05535642873162514,-0.5489983096422956,0.20461889129726796,0.30239788301872744,-0.11423901591742473,-0.10877673714115099,-0.04581067816050822,-0.11999179303548746,-0.14609276614391695,0.13892370791704167,-0.00828692778094822,0.023147127314417974,0.06620448502052208,0.00950569315722985,-0.017586349623248582,-0.006775774347139828,-0.04344415889759537,-0.06396173466276057,0.04398670712646441,-0.029376659634266958,0.006816603856430927,-0.006308308967033738,-0.00260992808810858,-0.0003463516105761262,-0.004899127717699338,0.0014441399660336098,0.0023896745938242208,0.0019263134826404404
"Wine:1127",-0.5519286409414697,-0.3147898346250194,-0.1571747800742834,0.002507971516773448,-0.16407603656032024,-0.5976409354603782,-0.05413961959861719,0.3134025655463297,-0.009996498295521673,-0.20035255049494882,-0.04286462153829706,-0.09665827870719135,-0.043959400745197594,0.054383671135906655,-0.13273604732017374,0.02196920422341299,0.06172997460652328,0.009288298770895112,-0.016396792863908587,-0.006448518702830557,-0.04058524381317168,-0.05954904491980353,0.04072998866791054,-0.02717770749377494,0.006489308589170994,-0.005856160640756215,-0.002414920183196942,-0.00034219817617363866,-0.0045701394649038055,0.0013547704917284597,0.002222406421782913,0.0017656925986782321
"Wine:1128",-0.49399656508782624,-0.3410596151962862,-0.20160036541322324,0.0024977974461006477,-0.1115092019861829,-0.5338260032642246,0.2709155543550327,0.2435556750006629,0.024365597967951156,-0.19983040640224348,-0.09892732503048225,-0.1818094784444512,-0.16017024919538983,0.005573632950014604,-0.21783140859807562,0.02242450746727236,0.06141668778153939,0.009063184409473183,-0.016448822960955164,-0.00676337581116302,-0.04072542714432348,-0.059426263408276815,0.04062235271131759,-0.027358468417806155,0.006420916031891569,-0.005878285569321555,-0.0024153835420708714,-0.00038076633615016905,-0.004572447108921882,0.001354850190333528,0.002193478563297255,0.0017523755056581978
"Wine:1129",-0.5067215494138849,-0.3593420690682969,-0.1389924099764534,0.002212816048401388,-0.08948422682748522,-0.5321152950697776,0.07038775196632432,0.30556443626519186,-0.04601676543738525,-0.20753374451525256,-0.1281883212842618,-0.17979664247112048,-0.21967637954620448,0.08774454442121953,-0.209782756286327,-0.0455476704233166,0.05442246396449692,0.008034842339080141,-0.014479359561935586,-0.005803246797777334,-0.03585443243121562,-0.05288193292907781,0.036073577529250646,-0.024023542457047523,0.005666497988591332,-0.005169769452322001,-0.002133189507118052,-0.0002595917030991744,-0.004025953839134572,0.0011904301652509285,0.001945070842163363,0.001572185568856891
"Wine:1130",-0.5149568776617264,-0.22422051559361145,-0.16599074152819224,0.0024846968347170084,0.00020737466449501692,-0.6004517057904126,0.1603995872345251,0.3649757493420312,0.028245568552548825,-0.2009802034508704,0.058063342731910945,-0.12303379971876612,-0.05876461320214045,0.177646129915029,-0.10745191828517867,0.02221163259690012,0.061630916304981076,0.009128425053544626,-0.016531768919949272,-0.0066643207583891115,-0.14205193402271693,-0.06212389859036405,0.04073329394040241,-0.027343860924467157,0.006461437102977364,-0.005870828664136189,-0.0024299168159576086,-0.0003063127162278672,-0.004592440052455617,0.0013483347246506117,0.0022198539662781312,0.0017759959928789996
"Wine:1131",-0.47066304512352186,-0.27177299249153936,-0.16255846988084435,0.0024560376419447984,-0.137806044601002,-0.4894129926446852,0.2633974717707953,0.4103774667061656,0.022876155708243532,-0.1579739668776252,-0.16334371297906763,-0.09807245631780313,-0.20987618798921742,0.18338350920142213,-0.13040884848300238,0.1168682117124843,0.060559455258566645,0.009128862839299662,-0.016186522813421672,-0.016540890010348523,-0.04000151125549671,-0.05877522569692456,0.03989341730603248,-0.02681425379738987,0.006350974425268764,-0.005783416476572285,-0.002422228506905932,-0.0003170978061330553,-0.004455745025251341,0.0013158446123211667,0.002131205975978167,0.0017118019508257942
"Wine:1132",-0.45021261575129484,-0.19347408130616708,-0.23219054479819684,0.002402102962743355,-0.18724394377979636,-0.5750837277875586,0.25843103114285537,0.4037509961851597,0.010660032917412745,-0.1932996403920053,-0.07723050752859147,-0.13470079734522564,-0.1290592467311154,0.01017433684948601,-0.13299243951022674,0.055452019592064646,0.059756218316961145,0.009092094759433223,-0.01607400756976109,-0.006706312809603719,-0.03960851569196589,-0.05811281626772865,0.03944872674703231,-0.02650813545995203,0.0061964370074204965,-0.005676484833798582,-0.002296048444395786,-0.00033799275582351685,-0.0044015853494697495,0.0013035752223470394,0.0021229771139286667,0.0017090581210083508
"Wine:1133",-0.45585723190188576,-0.27526715715182354,-0.22745717272847785,0.0027700537357963732,-0.1590491061961533,-0.5555308874409427,0.2759583356687719,0.27133260635730777,0.1114544740573529,-0.22337742071764238,-0.13387799496036143,-0.1714879031062503,-0.14818145456088574,0.0407054012992788,-0.14421667817121867,0.11037630525141175,0.06843146484261886,0.010382509745330892,-0.01838452377696997,-0.007359951393763962,-0.04541408997597951,-0.0662643410166222,0.04516785541675703,-0.030483675907943607,0.007144104848430236,-0.006550927238235392,-0.0027132066656839183,-0.0003972582394662944,-0.005087045851375915,0.0015119848413689039,0.0024427068993783186,0.0019766269911581738
"Wine:1134",-0.46980871137219,-0.36734446777212904,-0.23336532863516635,0.002464680433300324,-0.13817093293723925,-0.5755637427319915,0.23182636050799604,0.23383903950645796,0.05924027880296019,-0.19730096199180538,-0.14041228181015705,-0.2104228355597398,-0.03400478445840277,0.07413279286045986,-0.029096915819486615,0.02159086532314756,0.06045498050702741,0.07271200401624962,-0.016219519739547623,-0.00616278720953825,-0.03999161735872825,-0.05847902112906969,0.039996713636864197,-0.0268237680221514,0.006210030101563067,-0.005737202046185713,-0.0024081807009332184,-0.0002928974527023217,-0.00447458157251198,0.001318165943680022,0.002164728337749646,0.0017456440075802977
"Wine:1135",-0.5498785339453846,-0.39130001103920686,-0.14863393011113732,0.0024097364258516838,-0.026377730503878108,-0.4885811688703101,0.18119102887000046,0.2609677816620032,0.09374803595242197,-0.2875341618336083,-0.029680225500639052,-0.19365711713081635,-0.08361959699461247,0.09457958943195206,-0.1226800486588291,0.02011279534613649,0.058598772922992544,0.10087905557886064,-0.015596193523438742,-0.005937550304118008,-0.038368455759052025,-0.056446304720333504,0.038871423563947585,-0.02603303365203122,0.006147059338304622,-0.005481060344181576,-0.0023531281175951705,-0.00026909809086305526,-0.004330957927990187,0.001284338268287658,0.0021408014186455526,0.0017147778460156974
"Wine:1136",-0.5315387046678606,-0.3752009100128301,-0.1596976638311094,0.002331085933016064,0.08639881506538777,-0.5252294626450866,0.24100316053115073,0.2180317979752548,-0.11107284651657093,-0.21370359275628917,-0.12135999112521288,-0.09382844833639806,0.01594265728603297,0.20904278095229883,-0.16051875386019532,0.021303871194475552,0.057698816112885194,0.008684833463006634,-0.01549906273898012,-0.006452601120072981,-0.03828387557406075,-0.05621339958059056,0.03809752497684498,-0.02562992590836513,0.006005537061985702,-0.005547693643970944,-0.002295313123425227,-0.00034053576084586,-0.0042686598027638165,0.0012437508027634708,0.0020697619005373724,0.0016535485293951726
"Wine:1137",-0.49174119065336475,-0.31830441792758474,-0.2046765592588911,0.0025148740729241032,-0.14551943014820745,-0.5716874377251266,0.073181434445677,0.3162089084918104,-0.08691458408558302,-0.2748984263794337,-0.022398355235669166,-0.09783428673967896,-0.13430311512835766,0.10060152972801542,-0.1164050806346689,0.022097389767805422,0.062153962444287315,0.11281037432091676,-0.01672576758097012,-0.006523164456270549,-0.055735410928677356,-0.060323622205845466,0.041240442739470494,-0.02760413004944619,0.0065803266788293235,-0.0058640627441186605,-0.002452394147648742,-0.0003030108044650819,-0.004648978838973792,0.001365962480661862,0.0022132192697202945,0.0017861412581297194
"Wine:1138",-0.5026203001471491,-0.2638893904416448,-0.3287643892462413,0.0023110744126225804,-0.14665585727456795,-0.5505310861721168,0.060654675443568874,0.3907855602752676,-0.061242266474680035,-0.16170969719010958,-0.07635476612742352,-0.08847711176365311,-0.12374890966806569,0.09251751480380725,-0.10305551847589446,0.020005049489563522,0.05711421107404222,0.008269112446836476,-0.015310174677813442,-0.00597975931639464,-0.03754451599127498,-0.055121477077350337,0.037688360058698314,-0.025298544941799485,0.0060355576079383095,-0.005414823953143801,-0.002254570707119578,-0.0003170572436982008,-0.004231875471558765,0.0012685094743978844,0.0020424000678160295,0.0016411548446979072
"Wine:1139",-0.52160930183356,-0.3490867786575031,-0.25464131292831244,0.002604181810729129,-0.0156656971416682,-0.42423007877410407,0.18097070540457474,0.44102308252269395,-0.1182927212374417,-0.18290741326495843,-0.13892955901420243,-0.10687144980813627,-0.00786754226679311,0.10411652806727978,-0.13526243244303815,0.033907320149977126,0.06455424951915116,0.009754281754752235,-0.01717868683217443,-0.11040522872869395,-0.042620575487207664,-0.06240091950485297,0.04274535082015434,-0.02859121242066601,0.006782241843764114,-0.0061670077182303384,-0.00254581897671927,-0.0003631586974160077,-0.004770649510708564,0.0013935639811401748,0.0022985635812017473,0.0018410226422304545
"Wine:1140",-0.6211543734256308,-0.3313498519661313,-0.19799324348752312,0.002717997080048024,-0.0035585948491075724,-0.44647476366049216,0.15837403001327727,0.32032452238248055,0.14066326698704984,-0.21841387295585213,-0.047175574795140174,-0.10681327398964387,-0.08271374107468109,0.10831734477062824,-0.15401302525714528,0.02422251109021357,0.06706276161135731,0.01007800515640631,-0.017948713286459504,-0.006940345872680041,-0.044182454371151376,-0.06489191608312059,0.04430849202510634,-0.02980088240747726,0.007000302434391142,-0.006408138171383633,-0.0026702022586268396,-0.0003211146747066029,-0.004924264913186316,0.0014513376076308116,0.0024285984556291903,0.0019275137052535696
"Wine:1141",-0.47093167122295826,-0.3804618295073163,-0.206513498172141,0.002523324921965212,-0.1195327874918365,-0.6129321759368398,0.15737353507981844,0.26120353293283927,-0.0534658034590704,-0.09973985292094542,-0.02338433929672591,-0.18791922592589927,-0.1361705298550242,0.10105204485056506,-0.10966576449734201,0.10011994036848414,-0.00975231368186683,0.0092807797480921,-0.0166727551552752,-0.006473462740777364,-0.04092212386724438,-0.06020458567092918,0.04119467559963772,-0.027679631594701815,0.006512053426576896,-0.005920668901649793,-0.0024430119521463923,-0.0003049959341689645,-0.004635321941102647,0.0013669639585016666,0.0022577060744299335,0.0017968838342487705
"Wine:1142",-0.4911443367637675,-0.18141510750330078,-0.15554416155767928,0.002437241210281269,-0.145011236260009,-0.5813935066281074,0.2609959595914614,0.407577391174969,-0.09828862006427669,-0.11756858028798747,-0.09736111968715977,-0.006812061293049194,-0.1252668662628107,0.07823486734031755,-0.10502792256386653,0.11300689720861966,0.06066206139785561,0.009361069222030994,-0.01624083285001981,-0.006944178534194828,-0.040220410289381996,-0.07800446755893627,0.13095184374759286,-0.026828945595051813,0.006355643888904743,-0.005763807359730093,-0.0023812338763304543,-0.00028864995342609375,-0.004459623639881704,0.0013343532812528447,0.002112184187533353,0.0017046121599303713
"Wine:1143",-0.5226727447789097,-0.39674310948060576,-0.19819456354379317,0.0027562428725055013,0.020573681627753117,-0.5490710033664908,0.09281536430995481,0.24198685191682007,-0.03009238686647298,-0.21911357562116007,-0.04595361894940834,-0.1481237784183896,-0.1176331000761745,0.10862988629025211,-0.10224450437642324,0.023632994133047515,0.06711483269107571,0.12636100015959323,-0.01791691251575776,-0.11353411452236349,-0.043888710908146354,-0.11330348070316507,0.04425735244410053,-0.029773165100099346,0.00709142019358396,-0.006362092642607509,-0.002588770259738054,-0.0002870074967556516,-0.004965815282021992,0.0014740716930687848,0.002446721603589889,0.0019403394517460266
"Wine:1144",-0.5848716333626072,-0.33750245422674185,-0.2299290360081412,0.002559423285953815,-0.026566204335735165,-0.6076733165543947,0.16674151378149063,0.159403719199732,-0.10815964123528457,-0.10278110077720608,-0.10513425411950071,-0.10102415925831268,-0.03170572310964867,0.10169517679439723,-0.009289798185243206,0.022894776722491326,0.06304576415648282,0.00943483948089194,-0.016896918835948797,-0.00672959897571837,-0.04153991826870301,-0.06091871078161761,0.041794354006450804,-0.027979142843281925,0.006664709991126076,-0.005966898147470942,-0.002454547016185697,-0.000310639600485403,-0.004686689357716479,0.0014014258314879022,0.002253670533926859,0.0018112644282738894
"Wine:1145",-0.5049581793103427,-0.3238995199484789,-0.2111292838824425,0.0024730817093327117,-0.18514343268017494,-0.5361352485697775,-0.0010195478650315876,0.3597486927756895,0.024941504386609144,-0.17394571271312947,-0.13911630346639844,-0.135748935947078,-0.13756441962832955,0.09443680457890788,-0.10528285179958832,0.12139010477173023,0.06107049365228705,0.009294704453157571,-0.016335643871464363,-0.006546254180951007,-0.04021400916677718,-0.05904802783771016,0.040360357884442186,-0.02694531551447178,0.0063238245165121035,-0.07270003680479445,0.07157470884397261,-0.0003082016185728955,-0.004513336066163459,0.0013373761669471114,0.002176296135835002,0.0017327226097132696
